tree
version=v4
num_class=1
num_tree_per_iteration=1
label_index=0
max_feature_idx=13
objective=regression
feature_names=week rush_plays_off rush_pct_off rush_plays rushing_yards man_coverage_pct_def zone_coverage_pct_def blitz_rate_def pressure_rate_def spread_line total_line player_moneyline rushing_yards_rolling3 rush_touchdown_rolling3
feature_infos=[1:22] [6:52] [0.10169491525423729:0.93999999999999995] [1:38] [1:229] [0:0.38461538461538458] [0.61538461538461542:1] [0:0.33333333333333331] [0:0.44827586206896552] [-17:20.5] [28.5:57.5] [-2100:1119] [-5:165] [0:2.333333333333333]
tree_sizes=2671 2812 2839 2793 2797 2803 2812 2806 2809 2808 2831 2816 2808 2798 2831 2801 2805 2800 2813 2816 2815 2822 2797 2796 2806 2813 2832 2803 2805 2819 2795 2808 2814 2801 2812 2821 2808 2817 2812 2816 2826 2825 2803 2826 2823 2826 2822 2840 2811 2832 2827 2832 2816 2838 2825 2811 2813 2794 2799 2806 2834 2810 2818 2828 2805 2817 2824 2834 2804 2825 2844 2824 2826 2824 2826 2832 2830 2824 2824 2831 2833 2836 2846 2833 2848 2810 2823 2814 2835 2814 2822 2798 2825 2822 2809 2843 2829 2817 2827 2839 2838 2829 2839 2839 2844 2835 2824 2833 2854 2839 2850 2822 2832 2831 2821 2816 2815 2827 2830 2835 2829 2845 2833 2843 2825 2833 2833 2831 2833 2835 2850 2851 2846 2847 2838 2835 2836 2832 2846 2842 2838 2832 2833 2836 2817 2832 2838 2828 2840 2823 2826 2842 2845 2839 2840 2848 2828 2817 2846 2837 2840 2838 2849 2839 2853 2841 2847 2854 2844 2831 2833 2837 2847 2837 2846 2837 2838 2839 2842 2833 2844 2833 2836 2848 2841 2832 2843 2842 2834 2850 2861 2836 2835 2841 2857 2848 2854 2844 2834 2849 2865 2834 2861 2859 2854 2858 2855 2841 2840 2838 2856 2838 2849 2841 2854 2850 2867 2870 2852 2864 2839 2854 2845 2854 2849 2850 2861 2850 2839 2868 2853 2856 2850 2858 2861 2852 2861 2855 2858 2843 2860 2852 2853 2848 2851 2863 2862 2868 2848 2858 2849 2869 2858 2850 2846 2852 2851 2837 2841 2878 2856 2845 2850 2850 2912 2856 2887 2875 2851 2871 2866 2842 2857 2851 2858 2856 2856 2866 2853 2858 2853 2856 2854 2847 2876 2894 2856 2864 2880 2886 2870 2902 2876 2859 2857 2874 2824 2869 2879 2858 2853 2853 2907 2872 2875 2868 2868 2881 2863 2902 2853 2863 2861 2863 2836 2840 2854 2875 2822 2877 2842 2894 2825 2827 2880 2889 2877 2877 2885 2878 2844 2840 2839 2881 2829 2904 2873 2871 2869 2880 2875 2872 2836 2862 2857 2848 2871 2841 2850 2891 2915 2905 2848 2851 2883 2830 2887 2896 2836 2838 2878 2879 2867 2887 2881 2860 2923 2911 2905 2880 2882 2880 2881 2906 2874 2881 2896 2873 2881 2875 2851 2848 2881 2852 2855 2885 2875 2883 2849 2919 2892 2901 2879 2888 2874 2896 2881 2878 2892 2889 2895 2871 2878 2895

Tree=0
num_leaves=31
num_cat=0
split_feature=13 13 13 4 13 1 12 4 12 4 13 4 5 12 12 4 12 4 5 11 12 12 4 4 8 1 7 10 12 12
split_gain=426.202 118.659 52.6512 23.7268 12.0265 10.5956 7.99961 19.0939 11.0353 7.75211 7.49549 7.12181 6.25 6.19787 4.54801 7.90526 4.39939 3.95145 3.90707 3.8175 3.78926 3.33228 3.21302 2.77978 4.18468 2.65441 2.62974 5.57892 2.53954 2.49576
threshold=0.41666666666666669 1.0000000180025095e-35 1.1666666666666667 87.500000000000014 1.4166666666666667 20.500000000000004 8.8333333333333339 21.500000000000004 24.500000000000004 60.500000000000007 0.83333333333333337 63.500000000000007 0.10300618921308571 86.500000000000014 56.833333333333336 39.500000000000007 19.833333333333339 19.500000000000004 0.068573667711598715 179.00000000000003 65.833333333333357 101.16666666666667 11.500000000000002 18.500000000000004 0.16542288557213927 34.500000000000007 0.039607843137254913 44.250000000000007 47.833333333333336 2.166666666666667
decision_type=2 2 2 2 2 2 2 2 2 2 2 2 2 2 2 2 2 2 2 2 2 2 2 2 2 2 2 2 2 2
left_child=1 -1 3 5 11 19 22 -8 -9 28 14 -4 -6 25 15 16 17 -7 -15 23 -11 -20 29 -2 -25 -5 -17 -28 -10 -3
right_child=2 6 4 13 12 10 7 8 9 20 -12 -13 -14 18 -16 26 -18 -19 21 -21 -22 -23 -24 24 -26 -27 27 -29 -30 -31
leaf_value=0.23399160316226419 0.23639160323378977 0.24208684149875917 0.24325989590334191 0.24565826995310719 0.25599160334107812 0.24026611311811916 0.23535523956654009 0.24103160337207255 0.23753840129752365 0.2401887864455462 0.24334874616416119 0.24899160324000938 0.24849160328147349 0.24699160332617698 0.2389916032804458 0.24639160324571069 0.23838184717373609 0.24542017467598512 0.24440826995310722 0.23495934512658903 0.23765496960807467 0.23919160328147349 0.24245314187597616 0.2429571205166868 0.23717342143890793 0.24961660315295098 0.24606056879254887 0.24043604773916341 0.23581592754095762 0.23818079247630095
leaf_weight=3108 25 21 41 36 25 51 308 125 203 142 140 46 20 20 116 25 82 21 24 31 101 25 39 29 22 32 29 45 148 74
leaf_count=3108 25 21 41 36 25 51 308 125 203 142 140 46 20 20 116 25 82 21 24 31 101 25 39 29 22 32 29 45 148 74
internal_value=0.23632 0.235011 0.242636 0.241614 0.248461 0.240777 0.237738 0.237439 0.238331 0.237763 0.241379 0.24629 0.252658 0.245378 0.240631 0.241383 0.239966 0.241769 0.243267 0.237917 0.239136 0.241747 0.240036 0.239123 0.240462 0.247521 0.243588 0.24264 0.236812 0.239044
internal_weight=5154 4269 885 753 132 616 1161 1027 719 594 509 87 45 137 369 253 154 72 69 107 243 49 134 76 51 68 99 74 351 95
internal_count=5154 4269 885 753 132 616 1161 1027 719 594 509 87 45 137 369 253 154 72 69 107 243 49 134 76 51 68 99 74 351 95
is_linear=0
shrinkage=1


Tree=1
num_leaves=31
num_cat=0
split_feature=13 13 13 2 2 13 2 13 3 7 3 12 2 12 3 12 12 1 1 5 13 2 12 12 12 5 7 7 3 5
split_gain=417.72 116.298 51.6034 18.8713 14.4951 9.29416 8.09767 6.33774 5.89711 5.68856 5.65134 4.70431 4.22758 3.74207 3.18365 3.20349 3.15955 2.92977 2.91635 2.65208 2.63616 2.57087 2.56674 2.3557 2.31843 2.45882 2.17855 2.15879 1.98687 1.97814
threshold=0.41666666666666669 1.0000000180025095e-35 1.1666666666666667 0.42330316742081453 0.43120351588911426 0.83333333333333337 0.39668856048166395 1.4166666666666667 9.5000000000000018 0.055050505050505009 13.500000000000002 8.8333333333333339 0.55907278165503504 55.416666666666679 9.5000000000000018 30.416666666666668 9.4166666666666696 18.500000000000004 35.500000000000007 0.15184453227931485 0.83333333333333337 0.37952859013531215 28.416666666666668 41.166666666666679 67.166666666666671 0.11483516483516476 0.033615819209039506 0.048199767711962806 16.500000000000004 0.090097402597402565
decision_type=2 2 2 2 2 2 2 2 2 2 2 2 2 2 2 2 2 2 2 2 2 2 2 2 2 2 2 2 2 2
left_child=1 -1 3 8 -4 10 16 28 20 18 12 -8 23 27 15 26 -3 -18 -7 21 -2 -15 -16 -5 -12 -26 -13 -10 -6 -11
right_child=2 6 4 5 7 9 11 -9 13 29 24 14 -14 19 22 -17 17 -19 -20 -21 -22 -23 -24 -25 25 -27 -28 -29 -30 -31
leaf_value=-0.0023399160802364352 0.00088243130262535396 0.0026065187045821439 0.0070482130312338109 0.0046021521159972266 0.010138765065758318 0.0092759365311690743 0.00426410742458843 0.017471333870457278 0.008759338140487672 0.0086081872174614358 0.0085296867307155366 0.0036665423524876433 0.0071256390586495397 0.0055202429924371115 0.0057835676791993052 -0.00028051274755726692 -0.0012790295084317523 0.00058459090987141699 0.013922284299677068 0.00010499629378318786 0.0042584109356005994 0.0019971623403184555 0.0022319280936269302 0.0019581406847997145 0.0073407998647202141 0.0035073956902380342 0.001242663187483337 0.0048635783294836681 0.013940702506474086 0.0054767394516357162
leaf_weight=3108 101 54 41 87 27 35 84 36 25 38 62 48 44 53 22 115 120 284 22 20 30 34 271 55 44 27 163 33 28 43
leaf_count=3108 101 54 41 87 27 35 84 36 25 38 62 48 44 53 22 115 120 284 22 20 30 34 271 55 44 27 163 33 28 43
internal_value=-3.49102e-05 -0.00133113 0.00621771 0.0052067 0.0119851 0.00648076 0.00136939 0.0142094 0.00323965 0.00864898 0.00554279 0.00204348 0.00441727 0.00449732 0.00174213 0.00106224 0.000334699 3.10403e-05 0.0110693 0.00338856 0.00165556 0.00414341 0.0024986 0.00357806 0.00711681 0.00588303 0.00179407 0.00654279 0.0120743 0.00694581
internal_weight=5154 4269 885 753 132 457 1161 91 296 138 319 703 186 165 619 326 458 404 57 107 131 87 293 142 133 71 211 58 55 81
internal_count=5154 4269 885 753 132 457 1161 91 296 138 319 703 186 165 619 326 458 404 57 107 131 87 293 142 133 71 211 58 55 81
is_linear=0
shrinkage=0.01


Tree=2
num_leaves=31
num_cat=0
split_feature=4 4 4 12 3 8 11 11 4 3 2 4 8 8 3 11 10 11 11 2 8 12 0 2 8 2 10 12 2 11
split_gain=167.836 39.6917 32.3727 16.2496 11.0391 6.69458 6.44106 4.80828 4.78321 4.16013 3.86787 3.86531 3.73286 3.69693 3.62555 3.17466 3.37078 3.15471 3.13069 4.06811 3.10097 2.60665 2.58201 2.52988 2.87452 3.8882 2.21039 2.10075 2.07067 2.18156
threshold=59.500000000000007 19.500000000000004 93.500000000000014 119.50000000000001 9.5000000000000018 0.10230245944531656 -109.49999999999999 -169.49999999999997 134.50000000000003 15.500000000000002 0.40138888888888896 64.500000000000014 0.13597842835130966 0.22111111111111112 3.5000000000000004 220.50000000000003 44.250000000000007 -157.49999999999997 119.50000000000001 0.49166435120866914 0.043015726179463455 88.500000000000014 5.5000000000000009 0.44801852804940817 0.15301003344481603 0.52586975914362188 44.250000000000007 21.833333333333339 0.47943661971830992 -135.49999999999997
decision_type=2 2 2 2 2 2 2 2 2 2 2 2 2 2 2 2 2 2 2 2 2 2 2 2 2 2 2 2 2 2
left_child=1 14 5 6 20 10 21 -6 18 26 -2 -11 15 17 -1 16 -9 -13 -8 -20 27 23 -12 -4 25 -25 -7 -3 -16 -30
right_child=2 4 3 -5 7 9 8 12 -10 11 22 13 -14 -15 28 -17 -18 -19 19 -21 -22 -23 -24 24 -26 -27 -28 -29 29 -31
leaf_value=-0.0018269685306813303 0.0010696581108816739 -7.3141889138655236e-05 0.0057361065325411886 0.015125127902085133 0.0026110170644838455 -0.00021443650465119969 -4.1065379267647155e-05 0.0010507293351709028 0.0083641051438947522 0.0064837297584329334 0.0079266786632629545 0.0059698431799188253 4.2414738921051846e-05 -0.00040938775454248697 -0.0013227085510475766 -0.00061720776930451391 0.0041001793390346899 0.0022739890810236875 0.0016001251041889192 0.0064982278262957554 -0.00039793316898123851 0.0059012173009770257 0.0044164682910950099 0.011317524555183591 0.012703306518849874 0.005366013225006021 0.0018952442548776927 0.0041255080929169284 0.00099664603252159925 -0.0011951378004989406
leaf_weight=1949 29 22 22 22 207 88 21 73 24 28 26 32 277 35 432 40 72 83 30 39 1052 56 108 21 21 23 114 26 95 87
leaf_count=1949 29 22 22 22 207 88 21 73 24 28 26 32 277 35 432 40 72 83 30 39 1052 56 108 21 21 23 114 26 95 87
internal_value=-3.45612e-05 -0.000820633 0.00410809 0.00687664 0.000331535 0.00268558 0.00617054 0.00134448 0.00439746 0.00195837 0.00438093 0.00307299 0.000777006 0.00243632 -0.00161587 0.00187691 0.00256494 0.0033024 0.00333969 0.00436862 -0.00028452 0.00758404 0.00509755 0.00866724 0.00965932 0.00820651 0.000976175 0.00220113 -0.000945775 -5.10748e-05
internal_weight=5154 4332 822 279 1769 543 257 669 114 380 163 178 462 150 2563 185 145 115 90 69 1100 143 134 87 65 44 202 48 614 182
internal_count=5154 4332 822 279 1769 543 257 669 114 380 163 178 462 150 2563 185 145 115 90 69 1100 143 134 87 65 44 202 48 614 182
is_linear=0
shrinkage=0.01


Tree=3
num_leaves=31
num_cat=0
split_feature=13 13 13 4 2 1 2 13 13 12 12 4 12 12 4 4 12 4 6 12 2 12 12 4 12 4 2 0 1 1
split_gain=406.216 113.162 50.1489 22.4986 14.0847 10.1594 7.82569 7.19586 6.20173 6.0358 4.70705 10.799 7.40351 4.4841 7.53638 4.45873 4.32552 3.83955 3.78066 3.29988 3.28372 3.16527 3.13414 5.65496 3.2089 2.98826 2.87044 2.85041 2.56337 2.5494
threshold=0.41666666666666669 1.0000000180025095e-35 1.1666666666666667 87.500000000000014 0.43120351588911426 20.500000000000004 0.39668856048166395 0.83333333333333337 1.4166666666666667 86.500000000000014 8.8333333333333339 21.500000000000004 27.833333333333339 56.833333333333336 39.500000000000007 60.500000000000007 19.833333333333339 16.500000000000004 0.93142633228840144 101.16666666666667 0.37323383084577116 65.833333333333357 9.4166666666666696 20.500000000000004 22.416666666666668 32.500000000000007 0.33122362869198313 12.500000000000002 34.500000000000007 34.500000000000007
decision_type=2 2 2 2 2 2 2 2 2 2 2 2 2 2 2 2 2 2 2 2 2 2 2 2 2 2 2 2 2 2
left_child=1 -1 3 5 -4 26 22 13 27 29 -8 -12 25 14 16 -14 17 -7 19 -11 -15 -17 -3 -24 -25 -13 -2 -6 -16 -5
right_child=2 6 4 9 8 7 10 -9 -10 18 11 12 15 20 28 21 -18 -19 -20 -21 -22 -23 23 24 -26 -27 -28 -29 -30 -31
leaf_value=-0.0023075547426018475 0.00037691515973872612 0.0025969022126109513 0.0069507238486918015 0.0090891741630103849 0.013618646102292199 0.003485311218960719 0.004235351497218722 0.0068390081333262577 0.017236567785342535 0.0078697677018741766 -0.00059247863351130018 0.0030707076308774013 0.0006875413713546899 0.0061268381206762224 0.0061150272639646924 0.0041057048105832298 0.0019684955750296756 0.0082222850461091315 0.01038053135573864 0.0026785264611244204 0.0017572515183373503 0.0014310390334576367 -0.0015665626004859284 0.0037725789012277829 0.0004784113490371452 0.0064460811764001846 0.0038680459346090048 0.0088861985355615618 0.009771611048625067 0.012968418337404728
leaf_weight=3108 72 54 41 36 35 44 84 140 36 24 153 51 182 21 73 99 82 28 20 25 95 80 143 34 227 54 35 20 26 32
leaf_count=3108 72 54 41 36 35 44 84 140 36 24 153 51 182 21 73 99 82 28 20 25 95 80 143 34 227 54 35 20 26 32
internal_value=-3.42155e-05 -0.00131246 0.0061317 0.00513504 0.0118172 0.00431986 0.0013514 0.00490868 0.0140098 0.00880035 0.00201408 0.00171264 0.00246947 0.0041763 0.00492274 0.0017897 0.00353892 0.00532747 0.00671664 0.00522118 0.0025483 0.00291032 0.000334239 3.18035e-05 0.000907537 0.00480661 0.00151887 0.0118978 0.00707534 0.0109147
internal_weight=5154 4269 885 753 132 616 1161 509 91 137 703 619 466 369 253 361 154 72 69 49 116 179 458 404 261 105 107 55 99 68
internal_count=5154 4269 885 753 132 616 1161 509 91 137 703 619 466 369 253 361 154 72 69 49 116 179 458 404 261 105 107 55 99 68
is_linear=0
shrinkage=0.01


Tree=4
num_leaves=31
num_cat=0
split_feature=13 13 13 4 4 1 12 4 12 4 13 13 12 12 4 12 4 1 5 12 12 4 0 1 12 7 10 12 5 1
split_gain=398.132 110.91 49.151 22.0509 11.3793 9.95727 7.65996 17.928 10.7117 7.23517 7.05267 5.9989 5.91569 4.39704 6.20954 3.98171 3.76449 3.72759 3.70543 3.68637 3.23421 3.1318 2.59804 2.49867 2.48992 2.45059 5.36935 2.44166 2.42884 2.11865
threshold=0.41666666666666669 1.0000000180025095e-35 1.1666666666666667 87.500000000000014 63.500000000000007 20.500000000000004 8.8333333333333339 21.500000000000004 24.500000000000004 60.500000000000007 0.83333333333333337 1.4166666666666667 86.500000000000014 61.833333333333336 39.500000000000007 19.833333333333339 19.500000000000004 27.500000000000004 0.068573667711598715 65.833333333333357 101.16666666666667 11.500000000000002 9.5000000000000018 34.500000000000007 47.833333333333336 0.039607843137254913 44.250000000000007 2.166666666666667 0.091966173361522172 29.500000000000004
decision_type=2 2 2 2 2 2 2 2 2 2 2 2 2 2 2 2 2 2 2 2 2 2 2 2 2 2 2 2 2 2
left_child=1 -1 3 5 17 28 21 -8 -9 24 13 22 23 14 15 16 29 -4 -14 -11 -20 27 -6 -5 -10 -16 -27 -3 -2 -7
right_child=2 6 4 12 11 10 7 8 9 19 -12 -13 18 -15 25 -17 -18 -19 20 -21 -22 -23 -24 -25 -26 26 -28 -29 -30 -31
leaf_value=-0.0022844791398929048 0.0038102373015135526 0.0056165058485099255 0.0060719362189692837 0.00899828246070279 0.014387366056442261 0.0020316797546271622 -0.00097420934249054306 0.0045699834871292117 0.0011501787889179925 0.0037144911394152843 0.0067706179810421811 0.018218711396822563 0.010276726111769677 0.0023192813977295037 0.0091068664450069964 0.0021032587150958452 0.0088375763666062122 0.011059744820512574 0.0077910699943701421 0.0012153107577031201 0.0026517412602901458 0.0059726001589726178 0.0096162241839227221 0.012838734202086926 -0.00055538314017089638 0.0090068773973372672 0.0037296970772976966 0.001753020824210064 0.00051955614686012271 0.0061470034786246042
leaf_weight=3108 32 21 31 36 25 29 308 125 203 142 140 26 20 98 29 88 21 29 24 101 25 39 21 32 148 31 51 74 75 22
leaf_count=3108 32 21 31 36 25 29 308 125 203 142 140 26 20 98 29 88 21 29 24 101 25 39 21 32 148 31 51 74 75 22
internal_value=-3.38733e-05 -0.00129934 0.00607039 0.00508369 0.011699 0.00427667 0.00133789 0.00104448 0.00190924 0.00134932 0.00485959 0.0143793 0.00871235 0.00413454 0.00479098 0.00353018 0.00527419 0.00848271 0.00664947 0.00267574 0.00516896 0.00358658 0.0122092 0.0108056 0.000431024 0.00660835 0.00572473 0.00260705 0.00150369 0.00380692
internal_weight=5154 4269 885 753 132 616 1161 1027 719 594 509 72 137 369 271 160 72 60 69 243 49 134 46 68 351 111 82 95 107 51
internal_count=5154 4269 885 753 132 616 1161 1027 719 594 509 72 137 369 271 160 72 60 69 243 49 134 46 68 351 111 82 95 107 51
is_linear=0
shrinkage=0.01


Tree=5
num_leaves=31
num_cat=0
split_feature=13 13 13 1 13 13 2 2 1 3 7 0 5 12 3 0 3 12 9 12 2 12 3 12 3 3 12 3 3 13
split_gain=387.579 101.134 58.0587 17.5344 13.4993 11.8555 9.1203 8.44773 6.99675 5.04513 6.16421 4.3112 4.23692 4.10519 4.24578 3.5076 3.10362 5.56249 3.0256 2.99116 2.66664 2.54018 2.42311 2.7722 2.17066 1.97555 2.43044 1.91715 1.80623 1.72637
threshold=0.41666666666666669 1.0000000180025095e-35 1.1666666666666667 20.500000000000004 0.83333333333333337 1.4166666666666667 0.48304597701149427 0.39715954875100729 33.500000000000007 16.500000000000004 0.06030303030303031 3.5000000000000004 0.10300618921308571 18.416666666666668 8.5000000000000018 17.500000000000004 3.5000000000000004 57.166666666666679 6.2500000000000009 28.416666666666668 0.49242250287026407 44.166666666666679 15.500000000000002 6.8333333333333348 13.500000000000002 4.5000000000000009 9.8333333333333339 12.500000000000002 10.500000000000002 0.83333333333333337
decision_type=2 2 2 2 2 2 2 2 2 2 2 2 2 2 2 2 2 2 2 2 2 2 2 2 2 2 2 2 2 2
left_child=1 -1 3 27 8 6 24 22 15 20 -11 -10 -7 25 -15 16 -5 -18 -19 -16 21 -6 23 -3 -4 26 -9 29 -22 -2
right_child=2 7 5 4 9 12 -8 13 11 10 -12 -13 -14 14 19 -17 17 18 -20 -21 28 -23 -24 -25 -26 -27 -28 -29 -30 -31
leaf_value=-0.0022621223712242988 -0.0002213533880079494 0.0026847040472608623 0.0043202620595693591 0.0015071083121001722 0.0073629303607675766 0.019090953598851743 0.013517234433028434 0.0035844222559959071 0.0024087781188162891 0.012630787258212631 0.0067324767042608825 0.007247328946811963 0.013198819378247628 0.00013302152997322298 0.0052306532970181219 0.00060472534503787758 0.0058728682173087325 0.0038515506649301171 0.00015192524592081707 0.0017633815880641578 0.0065383360147476203 0.0037990969022115074 0.0027188364258318239 -0.0003359611604761517 0.0087022670301107261 0.0045678257404780783 0.00095110834117919686 0.0038595179332928226 0.010467084700411015 0.0030013655329292474
leaf_weight=3072 68 33 20 40 36 23 36 79 22 37 34 113 26 178 27 32 136 84 30 317 25 45 33 383 26 61 63 22 22 22
leaf_count=3072 68 33 20 40 36 23 36 79 22 37 34 113 26 178 27 32 136 84 30 317 25 45 33 383 26 61 63 22 22 22
internal_value=-4.51237e-05 -0.00130805 0.0059197 0.00487014 0.00549448 0.0120729 0.00974737 0.00118847 0.00454787 0.00766835 0.00980624 0.00645882 0.0159645 0.00185603 0.00138678 0.00374669 0.00409339 0.00450719 0.00287797 0.00203552 0.00648249 0.00538302 0.000110565 -9.63411e-05 0.00679705 0.00306269 0.00241612 0.00121328 0.00837732 0.000566422
internal_weight=5145 4246 899 768 656 131 82 1174 457 199 71 135 49 725 522 322 290 250 114 344 128 81 449 416 46 203 142 112 47 90
internal_count=5145 4246 899 768 656 131 82 1174 457 199 71 135 49 725 522 322 290 250 114 344 128 81 449 416 46 203 142 112 47 90
is_linear=0
shrinkage=0.01


Tree=6
num_leaves=31
num_cat=0
split_feature=13 13 13 4 13 1 2 2 13 12 8 4 5 12 4 4 2 3 8 12 4 1 4 12 12 12 2 4 4 12
split_gain=379.866 99.1215 56.9033 21.6665 11.6196 11.3161 8.93881 8.27962 7.68507 7.98113 6.42428 5.74312 4.15261 4.02349 8.84585 4.67827 3.78224 4.74098 4.96714 3.55575 3.27871 2.96261 4.38018 2.93949 2.89264 2.82909 2.76207 2.69027 2.62619 3.19034
threshold=0.41666666666666669 1.0000000180025095e-35 1.1666666666666667 84.500000000000014 1.4166666666666667 20.500000000000004 0.48304597701149427 0.39715954875100729 0.83333333333333337 58.500000000000007 0.22653958944281524 16.500000000000004 0.10300618921308571 18.416666666666668 44.500000000000007 18.500000000000004 0.57601438109912706 20.500000000000004 0.10300618921308571 36.166666666666679 54.500000000000007 34.500000000000007 56.500000000000007 31.833333333333339 9.8333333333333339 18.416666666666668 0.37693038726538369 21.500000000000004 49.500000000000007 37.833333333333336
decision_type=2 2 2 2 2 2 2 2 2 2 2 2 2 2 2 2 2 2 2 2 2 2 2 2 2 2 2 2 2 2
left_child=1 -1 3 5 6 -2 -4 28 9 11 16 25 -6 15 27 24 17 18 -5 -16 23 22 26 -10 -9 -7 -13 -15 29 -3
right_child=2 7 4 10 12 8 -8 13 20 -11 -12 21 -14 14 19 -17 -18 -19 -20 -21 -22 -23 -24 -25 -26 -27 -28 -29 -30 -31
leaf_value=-0.0022395010791175689 0.0010321980632773233 0.00039521927655485165 0.0067290770165298296 0.013167779636383057 0.018900044016216113 0.0038917405654986699 0.013382062133815554 0.0032047070435634473 0.007957936763763428 0.0014080680921824294 0.002748854920268059 0.0066844851470419346 0.013066831047718342 -0.0015181688175481909 0.0050691514656595561 0.0052693026140332227 0.012095719309789794 0.0053699706356192742 0.0076508081720230428 0.0020429484875326654 0.0086522407770156864 0.0076973745226860046 0.0082751610179742172 0.0040788383675473081 0.00027171804978136431 -0.00025723685269002562 0.0030523619935455093 0.00073118074888914406 0.0016584635763005776 -0.0016003780166308084
leaf_weight=3072 109 241 46 25 23 42 36 82 30 99 20 28 26 85 46 64 28 43 47 249 50 51 30 56 57 27 83 142 88 120
leaf_count=3072 109 241 46 25 23 42 36 82 30 99 20 28 26 85 46 64 28 43 47 249 50 51 30 56 57 27 83 142 88 120
internal_value=-4.46725e-05 -0.00129497 0.0058605 0.00482144 0.0119521 0.00394961 0.0096499 0.00117659 0.00459073 0.00382566 0.00805735 0.00474268 0.0158049 0.00183747 0.00137291 0.00303207 0.0087998 0.00799731 0.00956642 0.00251483 0.00661592 0.00563194 0.00488487 0.00543201 0.00200197 0.00226823 0.00396857 -0.000111087 0.000109459 -0.000268137
internal_weight=5145 4246 899 768 131 605 82 1174 496 360 163 261 49 725 522 203 143 115 72 295 136 192 141 86 139 69 111 227 449 361
internal_count=5145 4246 899 768 131 605 82 1174 496 360 163 261 49 725 522 203 143 115 72 295 136 192 141 86 139 69 111 227 449 361
is_linear=0
shrinkage=0.01


Tree=7
num_leaves=31
num_cat=0
split_feature=13 13 13 1 13 13 2 2 1 7 1 0 5 12 9 0 11 0 12 12 9 9 12 10 12 1 5 1 9 11
split_gain=372.307 97.149 55.771 16.836 13.0242 11.3884 8.76093 8.11486 6.73914 4.22202 5.85731 4.19066 4.06997 3.94343 3.45536 3.42036 3.10208 3.00549 2.992 2.55329 3.02077 2.30871 2.35777 2.21857 2.08044 3.66379 2.02565 1.72526 1.48905 2.66299
threshold=0.41666666666666669 1.0000000180025095e-35 1.1666666666666667 20.500000000000004 0.83333333333333337 1.4166666666666667 0.48304597701149427 0.39715954875100729 33.500000000000007 0.055050505050505009 28.500000000000004 3.5000000000000004 0.10300618921308571 18.416666666666668 3.7500000000000004 17.500000000000004 129.50000000000003 3.5000000000000004 43.166666666666679 57.166666666666679 6.2500000000000009 1.7500000000000002 6.416666666666667 46.250000000000007 44.416666666666679 27.500000000000004 0.061862244897959155 15.500000000000002 5.2500000000000009 -159.49999999999997
decision_type=2 2 2 2 2 2 2 2 2 2 2 2 2 2 2 2 2 2 2 2 2 2 2 2 2 2 2 2 2 2
left_child=1 -1 3 16 8 6 -4 21 15 10 -6 -10 -7 -9 -12 19 18 -15 -2 24 -21 -3 -23 26 -5 -26 -13 -24 29 -19
right_child=2 7 5 4 9 12 -8 13 11 -11 14 23 -14 17 -16 -17 -18 28 -20 20 -22 22 27 -25 25 -27 -28 -29 -30 -31
leaf_value=-0.0022171061128998795 -0.00015313248742710462 -0.00076823443505499097 0.0066617861649264469 0.0040726579677674082 0.0061389891097420133 0.018711043803588203 0.013248241394758225 0.00300174471266164 0.0023376184634187006 0.0061967331608501052 0.0090965935289859766 0.010148701667785644 0.012936162765209492 0.0033365615112568017 0.014314260293136944 0.00056625968310981985 -0.00056599411761985635 0.0027487510499500096 0.0045037447157743812 0.0038166211492875043 0.00012567378580570222 0.0039983207434415823 -0.0019572304796289515 0.0045449219873318304 0.0093149167795976012 0.0039450557364357841 0.006850443219145139 0.00071989554744046017 0.00020545266729464634 0.00079983636171896885
leaf_weight=3072 22 180 46 124 38 23 36 203 22 109 30 27 26 67 22 32 53 105 37 85 30 20 27 26 24 27 60 222 139 211
leaf_count=3072 22 180 46 124 38 23 36 203 22 109 30 27 26 67 22 32 53 105 37 85 30 20 27 26 24 27 60 222 139 211
internal_value=-4.42258e-05 -0.00128202 0.0058019 0.00477322 0.005385 0.0118326 0.0095534 0.00116482 0.0044552 0.00752029 0.00912326 0.00633065 0.0156468 0.0018191 0.0113041 0.00366891 0.00118993 0.00135918 0.00276728 0.00401127 0.00285377 0.000108365 0.000694937 0.00710805 0.00477191 0.00647205 0.00787404 0.000429605 0.001068 0.00144742
internal_weight=5145 4246 899 768 656 131 82 1174 457 199 90 135 49 725 52 322 112 522 59 290 115 449 269 113 175 51 87 249 455 316
internal_count=5145 4246 899 768 656 131 82 1174 457 199 90 135 49 725 52 322 112 522 59 290 115 449 269 113 175 51 87 249 455 316
is_linear=0
shrinkage=0.01


Tree=8
num_leaves=31
num_cat=0
split_feature=13 13 13 4 13 13 2 2 12 2 4 7 12 5 12 4 4 13 12 3 12 5 12 4 4 4 12 4 12 12
split_gain=364.898 95.2157 54.6611 21.0497 11.1617 9.62247 8.58658 7.95337 6.50732 7.2321 6.31 5.37508 4.40935 3.98898 3.86495 8.6637 4.58517 3.67491 3.48346 3.04629 3.24757 2.94344 2.83508 2.63329 2.60589 2.57463 3.11094 3.1974 3.47549 2.46432
threshold=0.41666666666666669 1.0000000180025095e-35 1.1666666666666667 84.500000000000014 1.4166666666666667 0.83333333333333337 0.48304597701149427 0.39715954875100729 58.500000000000007 0.34351679104477612 16.500000000000004 0.056873315363881356 64.416666666666671 0.10300618921308571 18.416666666666668 44.500000000000007 18.500000000000004 0.83333333333333337 36.166666666666679 16.500000000000004 31.833333333333339 0.070802005012531311 9.8333333333333339 21.500000000000004 60.500000000000007 49.500000000000007 37.833333333333336 24.500000000000004 6.8333333333333348 18.416666666666668
decision_type=2 2 2 2 2 2 2 2 2 2 2 2 2 2 2 2 2 2 2 2 2 2 2 2 2 2 2 2 2 2
left_child=1 -1 3 5 6 8 -4 25 9 -2 29 17 -13 -6 16 23 22 -5 -17 20 -7 -14 -9 -16 -20 26 27 28 -3 -11
right_child=2 7 4 11 13 19 -8 14 -10 10 -12 12 21 -15 15 18 -18 -19 24 -21 -22 -23 -24 -25 -26 -27 -28 -29 -30 -31
leaf_value=-0.0021949349990851865 0.00083499027150017876 0.0026322480810411046 0.0065951683275077659 0.0078883284652555303 0.018523933239605116 0.0080078265319267899 0.013115759119391442 0.0031426425187326057 0.001174076528303207 0.0034788842826354795 0.0055715899886311718 0.010525245696306229 0.0085103676319122322 0.01280680122283789 -0.0015151527243502001 0.005003915179682814 0.0051865920890122657 0.012516099512577056 0.00033960377030512861 0.0094836823287464331 0.004539682223565049 0.0040194884494498921 0.00023898346382274964 0.00071025192737579352 0.0026356685515596064 0.0016410040567544375 -0.001582149633516868 0.0023245679953741651 -0.0009634008705615997 -0.00050455998182296756
leaf_weight=3072 63 33 46 37 23 36 36 82 126 41 185 20 20 26 85 46 64 32 68 21 108 54 57 142 181 88 120 63 145 25
leaf_count=3072 63 33 46 37 23 36 36 82 126 41 185 20 20 26 85 46 64 32 68 21 108 54 57 142 181 88 120 63 145 25
internal_value=-4.37835e-05 -0.0012692 0.00574388 0.00472549 0.0117143 0.00386616 0.00945787 0.00115317 0.00309387 0.00386423 0.00462456 0.00791502 0.0063592 0.0154904 0.00180091 0.00134559 0.00297173 0.0100345 0.00247569 0.0059256 0.00540672 0.00523324 0.00195193 -0.000123049 0.00200863 0.000107281 -0.00026659 0.00038846 -0.000296792 0.00197
internal_weight=5145 4246 899 768 131 605 82 1174 440 314 251 163 94 49 725 522 203 69 295 165 144 74 139 227 249 449 361 241 178 66
internal_count=5145 4246 899 768 131 605 82 1174 440 314 251 163 94 49 725 522 203 69 295 165 144 74 139 227 249 449 361 241 178 66
is_linear=0
shrinkage=0.01


Tree=9
num_leaves=31
num_cat=0
split_feature=4 4 4 4 3 8 3 8 1 12 11 8 7 3 10 10 3 5 1 3 7 0 11 5 5 10 4 8 1 10
split_gain=148.586 29.5641 24.1411 12.7823 8.10195 7.88518 6.14114 7.06096 4.40142 4.01859 3.73383 3.69594 3.26587 4.79953 3.6063 3.18755 3.07782 2.86082 2.56347 2.46653 2.24575 2.36611 2.10939 2.06425 3.42551 1.99737 1.96605 1.9083 1.90173 3.47874
threshold=49.500000000000007 85.500000000000014 20.500000000000004 142.00000000000003 9.5000000000000018 0.22540322580645164 13.500000000000002 0.10582306830907051 34.500000000000007 47.500000000000007 -168.49999999999997 0.11483516483516476 0.056873315363881356 20.500000000000004 42.250000000000007 42.250000000000007 3.5000000000000004 0.090097402597402565 31.500000000000004 18.500000000000004 0.086335403726708074 9.5000000000000018 -137.49999999999997 0.076197387518142215 0.059411764705882351 43.750000000000007 70.500000000000014 0.088562091503267909 31.500000000000004 40.750000000000007
decision_type=2 2 2 2 2 2 2 2 2 2 2 2 2 2 2 2 2 2 2 2 2 2 2 2 2 2 2 2 2 2
left_child=2 6 16 5 -4 9 7 8 27 -3 17 -5 14 20 -11 28 -1 -6 -12 -16 -14 -22 -9 24 26 -15 -17 -2 29 -8
right_child=1 3 4 11 10 -7 15 22 -10 12 18 -13 13 25 19 23 -18 -19 -20 -21 21 -23 -24 -25 -26 -27 -28 -29 -30 -31
leaf_value=-0.001723521779242315 0.00068440592424436053 0.00100949926674366 -0.00042334065284192437 0.012850586211681366 0.0011477527022361756 0.0008649552969828896 0.0045154525871787757 0.0012513072948810483 0.0063596286331162313 0.009475423717820966 0.00011243611029008539 0.0074129833877086635 0.0079541290013326535 0.00031506931892147768 0.0077242753420557302 0.0051886374982340003 -0.00093419301361519821 0.0039107723493282112 0.0024025154284766461 0.0042178315780264262 0.0065329500380903486 0.0023792905795077483 -0.00051307019765500902 0.002944067010173091 0.0079278517484664916 0.0042799184595545131 0.0012427977504937545 0.0042915001443841238 0.0001777235838499936 9.9067678374628856e-05
leaf_weight=1938 44 20 942 25 77 46 42 121 33 37 246 25 36 27 35 28 663 73 61 47 32 24 154 189 25 24 23 22 55 31
leaf_count=1938 44 20 942 25 77 46 42 121 33 37 246 25 36 27 35 28 663 73 61 47 32 24 154 189 25 24 23 22 55 31
internal_value=-4.33457e-05 0.00313297 -0.000952567 0.0054219 0.000106711 0.00470392 0.00200492 0.00108767 0.00337772 0.00533014 0.00119929 0.0101318 0.00565996 0.00464148 0.00688385 0.00287783 -0.00152232 0.00249242 0.000567468 0.00571448 0.0060055 0.00475281 0.000263256 0.00350374 0.00489556 0.00218088 0.00340914 0.00188677 0.00158199 0.00264
internal_weight=5145 1145 4000 378 1399 328 767 374 99 282 457 50 262 143 119 393 2601 150 307 82 92 56 275 265 76 51 51 66 128 73
internal_count=5145 1145 4000 378 1399 328 767 374 99 282 457 50 262 143 119 393 2601 150 307 82 92 56 275 265 76 51 51 66 128 73
is_linear=0
shrinkage=0.01


Tree=10
num_leaves=31
num_cat=0
split_feature=3 3 3 12 11 8 2 11 2 10 12 12 5 12 2 8 8 8 8 12 8 12 12 9 8 0 12 2 12 9
split_gain=134.179 23.0105 11.5194 11.5064 6.23375 6.20969 5.2878 4.68251 4.58721 3.77784 3.43243 3.22683 3.06222 2.96103 2.66993 2.52054 3.38849 4.32135 3.0474 2.41567 3.78322 3.28234 2.3234 2.18456 2.13367 2.09688 1.99513 1.87497 2.63247 1.82089
threshold=9.5000000000000018 15.500000000000002 3.5000000000000004 121.16666666666667 -124.49999999999999 0.15470085470085468 0.39638906961613535 -248.99999999999997 0.42444997924449984 50.250000000000007 61.416666666666679 39.166666666666679 0.082482993197278864 59.833333333333336 0.41048534798534803 0.22540322580645164 0.18983268983268983 0.14670014347202293 0.033908045977011456 39.583333333333336 0.075235849056603757 64.416666666666671 71.416666666666671 -1.7499999999999998 0.085960591133004915 6.5000000000000009 67.833333333333357 0.48507130124777187 68.833333333333357 -7.2499999999999991
decision_type=2 2 2 2 2 2 2 2 2 2 2 2 2 2 2 2 2 2 2 2 2 2 2 2 2 2 2 2 2 2
left_child=2 4 -1 7 5 6 23 10 -4 27 -3 -9 -12 29 -13 16 17 18 -16 -8 -21 -22 -7 -2 -20 -25 -19 -6 -29 -10
right_child=1 3 8 -5 9 22 19 11 13 -11 12 14 -14 -15 15 -17 -18 26 24 20 21 -23 -24 25 -26 -27 -28 28 -30 -31
leaf_value=-0.0015277961645755473 -0.0010013817147961979 0.003050178631737426 -0.00091837911215503665 0.011102158020843158 -7.1246789902755891e-05 0.0002027510106563568 0.0026994653746034158 6.3050142649946544e-05 0.0019760881033208636 0.0032068930706887879 0.0091210455959662793 0.0018149473779387288 0.0050745169818401338 0.0028966658797703292 0.0012585640277551569 0.0021125553948665734 0.0069288296852169978 0.0035280622669628687 0.0066409565756718313 0.0079028881604180611 0.0053097800858188096 0.0010771314082322298 0.003481668491776173 -7.2192062031139031e-05 0.0042511163230496227 0.0038464710447523331 0.00023927726806738438 0.00065940609690055114 0.0042204033010281054 -0.00010353544664310024
leaf_weight=2126 29 37 791 22 291 128 66 29 45 53 32 77 45 38 23 67 41 35 60 34 57 27 26 22 99 36 39 103 26 654
leaf_count=2126 29 37 791 22 291 128 66 29 45 53 32 77 45 38 23 67 41 35 60 34 57 27 26 22 99 36 39 103 26 654
internal_value=-1.7028e-05 0.00249695 -0.00105179 0.00400266 0.00148085 0.00235982 0.00327102 0.00373521 -0.000389498 0.000691082 0.00555336 0.00329422 0.00675619 0.000178134 0.0035067 0.00386457 0.0042598 0.00383234 0.0046608 0.00423154 0.00508846 0.00394929 0.000756334 0.00123959 0.00515294 0.00236008 0.00179478 0.000373611 0.00137713 3.03459e-05
internal_weight=5158 1504 3654 606 898 425 271 584 1528 473 114 470 77 737 441 364 297 256 182 184 118 84 154 87 159 58 74 420 129 699
internal_count=5158 1504 3654 606 898 425 271 584 1528 473 114 470 77 737 441 364 297 256 182 184 118 84 154 87 159 58 74 420 129 699
is_linear=0
shrinkage=0.01


Tree=11
num_leaves=31
num_cat=0
split_feature=13 13 13 13 2 2 1 12 5 5 12 12 8 12 7 12 2 2 5 2 0 8 10 12 0 9 8 9 13 7
split_gain=355.889 93.1679 41.1321 20.3081 10.036 9.60892 8.0421 5.58104 3.70824 3.69575 3.4308 3.08154 2.81349 3.8432 2.61697 2.45219 2.21342 2.18608 2.32978 2.15127 2.62675 2.09977 2.51403 2.04753 2.01722 2.00761 2.40839 1.79798 1.79387 3.35685
threshold=0.41666666666666669 1.0000000180025095e-35 0.83333333333333337 1.5833333333333337 0.45798022598870064 0.31010199125789223 23.500000000000004 8.8333333333333339 0.10840188014101056 0.068573667711598715 50.500000000000007 57.500000000000007 0.093386627906976716 68.500000000000014 0.088562091503267909 31.833333333333339 0.41223155929038285 0.50926243567753005 0.048199767711962806 0.56070175438596503 17.500000000000004 0.11396103896103892 50.250000000000007 20.416666666666668 2.5000000000000004 8.2500000000000018 0.21525096525096524 2.7500000000000004 1.1666666666666667 0.06030303030303031
decision_type=2 2 2 2 2 2 2 2 2 2 2 2 2 2 2 2 2 2 2 2 2 2 2 2 2 2 2 2 2 2
left_child=1 -1 5 4 11 -2 23 -8 -5 17 15 -4 13 -11 16 -6 -13 18 -7 20 25 24 -23 -3 -9 26 -14 -25 29 -12
right_child=2 6 3 8 10 9 7 21 -10 12 28 14 19 -15 -16 -17 -18 -19 -20 -21 -22 22 -24 27 -26 -27 -28 -29 -30 -31
leaf_value=-0.0021564913564797185 1.6559950475181852e-05 0.0011179983548752896 0.0071372062270192126 0.018060849457979204 0.0099973625391721731 0.0029382587606842452 0.0039581631496548655 0.0050737008452415465 0.011971317708492279 0.0076450569709626635 0.011668919622898103 0.0038330972653168901 0.0043801643747787972 0.0030208093207329512 0.0011240736246109009 0.0056905527145434658 0.007744489014148712 0.007202821407587298 0.0068016153463610896 0.0058538593724370008 9.1557984168712906e-05 0.00077803650244152379 0.0037740094065666198 -0.001208849304761642 0.001842702848236423 0.00094790073377745492 0.0016260989047586919 0.00037049485898729586 0.011860640790217963 0.0073914431971172957
leaf_weight=3047 56 111 69 20 20 37 96 21 20 41 32 39 154 32 20 39 23 62 27 32 26 422 30 156 242 28 40 134 39 43
leaf_count=3047 56 111 69 20 20 37 96 21 20 41 32 39 154 32 20 39 23 62 27 32 26 422 30 156 242 28 40 134 39 43
internal_value=-1.68577e-05 -0.00122368 0.00570044 0.00829365 0.00746372 0.00393609 0.00112144 0.00169423 0.0150161 0.00439433 0.00910798 0.00557989 0.00386954 0.00561799 0.00426946 0.00715049 0.0052841 0.00586456 0.00456811 0.00341369 0.00309883 0.00139026 0.000976884 -3.69984e-05 0.00210069 0.00345104 0.00381232 -0.000479083 0.0101211 0.0092165
internal_weight=5158 4259 899 364 324 535 1212 811 40 479 173 151 353 73 82 59 62 126 64 280 248 715 452 401 263 222 194 290 114 75
internal_count=5158 4259 899 364 324 535 1212 811 40 479 173 151 353 73 82 59 62 126 64 280 248 715 452 401 263 222 194 290 114 75
is_linear=0
shrinkage=0.01


Tree=12
num_leaves=31
num_cat=0
split_feature=13 13 13 13 4 4 1 1 12 4 12 4 12 4 12 12 12 12 5 4 12 4 4 8 4 3 12 12 4 1
split_gain=348.807 91.3138 40.3136 19.904 13.013 12.9861 7.88206 5.49631 7.25474 9.24604 5.46997 8.46485 6.43982 5.72224 5.40986 5.08078 4.48825 3.88022 3.63445 3.54789 3.86778 4.34958 3.42182 2.65795 2.50313 2.3147 2.73169 2.30976 3.20999 2.18408
threshold=0.41666666666666669 1.0000000180025095e-35 0.83333333333333337 1.5833333333333337 84.500000000000014 86.500000000000014 23.500000000000004 21.500000000000004 56.833333333333336 39.500000000000007 8.8333333333333339 21.500000000000004 30.416666666666668 61.500000000000007 80.833333333333357 81.500000000000014 101.16666666666667 19.833333333333339 0.10840188014101056 55.500000000000007 20.416666666666668 18.500000000000004 20.500000000000004 0.13840996168582378 32.500000000000007 17.500000000000004 32.833333333333336 87.500000000000014 109.50000000000001 26.500000000000004
decision_type=2 2 2 2 2 2 2 2 2 2 2 2 2 2 2 2 2 2 2 2 2 2 2 2 2 2 2 2 2 2
left_child=1 -1 4 5 7 14 19 -2 9 17 -8 -12 24 -14 22 -6 -7 -9 -5 20 21 -3 -4 -11 -13 26 -24 28 -15 -10
right_child=2 6 3 18 15 16 10 8 29 23 11 12 13 27 -16 -17 -18 -19 -20 -21 -22 -23 25 -25 -26 -27 -28 -29 -30 -31
leaf_value=-0.0021349265003130012 0.00093249583741029116 -0.00012542891316115855 0.004117493049518482 0.01788024091720581 0.0092819437556541894 0.013056435494921928 0.0039185814963032797 0.0048623051794607249 0.0035763133579009287 0.0088652047958779848 -0.00050648176054048804 0.0022458609219255118 0.00010003682265156195 0.00234601025640125 0.0027594560384750365 0.004861370118764731 0.0083717667368742137 0.0015404216079293071 0.011851604565978051 0.0022280165426811931 -0.0011644927209073846 0.0042868113902307329 0.010465398743748664 0.0054247823773428449 0.0049535447682242792 0.010582862155778068 0.0064871532339898369 8.5647629969047781e-05 0.0059460808932781219 0.00059389946599529221
leaf_weight=3047 90 80 37 20 52 43 96 67 37 47 179 58 190 142 38 52 39 74 20 59 231 31 20 43 83 21 126 33 30 73
leaf_count=3047 90 80 37 20 52 43 96 67 37 47 179 58 190 142 38 52 39 74 20 59 231 31 20 43 83 21 126 33 30 73
internal_value=-1.66891e-05 -0.00121144 0.00564344 0.00821071 0.00389673 0.00738908 0.00111022 0.00313062 0.00371077 0.0047173 0.00167728 0.00137635 0.00200514 0.00135025 0.0062237 0.00707166 0.0108284 0.00311891 0.0148659 -3.66284e-05 -0.000427313 0.00110682 0.006869 0.00722145 0.00383975 0.00747862 0.00703212 0.00250899 0.00297393 0.00159708
internal_weight=5158 4259 899 364 535 324 1212 431 341 231 811 715 536 395 242 104 82 141 40 401 342 111 204 90 141 167 146 205 172 110
internal_count=5158 4259 899 364 535 324 1212 431 341 231 811 715 536 395 242 104 82 141 40 401 342 111 204 90 141 167 146 205 172 110
is_linear=0
shrinkage=0.01


Tree=13
num_leaves=31
num_cat=0
split_feature=13 13 13 13 2 2 1 3 5 0 1 9 3 5 8 2 7 3 2 3 8 2 8 10 8 10 0 0 9 7
split_gain=341.866 89.4967 39.5114 19.5079 9.74561 9.29157 7.72521 4.9651 3.56212 3.55351 3.54058 4.8134 3.28768 3.28022 3.19546 2.98992 3.48302 2.61449 2.45034 2.87673 2.78955 2.07798 1.8945 2.66616 2.52501 1.66225 1.63854 1.58074 1.48411 1.48043
threshold=0.41666666666666669 1.0000000180025095e-35 0.83333333333333337 1.5833333333333337 0.45798022598870064 0.31010199125789223 23.500000000000004 3.5000000000000004 0.10840188014101056 2.5000000000000004 33.500000000000007 -3.2499999999999996 14.500000000000002 0.061862244897959155 0.096006144393241163 0.32799692622950821 0.097167584579071611 10.500000000000002 0.57601438109912706 9.5000000000000018 0.19478319783197831 0.50926243567753005 0.11396103896103892 50.250000000000007 0.10676291793313065 48.250000000000007 7.5000000000000009 16.500000000000004 -6.7499999999999991 0.076197387518142215
decision_type=2 2 2 2 2 2 2 2 2 2 2 2 2 2 2 2 2 2 2 2 2 2 2 2 2 2 2 2 2 2
left_child=1 -1 5 4 15 17 12 -7 -5 25 11 14 -3 -12 -11 -4 26 -2 19 -6 21 -21 24 -24 28 -9 -17 -13 -8 -20
right_child=2 6 3 8 18 7 22 9 -10 10 13 27 -14 -15 -16 16 -18 -19 29 20 -22 -23 23 -25 -26 -27 -28 -29 -30 -31
leaf_value=-0.0021135771903476835 -0.0016070109026299585 -0.00031626711899791256 0.0028970636129379275 0.017701438635587693 0.0056862397988637296 0.0017157972604036331 -0.00014856005537098853 0.0037906721510269025 0.011733088359236716 0.010018666997551917 0.0093548048407800736 0.0039909980836801409 0.0028917899344648636 0.0054298597048310672 0.0053509911678054113 0.0089877184503006219 0.0032304501430741673 0.0029024190679192543 0.01279724340547215 0.011977842432079893 0.0063218710170342375 0.0085037888669305377 0.0011044700837184883 0.0040427656607194377 0.005047069574395816 3.9412287019547962e-05 0.0061593575278917944 0.0014582701335693227 0.0022475167896066394 0.0091687635105589162
leaf_weight=3047 36 366 35 20 33 64 29 27 20 20 31 164 35 68 55 33 29 20 22 33 26 36 481 33 30 21 54 29 238 23
leaf_count=3047 36 366 35 20 33 64 29 27 20 20 31 164 35 68 55 33 29 20 22 33 26 36 481 33 30 21 54 29 238 23
internal_value=-1.65222e-05 -0.00119933 0.005587 0.0081286 0.00731519 0.00385776 0.00109912 0.00430837 0.0147173 0.00470818 0.00504284 0.00444586 -3.62621e-05 0.00665888 0.0065957 0.00545881 0.00623175 3.4998e-06 0.0089355 0.00822984 0.00911341 0.0101653 0.00166051 0.00129312 0.00229634 0.0021495 0.00723218 0.00361043 0.00198727 0.0109427
internal_weight=5158 4259 899 364 324 535 1212 479 40 415 367 268 401 99 75 151 116 56 173 128 95 69 811 514 297 48 87 193 267 45
internal_count=5158 4259 899 364 324 535 1212 479 40 415 367 268 401 99 75 151 116 56 173 128 95 69 811 514 297 48 87 193 267 45
is_linear=0
shrinkage=0.01


Tree=14
num_leaves=31
num_cat=0
split_feature=4 4 4 12 3 11 9 10 2 2 11 0 4 11 11 9 12 11 1 2 11 4 10 5 10 12 3 9 4 3
split_gain=145.682 28.7796 17.7106 9.44223 6.71637 5.74576 4.48188 4.18862 3.98219 3.66807 2.69927 3.32335 2.3752 2.28229 2.39462 2.20748 6.13677 2.28671 2.23768 2.18883 2.07234 1.95774 4.30016 1.94545 2.66603 2.36648 2.05125 1.92929 2.00766 1.89445
threshold=59.500000000000007 20.500000000000004 95.500000000000014 119.50000000000001 9.5000000000000018 220.50000000000003 -5.2499999999999991 47.250000000000007 0.39377820760799487 0.49324200913242011 -161.49999999999997 6.5000000000000009 150.50000000000003 -103.49999999999999 112.50000000000001 3.7500000000000004 88.500000000000014 -109.49999999999999 36.500000000000007 0.42444997924449984 143.50000000000003 78.500000000000014 44.750000000000007 0.082482993197278864 44.250000000000007 66.500000000000014 18.500000000000004 -8.2499999999999982 51.500000000000007 3.5000000000000004
decision_type=2 2 2 2 2 2 2 2 2 2 2 2 2 2 2 2 2 2 2 2 2 2 2 2 2 2 2 2 2 2
left_child=1 29 6 5 19 12 21 10 -8 -9 11 -6 15 -10 -15 17 18 -4 -17 -3 -19 22 -2 24 -16 26 -25 -21 -29 -1
right_child=2 4 3 -5 7 -7 8 9 13 -11 -12 -13 -14 14 23 16 -18 20 -20 27 -22 -23 -24 25 -26 -27 -28 28 -30 -31
leaf_value=-0.0015896385680289683 0.00093085435032844545 -0.00075445161002581237 0.0058954643766085304 0.012050167742100628 -0.00068256136112742954 0.0013944237898377812 0.0008313362538814545 0.0015222035879141663 0.0035599922088034659 0.0048452686085257417 1.5005415911415972e-05 0.0025391180021268828 0.008585565112255238 -0.00091536971429983778 0.0017889655381441117 0.0068954701656880595 0.0023696804866194725 0.0018400693606389195 0.011410408992142905 0.0028327529992048556 0.0055472070872783661 0.0073556132738788931 0.006739441230893135 0.0016272696998061204 0.0069523303136229519 -0.00013246657326817512 0.0053584224309610289 -0.00012077302060413769 0.0025910144787410212 -0.00096693438049291541
leaf_weight=1949 25 488 75 22 45 34 125 146 218 43 332 111 27 24 20 23 20 38 21 26 25 24 26 41 20 40 23 466 29 652
leaf_count=1949 25 488 75 22 45 34 125 146 218 43 332 111 27 24 20 23 20 38 21 26 25 24 26 41 20 40 23 466 29 652
internal_value=-1.6357e-05 -0.000773877 0.0037121 0.00575682 0.000243793 0.00523039 0.00271766 0.00101432 0.00238261 0.00227824 0.000524813 0.00160979 0.00579992 0.00288497 0.00200905 0.00542758 0.00696263 0.00471567 0.00905033 -0.000273203 0.00331116 0.00500042 0.00389209 0.00249645 0.00437065 0.00177561 0.00296815 0.000177564 3.80994e-05 -0.00143354
internal_weight=5158 4287 871 285 1686 263 586 677 511 189 488 156 229 386 168 202 64 138 44 1009 63 75 51 144 40 104 64 521 495 2601
internal_count=5158 4287 871 285 1686 263 586 677 511 189 488 156 229 386 168 202 64 138 44 1009 63 75 51 144 40 104 64 521 495 2601
is_linear=0
shrinkage=0.01


Tree=15
num_leaves=31
num_cat=0
split_feature=13 13 13 13 2 1 2 2 13 5 0 8 12 3 12 2 12 3 8 8 7 8 3 12 3 12 2 12 1 3
split_gain=338.387 95.1551 40.5187 22.4796 10.7811 10.3325 6.84814 5.79104 5.59123 5.1929 4.65551 4.54767 4.40359 3.51148 5.37763 3.26447 3.75471 5.64138 2.73374 2.5587 2.79975 2.51264 2.51907 3.17344 2.50418 3.48719 2.30825 3.90248 2.25054 2.19807
threshold=0.41666666666666669 1.0000000180025095e-35 0.83333333333333337 1.4166666666666667 0.47709790209790215 33.500000000000007 0.39668856048166395 0.31010199125789223 1.1666666666666667 0.10300618921308571 2.5000000000000004 0.082482993197278864 8.8333333333333339 3.5000000000000004 53.166666666666679 0.32799692622950821 83.166666666666671 16.500000000000004 0.20881782945736432 0.099019607843137264 0.082482993197278864 0.032795698924731158 9.5000000000000018 24.500000000000004 9.5000000000000018 56.833333333333336 0.36803405572755421 42.833333333333336 36.500000000000007 4.5000000000000009
decision_type=2 2 2 2 2 2 2 2 2 2 2 2 2 2 2 2 2 2 2 2 2 2 2 2 2 2 2 2 2 2
left_child=1 -1 5 4 15 7 -3 -2 11 -5 -7 -6 -8 -9 19 -4 17 26 -16 -15 -21 -14 23 29 -12 -26 -17 -28 -10 -23
right_child=2 6 3 9 8 10 12 13 28 -11 24 -13 21 14 18 16 -18 -19 -20 20 -22 22 -24 -25 25 -27 27 -29 -30 -31
leaf_value=-0.0020841352790496454 0.00016151952495177587 0.00029801050744502738 0.0026193481299184983 0.018203630555759777 0.011932604732838543 0.0018879632013184683 0.004008525546859292 0.00099788397233536909 0.01417434916496277 0.011477475712696712 0.0049076840359913677 0.0067772895910523162 0.0043624825583350275 0.0078678374353683359 0.0033362646254174637 0.0085861932992935194 0.0033364924533026558 0.011759924491246541 -5.4560427008004028e-05 0.0027440437050752866 0.0061782237212612947 0.00084270307544580443 0.0021239448907275651 -0.00018743441559565372 0.010708571771780652 0.006344683633205739 0.0080116525407020866 0.0030100624148662277 0.0096738082170486454 0.0031978593143954202
leaf_weight=3052 60 449 31 22 22 21 85 47 25 24 38 77 31 33 132 25 35 21 29 43 53 97 287 156 30 47 26 39 20 67
leaf_count=3052 60 449 31 22 22 21 85 47 25 24 38 77 31 33 132 25 35 21 29 43 53 97 287 156 30 47 26 39 20 67
internal_value=3.2166e-05 -0.00115404 0.00559944 0.00815648 0.00721959 0.00383878 0.001268 0.00302387 0.00925141 0.0146943 0.00621762 0.00792292 0.00187039 0.00353348 0.00394442 0.00556659 0.00619237 0.00709287 0.00272549 0.00546572 0.00464 0.00158553 0.00144371 0.000833622 0.00700825 0.0080449 0.00600389 0.0050107 0.0121741 0.00180487
internal_weight=5124 4224 900 367 321 533 1172 397 144 46 136 99 723 337 290 177 146 111 161 129 96 638 607 320 115 77 90 65 45 164
internal_count=5124 4224 900 367 321 533 1172 397 144 46 136 99 723 337 290 177 146 111 161 129 96 638 607 320 115 77 90 65 45 164
is_linear=0
shrinkage=0.01


Tree=16
num_leaves=31
num_cat=0
split_feature=13 13 13 13 2 1 2 2 13 5 0 8 12 3 12 2 12 3 8 8 7 8 3 12 3 12 2 12 8 12
split_gain=331.653 93.2615 39.7124 22.0323 10.5666 10.1269 6.71186 5.67579 5.47996 5.08956 4.56287 4.45717 4.31596 3.44161 5.27062 3.19951 3.67999 5.52912 2.67934 2.50778 2.74403 2.46264 2.46894 3.11029 2.45434 3.41779 2.26232 3.82482 2.21104 2.18123
threshold=0.41666666666666669 1.0000000180025095e-35 0.83333333333333337 1.4166666666666667 0.47709790209790215 33.500000000000007 0.39668856048166395 0.31010199125789223 1.1666666666666667 0.10300618921308571 2.5000000000000004 0.082482993197278864 8.8333333333333339 3.5000000000000004 53.166666666666679 0.32799692622950821 83.166666666666671 16.500000000000004 0.20881782945736432 0.099019607843137264 0.082482993197278864 0.032795698924731158 9.5000000000000018 24.500000000000004 9.5000000000000018 56.833333333333336 0.36803405572755421 42.833333333333336 0.14946808510638296 5.166666666666667
decision_type=2 2 2 2 2 2 2 2 2 2 2 2 2 2 2 2 2 2 2 2 2 2 2 2 2 2 2 2 2 2
left_child=1 -1 5 4 15 7 29 -2 11 -5 -7 -6 -8 -9 19 -4 17 26 -16 -15 -21 -14 23 -23 -12 -26 -17 -28 -10 -3
right_child=2 6 3 9 8 10 12 13 28 -11 24 -13 21 14 18 16 -18 -19 -20 20 -22 22 -24 -25 25 -27 27 -29 -30 -31
leaf_value=-0.0020632939201292643 0.00015990433593591054 0.0033656805889172988 0.0025931545995896859 0.018021594231778928 0.011813278699463064 0.0018690835578101023 0.0039684403223149917 0.00098790513074144401 0.010069759023189543 0.011362700996299584 0.0048586072890382066 0.0067095167102751794 0.0043188577217440453 0.007789159110098174 0.0033029020103541289 0.0085003312945365912 0.003303127501692091 0.0116423252366838 -5.4014818421725574e-05 0.0027166032929753147 0.0061164415163813901 0.0017868218770841274 0.0021027054359896258 -0.00018556005393083279 0.010601486066977184 0.0062812367588915719 0.0079315359546588016 0.0029799617559481892 0.014530628383159638 0.0001368235997349652
leaf_weight=3052 60 22 31 22 22 21 85 47 25 24 38 77 31 33 132 25 35 21 29 43 53 164 287 156 30 47 26 39 20 427
leaf_count=3052 60 22 31 22 22 21 85 47 25 24 38 77 31 33 132 25 35 21 29 43 53 164 287 156 30 47 26 39 20 427
internal_value=3.18443e-05 -0.0011425 0.00554345 0.00807492 0.0071474 0.0038004 0.00125532 0.00299363 0.0091589 0.0145474 0.00615545 0.00784369 0.00185169 0.00349815 0.00390498 0.00551092 0.00613045 0.00702194 0.00269824 0.00541107 0.0045936 0.00156967 0.00142927 0.000825286 0.00693817 0.00796445 0.00594385 0.00496059 0.0120524 0.00029503
internal_weight=5124 4224 900 367 321 533 1172 397 144 46 136 99 723 337 290 177 146 111 161 129 96 638 607 320 115 77 90 65 45 449
internal_count=5124 4224 900 367 321 533 1172 397 144 46 136 99 723 337 290 177 146 111 161 129 96 638 607 320 115 77 90 65 45 449
is_linear=0
shrinkage=0.01


Tree=17
num_leaves=31
num_cat=0
split_feature=13 13 13 13 4 4 4 1 5 5 1 4 1 11 4 8 9 8 11 4 8 11 9 11 11 9 7 7 3 10
split_gain=325.053 91.4056 38.9221 21.5938 10.2427 7.91028 6.05031 6.03989 4.98828 4.6905 4.14693 3.8395 3.33971 3.02004 2.99336 2.92279 2.81363 2.71225 2.34748 2.3417 2.20173 2.09852 2.04022 1.95727 1.73396 1.72364 1.69893 1.63592 2.93601 2.62414
threshold=0.41666666666666669 1.0000000180025095e-35 0.83333333333333337 1.4166666666666667 49.500000000000007 86.500000000000014 130.50000000000003 25.500000000000004 0.10300618921308571 0.061862244897959155 31.500000000000004 55.500000000000007 27.500000000000004 -189.49999999999997 102.50000000000001 0.13759296822177147 -4.2499999999999991 0.18469785575048728 -210.99999999999997 11.500000000000002 0.031754032258064509 169.50000000000003 2.7500000000000004 -238.49999999999997 -109.49999999999999 3.2500000000000004 0.12390350877192981 0.065942028985507203 20.500000000000004 46.750000000000007
decision_type=2 2 2 2 2 2 2 2 2 2 2 2 2 2 2 2 2 2 2 2 2 2 2 2 2 2 2 2 2 2
left_child=1 -1 4 5 10 12 9 11 -5 15 19 21 13 -4 20 -6 -14 -15 -7 -2 -9 -3 -13 -12 -25 -20 -21 28 29 -11
right_child=2 7 3 8 6 18 -8 14 -10 27 23 22 16 17 -16 -17 -18 -19 25 26 -22 -23 -24 24 -26 -27 -28 -29 -30 -31
leaf_value=-0.0020426609246048046 -0.00018117823600769043 -0.00046189619900865688 0.0075191795329252881 0.017841378287835555 0.010119794969973357 0.012341054702798527 0.010351637573469253 0.0048479336925915315 0.011249073954919975 0.0078700507009351571 0.0069629308987747543 0.0007178596235238589 0.010387735366821289 0.002629696434097631 0.0041834500432014468 0.0051312040537595752 0.0065293009888451057 0.0068438100814819337 0.010050044084588688 0.0027829808939713986 0.0015545229704462386 0.0011029534444945757 0.0038763465645701386 0.0015070432424545289 0.0051618883675999113 0.0066320809125900273 -2.0879094417278586e-05 0.0031279428582638505 0.0020807522177696226 0.0038524607132221088
leaf_weight=3052 50 288 30 22 23 24 21 21 24 37 22 39 23 56 51 24 106 21 36 128 608 122 43 25 27 25 26 96 25 29
leaf_count=3052 50 288 30 22 23 24 21 21 24 37 22 39 23 56 51 24 106 21 36 128 608 122 43 25 27 25 26 96 25 29
internal_value=3.15259e-05 -0.00113108 0.00548802 0.00799417 0.00376239 0.00707592 0.00520982 0.00124277 0.0144019 0.00474837 0.00243472 0.000398808 0.00613382 0.00482765 0.0018534 0.00757243 0.00721724 0.003779 0.00969163 0.00169912 0.00166448 3.74199e-06 0.00237414 0.00446259 0.00340475 0.00864924 0.0023096 0.00403858 0.00499925 0.00610475
internal_weight=5124 4224 900 367 533 321 255 1172 46 234 278 492 236 107 680 47 129 77 85 204 629 410 82 74 52 61 154 187 91 66
internal_count=5124 4224 900 367 533 321 255 1172 46 234 278 492 236 107 680 47 129 77 85 204 629 410 82 74 52 61 154 187 91 66
is_linear=0
shrinkage=0.01


Tree=18
num_leaves=31
num_cat=0
split_feature=13 13 13 13 2 1 2 2 13 5 8 12 3 12 2 12 3 8 9 8 7 3 10 8 8 3 12 9 2 12
split_gain=318.585 89.5866 38.1475 21.1641 10.2451 9.78017 6.47815 5.53765 5.35797 4.88901 4.35909 4.24013 3.31312 5.18936 3.09298 3.62437 5.38432 2.61354 3.81283 2.42951 2.69899 2.40523 2.70729 2.98662 2.37231 2.39806 3.04707 2.31101 2.22648 3.75396
threshold=0.41666666666666669 1.0000000180025095e-35 0.83333333333333337 1.4166666666666667 0.47709790209790215 33.500000000000007 0.39668856048166395 0.31010199125789223 1.1666666666666667 0.10300618921308571 0.082482993197278864 8.8333333333333339 3.5000000000000004 53.166666666666679 0.32799692622950821 83.166666666666671 16.500000000000004 0.20881782945736432 8.2500000000000018 0.099019607843137264 0.082482993197278864 7.5000000000000009 44.750000000000007 0.15047169811320757 0.032795698924731158 9.5000000000000018 24.500000000000004 2.2500000000000004 0.36803405572755421 42.833333333333336
decision_type=2 2 2 2 2 2 2 2 2 2 2 2 2 2 2 2 2 2 2 2 2 2 2 2 2 2 2 2 2 2
left_child=1 -1 5 4 14 7 -3 -2 10 -5 -6 -8 -9 19 -4 16 28 18 -15 -14 -21 -7 23 -23 -13 26 -26 -12 -16 -30
right_child=2 6 3 9 8 21 11 12 -10 -11 27 24 13 17 15 -17 -18 -19 -20 20 -22 22 -24 -25 25 -27 -28 -29 29 -31
leaf_value=-0.0020222343702167079 0.00013290525476137798 0.0002869163261091789 0.002524990737438202 0.017662964639338582 0.011611012694510548 0.003735751264235553 0.0039143089056015009 0.00096733302512067422 0.011846911331017814 0.011136583300928276 0.0043952951629956565 0.0042350010429659194 0.0076645576502337599 0.0039474241754838399 0.0083598995327949528 0.0031970286624772208 0.011447115795952935 -8.6210791406960313e-05 -0.00079266428947448735 0.0026577343150626783 0.0060295534864911494 0.0074131876772100284 0.008715304656084194 0.0028813725709915163 0.0017553647507618114 0.0020625997072520573 -0.00019687021676546488 0.0079478177681882329 0.0077916062909823202 0.0028861139523677338
leaf_weight=3052 60 449 31 22 22 34 85 47 45 24 30 31 33 112 25 35 21 29 20 43 53 33 43 26 164 287 156 47 26 39
leaf_count=3052 60 449 31 22 22 34 85 47 45 24 30 31 33 112 25 35 21 29 20 43 53 33 43 26 164 287 156 47 26 39
internal_value=3.12106e-05 -0.00111977 0.00543314 0.00791423 0.00700516 0.00372477 0.00123034 0.00293193 0.00898583 0.0142579 0.00768534 0.00181623 0.00343027 0.00382944 0.00539377 0.0060029 0.00688763 0.00263204 0.00322923 0.00532387 0.00451926 0.00603915 0.00680695 0.00541612 0.00153671 0.0013989 0.00080365 0.00656372 0.00582375 0.00484831
internal_weight=5124 4224 900 367 321 533 1172 397 144 46 99 723 337 290 177 146 111 161 132 129 96 136 102 59 638 607 320 77 90 65
internal_count=5124 4224 900 367 321 533 1172 397 144 46 99 723 337 290 177 146 111 161 132 129 96 136 102 59 638 607 320 77 90 65
is_linear=0
shrinkage=0.01


Tree=19
num_leaves=31
num_cat=0
split_feature=4 4 4 12 3 11 11 1 9 8 4 4 3 9 12 11 11 3 8 1 5 1 11 1 12 4 1 11 12 4
split_gain=128.196 25.3577 24.8198 15.2539 7.16381 4.89398 3.92578 3.92495 4.87484 3.0881 3.03968 2.6896 2.57149 2.48822 3.74227 2.96198 2.63062 3.58031 2.40124 2.25954 2.18369 2.04795 1.957 1.9497 1.9959 2.84381 1.86694 1.85306 2.86592 3.06954
threshold=54.500000000000007 20.500000000000004 96.500000000000014 119.50000000000001 9.5000000000000018 207.50000000000003 -169.49999999999997 19.500000000000004 -5.7499999999999991 0.15737874097007223 78.500000000000014 150.50000000000003 3.5000000000000004 3.7500000000000004 88.500000000000014 -109.49999999999999 -142.49999999999997 20.500000000000004 0.032795698924731158 28.500000000000004 0.072299651567944212 32.500000000000007 117.50000000000001 28.500000000000004 76.833333333333357 79.500000000000014 32.500000000000007 -195.49999999999997 57.500000000000007 67.500000000000014
decision_type=2 2 2 2 2 2 2 2 2 2 2 2 2 2 2 2 2 2 2 2 2 2 2 2 2 2 2 2 2 2
left_child=1 12 7 5 18 11 -6 -2 10 23 -9 13 -1 15 -15 16 17 -4 -3 -14 21 -11 -17 -10 27 -26 -8 -25 29 -29
right_child=2 4 3 -5 6 -7 26 8 9 20 -12 -13 19 14 -16 22 -18 -19 -20 -21 -22 -23 -24 24 25 -27 -28 28 -30 -31
leaf_value=-0.0015224143716318864 -0.00070645853513624606 0.002759176538540767 0.0067881187703460457 0.014044021055811928 0.0024350186856998794 0.0015177289489656687 0.00029225532620097883 0.0035414697872657402 0.0018026530341053685 0.0047598287910223013 0.0079205318313577897 0.0089409358086793324 -0.0012815176163400925 0.0089110377391702252 0.0037285285713997756 0.00039629631099246797 0.0087554083832285627 0.0015476393090053039 -0.00032219353958674694 -0.0001062779482046183 0.00072644989064761566 0.00074294252829118208 0.0042577052627290994 0.0013199662630047119 0.0024786146134138107 0.0076345284088798196 0.0020883501079720511 0.0028776084123687314 0.0017711063577183362 0.0067575528158953313
leaf_weight=1944 41 26 32 21 174 32 313 51 141 30 23 23 406 38 22 21 22 22 926 274 175 22 35 56 20 23 71 44 58 38
leaf_count=1944 41 26 32 21 174 32 313 51 141 30 23 23 406 38 22 21 22 22 926 274 175 22 35 56 20 23 71 44 58 38
internal_value=3.08985e-05 -0.000743145 0.00326312 0.00586197 0.000289291 0.00516633 0.00118896 0.00229844 0.00247935 0.00218394 0.00490253 0.00570938 -0.00133727 0.00532227 0.00701078 0.00455476 0.00584062 0.00465311 -0.000238038 -0.000807965 0.00126109 0.00306038 0.00280968 0.00273522 0.0032854 0.00523643 0.000624346 0.00285737 0.00347233 0.00467563
internal_weight=5124 4134 990 268 1510 247 558 722 681 607 74 215 2624 192 60 132 76 54 952 680 227 52 56 380 239 43 384 196 140 82
internal_count=5124 4134 990 268 1510 247 558 722 681 607 74 215 2624 192 60 132 76 54 952 680 227 52 56 380 239 43 384 196 140 82
is_linear=0
shrinkage=0.01


Tree=20
num_leaves=31
num_cat=0
split_feature=13 13 13 1 2 2 2 3 7 3 7 8 8 11 2 11 8 3 5 5 9 9 11 10 9 11 3 9 13 1
split_gain=306.279 83.1399 33.4318 16.3782 9.85591 9.82767 7.22067 7.04309 7.81303 6.30236 5.07424 3.80059 3.40251 2.97369 3.10202 2.88458 2.87451 2.72568 2.15347 1.98286 1.95921 1.95314 2.04767 1.83373 2.19829 2.48008 1.57617 1.52488 1.32214 1.30837
threshold=0.41666666666666669 1.0000000180025095e-35 1.1666666666666667 20.500000000000004 0.48112535612535617 0.57601438109912706 0.39668856048166395 8.5000000000000018 0.059411764705882351 13.500000000000002 0.039607843137254913 0.22653958944281524 0.085960591133004915 179.00000000000003 0.32690166975881257 -143.49999999999997 0.080540540540540509 15.500000000000002 0.10300618921308571 0.18394199785177229 1.7500000000000002 7.2500000000000009 -165.49999999999997 38.250000000000007 2.7500000000000004 -149.49999999999997 15.500000000000002 -2.7499999999999996 0.83333333333333337 37.500000000000007
decision_type=2 2 2 2 2 2 2 2 2 2 2 2 2 2 2 2 2 2 2 2 2 2 2 2 2 2 2 2 2 2
left_child=1 -1 3 13 9 7 20 28 12 -4 -7 23 17 14 -2 -12 -8 -9 -6 27 -3 22 -14 -10 25 -25 -22 29 -5 -18
right_child=2 6 4 5 18 10 16 8 11 -11 15 -13 21 -15 -16 -17 19 -19 -20 -21 26 -23 -24 24 -26 -27 -28 -29 -30 -31
leaf_value=-0.0019949460759605938 0.00043886590397582869 -0.00065037655749836489 0.0038913204800337556 0.0023558676469326019 0.014113983334721745 0.012608111202716828 0.0031463273027078891 0.011661204643871473 0.0018452250808477402 0.010074460585327709 0.0088138238078839075 0.0012415415370786512 0.0085207638229642599 -0.001875358410179615 0.0044629074831803641 0.0047472128362366648 0.002993154260566679 0.007203905889216591 0.010627734950360131 -0.0001260927038780157 0.0004476495661725432 0.0035220141887664798 0.0052276212849268104 0.0033500629911820097 0.0039447016485275764 0.0070820880972820776 0.0031374871358275415 0.0013572615655303303 0.0045078555716050643 0.00038598529670549479
leaf_weight=3019 53 185 32 125 37 20 123 23 20 34 37 37 35 28 30 33 118 34 34 69 236 25 41 24 93 69 24 397 37 23
leaf_count=3019 53 185 32 125 37 20 123 23 20 34 37 37 35 28 30 33 118 34 34 69 236 25 41 24 93 69 24 397 37 23
internal_value=1.98342e-05 -0.00111658 0.00530962 0.00449392 0.0098585 0.00509758 0.00114028 0.00460708 0.00531799 0.00707657 0.00816591 0.00419245 0.00704905 0.000942676 0.00189334 0.00689671 0.00175233 0.00900247 0.0124445 0.00146986 0.000136237 0.00594663 0.0067442 0.00472246 0.00503184 0.00611898 0.000695942 0.00167454 0.00284737 0.00256787
internal_weight=5095 4194 901 764 137 653 1175 563 401 66 90 243 158 111 83 70 730 57 71 607 445 101 76 206 186 93 260 538 162 141
internal_count=5095 4194 901 764 137 653 1175 563 401 66 90 243 158 111 83 70 730 57 71 607 445 101 76 206 186 93 260 538 162 141
is_linear=0
shrinkage=0.01


Tree=21
num_leaves=31
num_cat=0
split_feature=13 13 4 1 13 13 4 12 4 8 12 12 4 12 12 12 4 5 5 4 11 8 9 12 4 12 4 12 5 13
split_gain=300.184 81.4854 35.0286 15.6377 12.9167 10.6343 6.74869 11.722 8.16796 6.74319 6.42513 5.78586 7.83314 5.12766 4.64654 4.07117 4.00273 3.905 3.7693 3.42413 3.34455 3.21448 3.18375 2.94088 2.84063 3.87176 2.54582 2.52431 2.69428 2.49052
threshold=0.41666666666666669 1.0000000180025095e-35 89.500000000000014 20.500000000000004 0.83333333333333337 1.1666666666666667 51.500000000000007 22.166666666666668 12.500000000000002 0.054804804804804756 1.8333333333333337 56.833333333333336 39.500000000000007 19.833333333333339 81.500000000000014 36.166666666666679 16.500000000000004 0.068573667711598715 0.10889328063241101 116.50000000000001 179.00000000000003 0.20991432068543447 -1.7499999999999998 65.416666666666671 35.500000000000007 8.8333333333333339 19.500000000000004 85.166666666666671 0.10084745762711866 1.1666666666666667
decision_type=2 2 2 2 2 2 2 2 2 2 2 2 2 2 2 2 2 2 2 2 2 2 2 2 2 2 2 2 2 2
left_child=1 -1 3 20 11 14 7 8 10 -6 -3 12 13 16 22 -8 -5 -16 -7 21 -2 27 -4 29 25 -10 -9 28 -17 -11
right_child=2 6 5 4 9 18 15 26 24 23 -12 -13 -14 -15 17 19 -18 -19 -20 -21 -22 -23 -24 -25 -26 -27 -28 -29 -30 -31
leaf_value=-0.001974996666899972 0.0018255086393838518 0.0057626820178258986 0.0066593497423898607 0.0032164267332930314 0.011584314703941346 0.01581154158115387 0.0056658200468077801 -0.0017017085593743404 0.0057485608884266445 0.006100003601926746 -7.0993223770416994e-05 0.0020177102088928221 0.0067755134023872081 0.0015081248595947172 0.0096152671087871896 0.0013688434217825974 0.0083084416389465326 0.0046302920254794036 0.010320239996910095 0.0048148992174380538 -0.0021925909927597753 -0.00077417084326346711 0.011511054486036301 0.0042965387893935383 0.0060003174753750083 0.0019789511304560718 -3.2386510723436891e-06 -0.00083558715306795571 0.003755237659376659 0.0090308933723263624
leaf_weight=3019 89 21 21 38 26 25 33 122 35 99 187 126 102 82 22 101 26 55 25 37 27 48 38 59 34 123 319 26 89 41
leaf_count=3019 89 21 21 38 26 25 33 122 35 99 187 126 102 82 22 101 26 55 25 37 27 48 38 59 34 123 319 26 89 41
internal_value=1.96358e-05 -0.00110541 0.00525653 0.00425087 0.00490167 0.00912238 0.00112887 0.000651273 0.00189091 0.00679491 0.000517984 0.00376268 0.00464924 0.00316377 0.00767256 0.00233146 0.00528506 0.00605457 0.0130659 0.0019659 0.000890261 0.00156661 0.00978418 0.00616916 0.00337824 0.00281399 -0.00047311 0.00208678 0.00248668 0.00695834
internal_weight=5095 4194 901 715 599 186 1175 841 400 225 208 374 248 146 136 334 64 77 50 301 116 264 59 199 192 158 441 216 190 140
internal_count=5095 4194 901 715 599 186 1175 841 400 225 208 374 248 146 136 334 64 77 50 301 116 264 59 199 192 158 441 216 190 140
is_linear=0
shrinkage=0.01


Tree=22
num_leaves=31
num_cat=0
split_feature=13 13 13 1 2 2 2 3 7 3 12 7 12 12 13 3 9 11 2 11 0 3 9 12 2 12 3 10 12 3
split_gain=294.211 79.8639 32.1387 15.7325 9.56455 9.55423 7.00347 6.83479 7.62781 6.13408 5.27023 4.94173 4.05579 3.52793 3.26058 3.25729 2.93729 2.85909 3.04109 2.8175 2.75448 2.26975 2.11102 2.74116 2.10458 2.05747 3.39754 2.9514 1.94848 2.51929
threshold=0.41666666666666669 1.0000000180025095e-35 1.1666666666666667 20.500000000000004 0.48112535612535617 0.57601438109912706 0.39668856048166395 8.5000000000000018 0.059411764705882351 13.500000000000002 19.833333333333339 0.039607843137254913 8.8333333333333339 56.833333333333336 0.83333333333333337 13.500000000000002 3.2500000000000004 179.00000000000003 0.32690166975881257 -143.49999999999997 17.500000000000004 3.5000000000000004 5.2500000000000009 89.833333333333357 0.42330316742081453 64.416666666666671 13.500000000000002 44.750000000000007 33.166666666666679 4.5000000000000009
decision_type=2 2 2 2 2 2 2 2 2 2 2 2 2 2 2 2 2 2 2 2 2 2 2 2 2 2 2 2 2 2
left_child=1 -1 3 17 9 7 -3 10 13 -4 21 -7 -8 16 24 28 -9 18 -2 -13 25 -5 23 -6 -15 26 27 -10 29 -14
right_child=2 6 4 5 22 11 12 8 20 -11 -12 19 15 14 -16 -17 -18 -19 -20 -21 -22 -23 -24 -25 -26 -27 -28 -29 -30 -31
leaf_value=-0.001955246684734061 0.0004156929535685845 0.00012876180249653507 0.0037810619268566371 0.0034110173812279335 0.013277511845032374 0.012404985189437867 0.0037600789790929751 0.010727187062011046 0.0016694873379122827 0.0098810947204337404 0.0012831839391340813 0.0086633472748704858 0.00051102885178157264 0.0016415732247488841 0.0080351062076432361 0.0025114813402070473 0.0065391142801804981 -0.0018395523886595452 0.0044000233262777326 0.0046442997997457333 0.00080760827530985296 0.0071827987057191357 0.014550479459762573 0.0083906578882174052 0.005645932878766741 0.0034417506180844217 0.0074383509539543312 0.0058788802060816027 0.00018429270581058835 0.0024771354430251653
leaf_weight=3019 53 445 32 39 24 20 86 34 31 34 96 37 126 21 35 199 33 28 30 33 23 27 25 22 35 106 47 36 184 135
leaf_count=3019 53 445 32 39 24 20 86 34 31 34 96 37 126 21 35 199 33 28 30 33 23 27 25 22 35 106 47 36 184 135
internal_value=1.94395e-05 -0.00109436 0.00520396 0.00440419 0.009664 0.00499583 0.00111759 0.00451221 0.00521252 0.0069235 0.00277871 0.00802117 0.00172036 0.00692294 0.00564076 0.00144798 0.0086644 0.000923648 0.00185581 0.00676865 0.0041004 0.00495402 0.0122115 0.0109403 0.0041443 0.00444464 0.00537716 0.00393125 0.000972388 0.00152798
internal_weight=5095 4194 901 764 137 653 1175 563 401 66 162 90 730 158 91 644 67 111 83 70 243 66 71 46 56 220 114 67 445 261
internal_count=5095 4194 901 764 137 653 1175 563 401 66 162 90 730 158 91 644 67 111 83 70 243 66 71 46 56 220 114 67 445 261
is_linear=0
shrinkage=0.01


Tree=23
num_leaves=31
num_cat=0
split_feature=13 13 13 1 2 2 2 3 7 3 12 7 12 12 13 3 9 11 2 11 0 3 13 2 12 3 5 1 9 12
split_gain=288.356 78.2746 31.4992 15.4194 9.37422 9.3641 6.8641 6.69878 7.47601 6.01201 5.16536 4.84339 3.97508 3.45772 3.19569 3.19247 2.87884 2.80219 2.98058 2.76143 2.69967 2.22458 2.07504 2.0627 2.02585 3.3987 2.10196 1.98686 1.91283 1.9097
threshold=0.41666666666666669 1.0000000180025095e-35 1.1666666666666667 20.500000000000004 0.48112535612535617 0.57601438109912706 0.39668856048166395 8.5000000000000018 0.059411764705882351 13.500000000000002 19.833333333333339 0.039607843137254913 8.8333333333333339 56.833333333333336 0.83333333333333337 13.500000000000002 3.2500000000000004 179.00000000000003 0.32690166975881257 -143.49999999999997 17.500000000000004 3.5000000000000004 1.5833333333333337 0.42330316742081453 57.166666666666679 13.500000000000002 0.099019607843137264 37.500000000000007 1.7500000000000002 33.166666666666679
decision_type=2 2 2 2 2 2 2 2 2 2 2 2 2 2 2 2 2 2 2 2 2 2 2 2 2 2 2 2 2 2
left_child=1 -1 3 17 9 7 28 10 13 -4 21 -7 -8 16 23 29 -9 18 -2 -13 24 -5 27 -15 25 -10 -26 -6 -3 -14
right_child=2 6 4 5 22 11 12 8 20 -11 -12 19 15 14 -16 -17 -18 -19 -20 -21 -22 -23 -24 -25 26 -27 -28 -29 -30 -31
leaf_value=-0.0019356942440390233 0.00041153603004959394 -0.00064977264243203244 0.0037432512547820808 0.0033769071331390967 0.012857447612285614 0.012280935347080231 0.0037224782379560693 0.010619915180346544 0.0039905509066123232 0.0097822837794528279 0.0012703520711511375 0.0085767138407037077 0.0015127007349240826 0.0016251575095312938 0.0079547551444598616 0.0024863665322562558 0.0064737230990872243 -0.001821156873234681 0.0043560231228669481 0.0045978568449164883 0.00079953216988107442 0.0071109705501132539 0.014559070804844731 0.0055894735710961471 0.005179772658168145 0.008056526850251591 0.0026183348710154307 0.0087848590249600626 0.00068051518901036338 0.0001824497642076534
leaf_weight=3019 53 185 32 39 25 20 86 34 52 34 96 37 261 21 35 199 33 28 30 33 23 27 23 35 53 34 81 23 260 184
leaf_count=3019 53 185 32 39 25 20 86 34 52 34 96 37 261 21 35 199 33 28 30 33 23 27 23 35 53 34 81 23 260 184
internal_value=1.92451e-05 -0.00108341 0.00515192 0.00436015 0.00956736 0.00494587 0.00110641 0.00446708 0.0051604 0.00685427 0.00275092 0.00794096 0.00170316 0.00685371 0.00558436 0.0014335 0.00857776 0.000914412 0.00183725 0.00670097 0.00405939 0.00490448 0.0120894 0.00410286 0.0044002 0.00559803 0.00363144 0.010906 0.000127474 0.000962664
internal_weight=5095 4194 901 764 137 653 1175 563 401 66 162 90 730 158 91 644 67 111 83 70 243 66 71 56 220 86 134 48 445 445
internal_count=5095 4194 901 764 137 653 1175 563 401 66 162 90 730 158 91 644 67 111 83 70 243 66 71 56 220 86 134 48 445 445
is_linear=0
shrinkage=0.01


Tree=24
num_leaves=31
num_cat=0
split_feature=13 13 4 1 13 13 2 8 4 2 2 4 8 6 8 11 2 9 7 3 9 3 13 8 3 6 10 6 9 8
split_gain=282.617 76.7169 33.6247 14.7079 12.2635 10.0012 6.7275 6.46527 4.12865 4.04307 3.75462 3.71894 3.70494 3.66062 3.43101 3.15481 3.20123 2.3899 2.29547 3.67825 2.20309 2.16722 2.9666 2.11093 2.05998 3.40207 2.4076 2.02851 1.87476 1.87422
threshold=0.41666666666666669 1.0000000180025095e-35 89.500000000000014 20.500000000000004 0.83333333333333337 1.1666666666666667 0.39668856048166395 0.054804804804804756 11.500000000000002 0.5572599531615926 0.58596059113300503 32.500000000000007 0.085410334346504566 0.89619252873563238 0.11483516483516476 179.00000000000003 0.32690166975881257 -3.2499999999999996 0.037386443046820358 14.500000000000002 -4.7499999999999991 18.500000000000004 1.1666666666666667 0.10840188014101056 15.500000000000002 0.90283241542092851 39.250000000000007 0.89813213420961613 1.7500000000000002 0.19782608695652179
decision_type=2 2 2 2 2 2 2 2 2 2 2 2 2 2 2 2 2 2 2 2 2 2 2 2 2 2 2 2 2 2
left_child=1 -1 3 15 8 9 28 -6 -5 12 18 -8 -4 -7 -13 16 -2 -16 19 23 -9 22 -22 -10 26 -26 -20 -11 -3 -14
right_child=2 6 5 4 7 13 11 20 10 27 -12 14 29 -15 17 -17 -18 -19 24 -21 21 -23 -24 -25 25 -27 -28 -29 -30 -31
leaf_value=-0.0019163372356021352 0.00037772675526553191 -0.00064327491618491515 0.0099466140839186579 0.00083084235372750653 0.011280677077861933 0.010006543183326722 0.00093419942940246165 0.0085785026422568727 0.0094480646401643754 0.0078273090273141867 0.0073415591063038001 0.0035572767952406731 0.0063519151806831365 0.015418099129199983 0.003556005969643593 -0.0021382005733472328 0.0043584180070507916 0.0010933461681168566 -0.00054248839616775511 0.0020492826131257146 0.0049907474950248122 0.0024591923207044602 0.0079845253849516115 0.0049592181769284333 0.0025162044052894302 0.0077373360469937327 0.003133792326859901 0.012277264126709528 0.00067371004705245676 0.0029026819571204808
leaf_weight=3019 58 185 22 46 26 25 346 28 20 20 31 148 50 25 50 27 31 186 20 22 102 20 49 22 26 24 163 21 260 23
leaf_count=3019 58 185 22 46 26 25 346 28 20 20 31 148 50 25 50 27 31 186 20 22 102 20 49 22 26 24 163 21 260 23
internal_value=1.90527e-05 -0.00107258 0.0051004 0.0041151 0.00474626 0.008888 0.00109535 0.00659101 0.00363645 0.007482 0.00402992 0.00168613 0.00634929 0.0127123 0.00236364 0.000855928 0.00176426 0.0016151 0.00368426 0.00536169 0.00597829 0.00555253 0.00596224 0.00709676 0.0032235 0.00502235 0.00273201 0.0101066 0.000126199 0.00526517
internal_weight=5095 4194 901 715 599 186 1175 225 374 136 328 730 95 50 384 116 89 236 297 64 199 171 151 42 233 50 183 41 445 73
internal_count=5095 4194 901 715 599 186 1175 225 374 136 328 730 95 50 384 116 89 236 297 64 199 171 151 42 233 50 183 41 445 73
is_linear=0
shrinkage=0.01


Tree=25
num_leaves=31
num_cat=0
split_feature=13 13 4 4 13 12 4 12 12 2 4 2 4 12 13 12 12 4 11 12 4 10 2 13 4 5 7 12 10 12
split_gain=262.915 89.3908 20.0861 19.4341 9.83479 9.59881 10.9117 9.46261 8.83439 7.27307 6.34773 5.53449 5.32925 5.0424 4.74978 4.45792 3.52783 2.92765 2.87463 2.85499 2.86235 2.79114 2.6848 3.90062 2.66024 2.51676 2.34985 2.18354 2.18258 2.14682
threshold=1.0000000180025095e-35 0.83333333333333337 53.500000000000007 86.500000000000014 0.41666666666666669 19.416666666666668 18.500000000000004 2.166666666666667 56.833333333333336 0.45923792645104128 19.500000000000004 0.53546277665995989 96.500000000000014 47.833333333333336 1.1666666666666667 55.416666666666679 10.41666666666667 5.5000000000000009 -135.49999999999997 69.500000000000014 105.50000000000001 46.750000000000007 0.33884636413340624 0.58333333333333337 113.50000000000001 0.082482993197278864 0.088562091503267909 30.833333333333339 42.750000000000007 80.833333333333357
decision_type=2 2 2 2 2 2 2 2 2 2 2 2 2 2 2 2 2 2 2 2 2 2 2 2 2 2 2 2 2 2
left_child=-1 2 5 9 19 6 7 -2 21 15 -7 25 28 22 -11 -3 17 -9 -16 20 27 -6 -12 -24 -21 -5 29 -4 -10 -17
right_child=1 3 4 11 8 10 -8 16 12 14 13 -13 -14 -15 18 26 -18 -19 -20 24 -22 -23 23 -25 -26 -27 -28 -29 -30 -31
leaf_value=-0.001897864089126593 0.0067391897793169378 0.0062911583167133914 0.0055890364795923228 0.011732007889520555 0.0093636565817439028 -0.0011787536221684195 0.0046237900830232185 -9.9363506392196381e-05 0.0047015800952911382 0.006051242430177 -0.00015931060222479015 0.013798300333139373 0.005972083404660225 -0.00030708466734841606 0.012357447697566106 0.0055311764563832971 -0.00070050934587067713 0.0029629636958644198 0.0073146848678588873 -0.00029769168618847344 0.0063353091762179429 0.0049637895680609201 0.0013911323635106159 0.0041539343500482861 0.0034631335849945361 0.0073759142392211489 0.00045490015830312462 0.0021061113211843703 0.0012594481962067742 0.0015446931530128827
leaf_weight=3104 27 66 20 21 46 204 130 54 25 72 65 41 60 214 26 35 123 74 20 68 21 21 197 69 26 36 28 180 70 22
leaf_count=3104 27 66 20 21 46 204 130 54 25 72 65 41 60 214 26 35 123 74 20 68 21 21 197 69 26 36 28 180 70 22
internal_value=-5.94184e-05 0.0027094 0.00174004 0.00718376 0.00333839 0.000998202 0.00223231 0.00111399 0.00495042 0.00579481 0.000325951 0.0109963 0.00363888 0.00088918 0.00765489 0.00434125 0.000508889 0.00167104 0.0101649 0.00220229 0.00282318 0.00798459 0.0016626 0.0021078 0.000742537 0.00898079 0.0028272 0.0024544 0.00216527 0.00399253
internal_weight=5165 2061 1694 367 537 1157 408 278 222 269 749 98 155 545 118 151 251 128 46 315 221 67 331 266 94 57 85 200 95 57
internal_count=5165 2061 1694 367 537 1157 408 278 222 269 749 98 155 545 118 151 251 128 46 315 221 67 331 266 94 57 85 200 95 57
is_linear=0
shrinkage=0.01


Tree=26
num_leaves=31
num_cat=0
split_feature=4 4 4 4 8 3 8 2 3 8 8 12 3 7 4 8 2 10 8 6 8 6 4 7 11 10 12 7 10 3
split_gain=108.441 25.4605 20.442 10.2759 6.14274 4.65355 3.92994 3.90295 4.33671 6.21895 3.88824 3.6315 3.47089 3.2084 3.1335 2.8062 3.68918 2.70663 2.56073 2.39647 2.26197 2.22856 2.10823 1.9512 3.46963 2.2406 1.87147 1.80603 1.67421 2.99368
threshold=49.500000000000007 142.00000000000003 18.500000000000004 85.500000000000014 0.10762548262548262 9.5000000000000018 0.22540322580645164 0.56070175438596503 20.500000000000004 0.075235849056603757 0.11952380952380952 105.50000000000001 13.500000000000002 0.032795698924731158 71.500000000000014 0.15470085470085468 0.54132513661202197 43.750000000000007 0.17521929824561402 0.92476415094339626 0.043015726179463455 0.9439203354297695 100.50000000000001 0.021980676328502403 -285.49999999999994 46.750000000000007 54.166666666666679 0.10300618921308571 44.750000000000007 7.5000000000000009
decision_type=2 2 2 2 2 2 2 2 2 2 2 2 2 2 2 2 2 2 2 2 2 2 2 2 2 2 2 2 2 2
left_child=2 3 -1 4 19 20 7 8 9 -5 -9 -3 28 -11 17 16 23 26 -15 -2 -4 -21 -8 -7 -25 -26 -14 -17 29 -6
right_child=1 11 5 6 12 15 22 10 -10 13 -12 -13 14 18 -16 27 -18 -19 -20 21 -22 -23 -24 24 25 -27 -28 -29 -30 -31
leaf_value=-0.0013980558732660806 0.0023354137698551277 0.0074424181034167605 0.001849890519329842 0.0090983259737491603 0.0026328683972358701 -0.001143188201116793 -0.0011244296756657687 0.0038380560892469747 0.0015303338617086409 0.00084514994294412676 0.0085225794323392813 0.012943553104996681 0.0028730010601782032 0.0035002495977096261 0.00035083188047242719 0.00090230460015108002 0.004635001030914924 0.0036496943891595264 0.0072218228704654256 0.0061753635070262818 -0.00039273650096408253 0.0027725870201462193 0.0030816870469313404 0.0044469384939381578 0.00012444981397726596 0.0025716633363203566 -0.00050102347135543826 -0.00098599909967982883 0.0011087303274259792 -0.0012007009820504623
leaf_weight=2460 154 30 47 25 25 33 22 34 70 31 37 20 31 64 86 106 34 109 26 39 1044 38 26 33 117 55 35 97 127 110
leaf_count=2460 154 30 47 25 25 33 22 34 70 31 37 20 31 64 86 106 34 109 26 39 1044 38 26 33 117 55 35 97 127 110
internal_value=-5.88243e-05 0.00266536 -0.000829526 0.002345 0.00169751 6.35672e-05 0.00380233 0.00424527 0.00357669 0.00455782 0.00627929 0.00964287 0.00109765 0.00361969 0.00191385 0.000889723 0.00155373 0.00268197 0.00457537 0.00305563 -0.000296125 0.00449607 0.00115388 0.00111355 0.00147683 0.000906989 0.00108375 1.16992e-08 0.000284555 -0.000490781
internal_weight=5165 1139 4026 1089 754 1566 335 287 216 146 71 50 523 121 261 475 272 175 90 231 1091 77 48 238 205 172 66 203 262 135
internal_count=5165 1139 4026 1089 754 1566 335 287 216 146 71 50 523 121 261 475 272 175 90 231 1091 77 48 238 205 172 66 203 262 135
is_linear=0
shrinkage=0.01


Tree=27
num_leaves=31
num_cat=0
split_feature=13 13 13 13 1 3 12 12 7 3 7 1 10 8 12 9 3 1 12 9 3 12 3 0 8 11 6 3 7 12
split_gain=255.717 86.9738 16.2376 15.9138 8.77117 8.00202 6.39064 6.38785 4.96137 5.44512 4.84166 4.29074 3.85626 3.63881 2.81995 2.73024 2.5319 2.45309 2.41606 2.37021 2.25117 2.17005 3.16017 2.1247 2.10442 2.75378 2.0572 2.23348 2.4297 2.00157
threshold=1.0000000180025095e-35 0.83333333333333337 0.41666666666666669 1.4166666666666667 28.500000000000004 9.5000000000000018 6.8333333333333348 56.833333333333336 0.039607843137254913 13.500000000000002 0.080863121185701756 23.500000000000004 44.750000000000007 0.073622402890695507 19.833333333333339 3.2500000000000004 14.500000000000002 34.500000000000007 36.833333333333336 5.2500000000000009 3.5000000000000004 20.416666666666668 3.5000000000000004 2.5000000000000004 0.18469785575048728 -143.49999999999997 0.93405797101449284 17.500000000000004 0.064866760168302909 2.166666666666667
decision_type=2 2 2 2 2 2 2 2 2 2 2 2 2 2 2 2 2 2 2 2 2 2 2 2 2 2 2 2 2 2
left_child=-1 2 6 4 12 14 29 8 -7 18 13 16 -3 -6 20 -5 21 -15 -10 23 -4 22 -8 -13 25 -14 27 -9 -29 -2
right_child=1 3 5 15 10 7 11 26 9 -11 -12 19 24 17 -16 -17 -18 -19 -20 -21 -22 -23 -24 -25 -26 -27 -28 28 -30 -31
leaf_value=-0.0018713387507542046 0.006161528877590014 0.0022741592705249787 0.0017071860773222789 0.010439330027216958 0.011962577058002353 0.0097161341044637896 -0.00056133661492198123 0.0014097823202610016 0.0056506749391555793 0.0075331401554020972 0.0057444997887680493 0.0040401008852890561 0.0068369593967994059 0.006225418090820313 0.00093897728533144827 0.015601923048496247 0.0026024572504684327 0.0097500052436804169 0.0013367255797257294 0.00043905274241001573 0.0054402594367663074 -0.00085909425820174972 0.0033745268031078225 0.001485014388594648 0.0083367074831672341 0.0029521093819592447 0.0050428873453384794 0.0020176634751260282 0.0060140501116884171 0.0027424800507168273
leaf_weight=3104 23 50 35 21 32 27 51 85 20 44 69 35 36 40 151 20 32 39 37 231 30 228 34 464 23 37 39 32 29 67
leaf_count=3104 23 50 35 21 32 27 51 85 20 44 69 35 36 40 151 20 32 39 37 231 30 228 34 464 23 37 39 32 29 67
internal_value=-5.8236e-05 0.00267241 0.00171625 0.00708587 0.00634739 0.00316916 0.00105652 0.00419087 0.00590833 0.0048904 0.00782467 0.000842216 0.0045261 0.00911774 0.00168863 0.0129577 -7.678e-05 0.0079654 0.00285039 0.00127654 0.00343014 -0.000350696 0.00101301 0.00166423 0.00569899 0.00486793 0.00300258 0.00245756 0.00391758 0.00361624
internal_weight=5165 2061 1694 367 326 529 1165 313 128 101 180 1075 146 111 216 41 345 79 57 730 65 313 85 499 96 73 185 146 61 90
internal_count=5165 2061 1694 367 326 529 1165 313 128 101 180 1075 146 111 216 41 345 79 57 730 65 313 85 499 96 73 185 146 61 90
is_linear=0
shrinkage=0.01


Tree=28
num_leaves=31
num_cat=0
split_feature=13 13 4 4 13 12 4 12 12 13 4 4 12 9 1 11 12 12 6 8 4 12 8 13 11 0 13 4 8 9
split_gain=250.628 85.243 19.0046 18.5616 9.41375 9.3872 10.6017 9.15752 8.56553 6.48975 6.06851 5.09857 4.95042 4.23962 3.46363 3.79737 3.43957 3.17418 2.87352 3.39409 2.86599 2.80922 2.82973 2.64164 2.62003 2.573 2.53647 2.15353 2.08599 2.07859
threshold=1.0000000180025095e-35 0.83333333333333337 53.500000000000007 86.500000000000014 0.41666666666666669 19.416666666666668 18.500000000000004 2.166666666666667 56.833333333333336 1.4166666666666667 19.500000000000004 96.500000000000014 47.833333333333336 5.7500000000000009 23.500000000000004 -143.49999999999997 10.41666666666667 31.833333333333339 0.92770034843205595 0.11583184257602856 5.5000000000000009 69.500000000000014 0.11200716845878136 1.1666666666666667 -196.99999999999997 11.500000000000002 0.58333333333333337 113.50000000000001 0.13840996168582378 1.7500000000000002
decision_type=2 2 2 2 2 2 2 2 2 2 2 2 2 2 2 2 2 2 2 2 2 2 2 2 2 2 2 2 2 2
left_child=-1 2 5 9 21 6 7 -2 25 14 -7 -10 26 23 15 -3 20 -16 19 -19 -9 22 -4 -5 -23 -6 -12 -26 -13 -21
right_child=1 3 4 13 8 10 -8 16 11 -11 12 28 -14 -15 17 -17 -18 18 -20 29 -22 24 -24 -25 27 -27 -28 -29 -30 -31
leaf_value=-0.0018526253201182664 0.0066293796565797597 0.0060849789336875635 0.0042032835455167858 0.007316567985450521 0.0063066867490609493 -0.001158542478201436 0.0045551926654118762 -0.0001038013619405252 0.0020981663622354207 0.010125926342503777 0.0011029364383269729 0.0040182473774879211 -0.00032190467013376898 0.013594619289917105 0.0090860948539697207 0.0012313453927636146 -0.00069383648352894364 0.0067189292811058662 0.007303539185474316 0.00050743797551030699 0.0029261060502078083 -0.002079307818412781 0.0018721410458105326 0.011387809753417967 0.00045000596862772242 0.010358625710010529 0.0030843931284140458 0.0041976379441178366 0.0077494778201497843 0.0042978296524439101
leaf_weight=3104 27 27 84 34 42 204 130 54 95 29 243 31 214 34 26 40 123 37 48 23 74 25 137 30 46 25 88 23 29 39
leaf_count=3104 27 27 84 34 42 204 130 54 95 29 243 31 214 34 26 40 123 37 48 23 74 25 137 30 46 25 88 23 29 39
internal_value=-5.76536e-05 0.00264569 0.00169909 0.00701501 0.00325381 0.000977496 0.00219792 0.0010956 0.00483096 0.0056576 0.000312697 0.00353952 0.000863399 0.010741 0.00511768 0.00318729 0.000500337 0.00586529 0.00529562 0.00432209 0.00164786 0.00214229 0.00275819 0.00922496 0.00069429 0.0078186 0.00162973 0.00169922 0.00582168 0.00289172
internal_weight=5165 2061 1694 367 537 1157 408 278 222 269 749 155 545 98 240 67 251 173 147 99 128 315 221 64 94 67 331 69 60 62
internal_count=5165 2061 1694 367 537 1157 408 278 222 269 749 155 545 98 240 67 251 173 147 99 128 315 221 64 94 67 331 69 60 62
is_linear=0
shrinkage=0.01


Tree=29
num_leaves=31
num_cat=0
split_feature=4 4 4 4 8 3 8 2 3 8 8 12 3 4 8 2 10 8 5 8 5 4 11 10 12 4 1 2 10 3
split_gain=102.54 24.3254 19.2904 9.74117 5.86322 4.39725 3.78725 3.77741 4.23867 5.95216 3.75571 3.45174 3.26698 3.03688 2.6955 3.5473 2.60835 2.41308 2.30523 2.1561 2.12341 1.98643 1.98184 2.90042 1.8076 1.6136 2.20801 1.60858 1.59942 2.91272
threshold=49.500000000000007 142.00000000000003 18.500000000000004 85.500000000000014 0.10762548262548262 9.5000000000000018 0.22540322580645164 0.56070175438596503 20.500000000000004 0.075235849056603757 0.11952380952380952 105.50000000000001 13.500000000000002 71.500000000000014 0.15470085470085468 0.56909814323607433 43.750000000000007 0.17521929824561402 0.076197387518142215 0.043015726179463455 0.056079664570230552 100.50000000000001 114.50000000000001 47.250000000000007 54.166666666666679 60.500000000000007 27.500000000000004 0.34454494064443192 44.750000000000007 7.5000000000000009
decision_type=2 2 2 2 2 2 2 2 2 2 2 2 2 2 2 2 2 2 2 2 2 2 2 2 2 2 2 2 2 2
left_child=2 3 -1 4 18 19 7 8 9 -5 -9 -3 28 16 15 22 24 -11 20 -4 -2 -8 27 -24 -14 -18 -27 -7 29 -6
right_child=1 11 5 6 12 14 21 10 -10 17 -12 -13 13 -15 -16 -17 25 -19 -20 -21 -22 -23 23 -25 -26 26 -28 -29 -30 -31
leaf_value=-0.0013587991877542279 0.0027056738969526797 0.0072668454200029379 0.0018065979379288694 0.0088868286311626441 0.0025967901945114138 -0.00010716875890890757 -0.001113724640824578 0.0037343144460636026 0.001451709896326065 0.0027341330796480179 0.0083383070737928951 0.012630102723836897 0.0027999032889643024 0.00031547063311865168 -7.8457711365422593e-06 0.0055686050057411193 0.0021887733818342289 0.0060422866919945034 0.002268880027068126 -0.00038291355659221782 0.006027204451652674 0.0029690828174352645 -0.00077193556376445446 0.0030668444473009844 -0.00051604784386498587 0.0025047015426335512 0.006335097972084495 0.0024929621284422668 0.0010790449427807425 -0.0011845838806845924
leaf_weight=2460 38 30 47 25 25 30 22 34 70 92 37 20 31 86 203 20 48 29 154 1044 39 26 81 26 35 27 34 115 127 110
leaf_count=2460 38 30 47 25 25 30 22 34 70 92 37 20 31 86 203 20 48 29 154 1044 39 26 81 26 35 27 34 115 127 110
internal_value=-5.70771e-05 0.00259195 -0.000806516 0.00227881 0.00164839 6.10565e-05 0.00369772 0.00413255 0.0034748 0.00444478 0.00613358 0.00941215 0.00106234 0.0018542 0.000864139 0.00151492 0.00261038 0.003527 0.00297526 -0.00028859 0.00438801 0.0010978 0.0011932 0.000160852 0.00104144 0.00356038 0.00463968 0.001955 0.000273489 -0.000484329
internal_weight=5165 1139 4026 1089 754 1566 335 287 216 146 71 50 523 261 475 272 175 121 231 1091 77 48 252 107 66 109 61 145 262 135
internal_count=5165 1139 4026 1089 754 1566 335 287 216 146 71 50 523 261 475 272 175 121 231 1091 77 48 252 107 66 109 61 145 262 135
is_linear=0
shrinkage=0.01


Tree=30
num_leaves=31
num_cat=0
split_feature=13 13 13 4 2 1 2 13 4 2 8 9 7 11 2 2 2 13 4 5 5 10 2 1 4 4 10 9 5 5
split_gain=269.289 73.2852 31.9278 15.9118 11.9284 8.02511 7.21489 4.63983 4.01495 3.71014 3.44538 3.37649 2.92779 2.88242 4.65414 2.75975 2.74012 2.59427 2.29047 2.25654 2.41856 2.22322 2.08298 2.1957 2.06988 2.01295 1.9748 1.9075 1.60969 1.84029
threshold=0.41666666666666669 1.0000000180025095e-35 1.1666666666666667 84.500000000000014 0.47182539682539687 20.500000000000004 0.39668856048166395 0.83333333333333337 36.500000000000007 0.49137674695212613 0.15590277777777778 3.2500000000000004 0.042705167173252255 176.50000000000003 0.32690166975881257 0.52586975914362188 0.54132513661202197 1.4166666666666667 20.500000000000004 0.15319426336375488 0.061862244897959155 45.750000000000007 0.5169540229885059 34.500000000000007 49.500000000000007 47.500000000000007 46.750000000000007 9.7500000000000018 0.12060606060606062 0.099019607843137264
decision_type=2 2 2 2 2 2 2 2 2 2 2 2 2 2 2 2 2 2 2 2 2 2 2 2 2 2 2 2 2 2
left_child=1 -1 3 5 12 13 24 18 22 11 15 -5 -4 14 -2 -11 -9 -6 -7 20 26 28 27 -24 -3 -23 -20 -8 29 -22
right_child=2 6 4 9 17 7 8 16 -10 10 -12 -13 -14 -15 -16 -17 -18 -19 19 -21 21 25 23 -25 -26 -27 -28 -29 -30 -31
leaf_value=-0.001825493515899092 0.00044338695027611473 -0.00022532047000196247 0.0092515843361616144 0.0074098800619443262 0.010833478787293037 0.0020456027984619143 0.00016561494480334056 0.0049412065287968059 0.0024870251098149262 0.0128565711081028 0.0057201133620354439 0.0029455043561756613 0.004524678705554259 -0.0015222719792396791 0.0056471020460128786 0.0082673163084607364 0.0086057723045349123 0.014755558669567109 0.0066822644557271681 0.0056514163161146226 0.001237236021495447 0.006680711914192547 0.0041655594689978493 0.0011798998503348766 0.001441101480988746 0.0029897742999924555 0.0029102159323899641 0.0027415994306405384 -0.00035518605709075927 0.0045287937645254461
leaf_weight=3065 55 360 20 36 48 88 223 111 355 20 31 32 38 31 25 38 25 26 35 58 41 22 36 78 94 45 23 33 25 29
leaf_count=3065 55 360 20 36 48 88 223 111 355 20 31 32 38 31 25 38 25 26 35 58 41 22 36 78 94 45 23 33 25 29
internal_value=4.41209e-05 -0.00101048 0.00500615 0.00422717 0.00955016 0.00349967 0.00110826 0.0040377 0.0017273 0.00706767 0.00841138 0.005309 0.00615465 0.00106643 0.00206955 0.00984982 0.00561484 0.0122115 0.00345166 0.00389674 0.00343414 0.00280678 0.000998371 0.00212274 0.00011971 0.00420172 0.00518645 0.000497675 0.00182297 0.00260088
internal_weight=5146 4244 902 770 132 613 1179 502 725 157 89 68 58 111 80 58 136 74 366 278 220 162 370 114 454 67 58 256 95 70
internal_count=5146 4244 902 770 132 613 1179 502 725 157 89 68 58 111 80 58 136 74 366 278 220 162 370 114 454 67 58 256 95 70
is_linear=0
shrinkage=0.01


Tree=31
num_leaves=31
num_cat=0
split_feature=13 13 13 4 2 2 2 12 4 12 12 4 12 4 2 12 8 2 9 13 2 12 7 6 4 6 4 13 7 4
split_gain=263.93 71.8268 31.2924 15.5952 11.691 7.07132 6.291 6.74875 6.48027 5.11515 4.24681 8.96251 5.74535 5.30777 3.63631 3.61565 3.46083 3.38402 3.30929 3.18227 3.94363 3.08709 2.86952 2.79495 2.72305 2.59016 2.56521 2.54265 2.1382 2.06951
threshold=0.41666666666666669 1.0000000180025095e-35 1.1666666666666667 84.500000000000014 0.47182539682539687 0.39668856048166395 0.32282878411910676 56.833333333333336 17.500000000000004 23.833333333333339 8.8333333333333339 21.500000000000004 30.416666666666668 49.500000000000007 0.49137674695212613 78.500000000000014 0.13397435897435897 0.52586975914362188 3.2500000000000004 0.83333333333333337 0.49698795180722893 5.416666666666667 0.042705167173252255 0.89237451737451756 44.500000000000007 0.88303693570451447 105.50000000000001 1.4166666666666667 0.067424242424242359 42.500000000000007
decision_type=2 2 2 2 2 2 2 2 2 2 2 2 2 2 2 2 2 2 2 2 2 2 2 2 2 2 2 2 2 2
left_child=1 -1 3 6 22 21 -2 8 9 -8 -7 -12 29 28 18 26 25 -16 -5 -9 -21 -3 -4 -19 -23 -10 -15 -6 -14 -13
right_child=2 5 4 14 27 10 7 19 16 -11 11 12 13 15 17 -17 -18 23 -20 20 -22 24 -24 -25 -26 -27 -28 -29 -30 -31
leaf_value=-0.0018072386377203911 0.001084278018233624 0.0036089121984938782 0.0091590684801340101 0.0073357813722557501 0.010725143967817229 0.0038680827360094328 0.0038586508575826884 0.0013760061236489721 0.0086936952624210098 -0.0015548089953760305 -0.00056325886263904805 0.0030414505406867625 -0.0015159676330430167 0.0025077478510218782 0.011282117819344555 -3.1687694787979127e-05 0.0043584864503807491 0.0041775528002869003 0.0029160492680966855 0.0022228290583636312 0.0075692327862436131 -0.00055712566631180901 0.0044794319648491709 0.0086150871664285658 0.0012407424605411033 0.0056758871780974527 0.0058493778330308424 0.014608003038626452 0.00118247835744511 0.0057283125297967778
leaf_weight=3065 94 24 20 36 48 81 64 119 43 24 166 86 63 154 27 50 126 22 32 37 22 315 38 40 115 84 27 26 55 43
leaf_count=3065 94 24 20 36 48 81 64 119 43 24 166 86 63 154 27 50 126 22 32 37 22 315 38 40 115 84 27 26 55 43
internal_value=4.36796e-05 -0.00100038 0.00495609 0.0041849 0.00945466 0.00109718 0.00346467 0.00389581 0.00471968 0.00238225 0.00171003 0.00143859 0.0021338 0.00146726 0.006997 0.00234867 0.0055327 0.00832727 0.00525591 0.00231749 0.0042164 0.000118513 0.0060931 0.00704048 -7.63005e-05 0.00669766 0.00300622 0.0120894 -0.000258217 0.00393707
internal_weight=5146 4244 902 770 132 1179 613 519 341 88 725 644 478 349 157 231 253 89 68 178 59 454 58 62 430 127 181 74 118 129
internal_count=5146 4244 902 770 132 1179 613 519 341 88 725 644 478 349 157 231 253 89 68 178 59 454 58 62 430 127 181 74 118 129
is_linear=0
shrinkage=0.01


Tree=32
num_leaves=31
num_cat=0
split_feature=13 13 13 4 2 1 2 8 13 13 4 2 11 2 7 13 4 6 6 10 2 2 6 4 2 1 2 0 4 8
split_gain=258.678 70.3975 30.6697 15.2862 11.4583 7.9577 6.9306 4.54775 4.49816 4.06437 3.86111 2.99384 2.82557 4.52698 2.81242 2.49205 2.41347 2.49577 2.84146 2.37942 2.22593 2.95863 2.06061 1.99403 1.96211 1.97486 1.95723 1.49049 1.35255 1.40894
threshold=0.41666666666666669 1.0000000180025095e-35 1.1666666666666667 86.500000000000014 0.47182539682539687 20.500000000000004 0.39668856048166395 0.15590277777777778 0.83333333333333337 0.83333333333333337 36.500000000000007 0.49137674695212613 176.50000000000003 0.32690166975881257 0.042705167173252255 1.4166666666666667 20.500000000000004 0.85053191489361712 0.93908472479901062 42.750000000000007 0.37952859013531215 0.42067124332570555 0.81725417439703174 49.500000000000007 0.5169540229885059 34.500000000000007 0.54132513661202197 13.500000000000002 113.50000000000001 0.11483516483516476
decision_type=2 2 2 2 2 2 2 2 2 2 2 2 2 2 2 2 2 2 2 2 2 2 2 2 2 2 2 2 2 2
left_child=1 -1 3 5 14 12 23 8 11 16 22 -5 13 -2 -4 -6 -7 -18 20 -20 -19 -22 -8 -3 -24 -26 -11 -9 29 -12
right_child=2 6 4 7 15 9 10 27 -10 26 28 -13 -14 -15 -16 -17 17 18 19 -21 21 -23 24 -25 25 -27 -28 -29 -30 -31
leaf_value=-0.0017891662409118883 0.00042811030962250455 -0.00022132212006383472 0.0090674777776002888 0.0044931432604789732 0.010617892456551392 0.0019991292753680188 -0.0011358929080207173 0.0063120869705171299 0.011746519064081126 0.0048666915033770877 0.0030961937751589701 0.0090831076701482147 -0.0015243190238552709 0.0055602420568466185 0.0044346375841843458 0.014461922920667208 0.0057253167134220318 0.004844077351765755 0.0081020691990852361 0.0038776576220989228 -0.0011334495440773341 0.0028231584660287174 0.00070911256989021469 0.0014142830495504624 0.0043057217257363454 0.0014033210886196352 0.0078635319073994958 0.0030750171542167667 0.0043043463485581534 0.0017232578822332829
leaf_weight=3065 55 360 20 27 48 88 41 33 29 113 119 30 31 25 38 26 59 39 20 40 23 106 223 94 35 71 27 25 35 201
leaf_count=3065 55 360 20 27 48 88 41 33 29 113 119 30 31 25 38 26 59 39 20 40 23 106 223 94 35 71 27 25 35 201
internal_value=4.32428e-05 -0.000990376 0.00490652 0.00414305 0.00936011 0.00346728 0.00108621 0.00708077 0.0085402 0.00399072 0.00169292 0.00690891 0.00103872 0.0020319 0.00603217 0.0119685 0.00344792 0.00389215 0.00341777 0.00528579 0.00275062 0.00211772 0.000978099 0.000117327 0.00124154 0.00236166 0.00544465 0.0049168 0.00243795 0.00223382
internal_weight=5146 4244 902 770 132 626 1179 144 86 515 725 57 111 80 58 74 375 287 228 60 168 129 370 454 329 106 140 58 355 320
internal_count=5146 4244 902 770 132 626 1179 144 86 515 725 57 111 80 58 74 375 287 228 60 168 129 370 454 329 106 140 58 355 320
is_linear=0
shrinkage=0.01


Tree=33
num_leaves=31
num_cat=0
split_feature=13 13 13 4 2 1 2 13 4 2 2 9 11 2 5 2 13 11 4 5 5 10 5 4 4 2 1 10 5 5
split_gain=253.53 68.9966 30.0594 14.9901 11.2303 7.59518 6.79268 4.41742 3.78427 3.49013 3.30123 3.23765 2.76934 4.43689 2.73994 2.60926 2.44246 2.27106 2.16804 2.14845 2.31062 2.16965 2.01961 1.95435 1.94346 1.92306 1.93556 1.91979 1.57511 1.78683
threshold=0.41666666666666669 1.0000000180025095e-35 1.1666666666666667 84.500000000000014 0.47182539682539687 20.500000000000004 0.39668856048166395 0.83333333333333337 36.500000000000007 0.49137674695212613 0.52586975914362188 3.2500000000000004 176.50000000000003 0.32690166975881257 0.10889328063241101 0.54132513661202197 1.4166666666666667 -114.49999999999999 20.500000000000004 0.15319426336375488 0.061862244897959155 45.750000000000007 0.18394199785177229 49.500000000000007 47.500000000000007 0.5169540229885059 34.500000000000007 46.750000000000007 0.12060606060606062 0.099019607843137264
decision_type=2 2 2 2 2 2 2 2 2 2 2 2 2 2 2 2 2 2 2 2 2 2 2 2 2 2 2 2 2 2
left_child=1 -1 3 5 17 12 23 18 22 11 -11 -5 13 -2 -12 -9 -6 -4 -7 20 27 28 25 -3 -23 -8 -27 -20 29 -22
right_child=2 6 4 9 16 7 8 15 -10 10 14 -13 -14 -15 -16 -17 -18 -19 19 -21 21 24 -24 -25 -26 26 -28 -29 -30 -31
leaf_value=-0.0017712745680116713 0.0004238291843370958 -0.00021910889570911729 0.0043093291713910947 0.0072101302941640225 0.010511713636418183 0.0019791379757225515 0.00070202143603910775 0.0048004457220300898 0.0024135754125218997 0.011080368260542553 0.008449970737099648 0.0028385051619261503 -0.0015090758521710673 0.0055046395778656013 0.0040563263676383276 0.0083764383912086487 0.014317303666701683 0.0083270806943376869 0.0065163323623793467 0.0054922566794115921 0.0011694699017012992 0.0065293922072107149 -0.0011245339999838573 0.0014001402132054594 0.00290272816684511 0.0042626645096710755 0.0013892878843864925 0.0027971926590670709 -0.00041097676753997804 0.0044128644260866892
leaf_weight=3065 55 360 34 36 48 88 223 111 355 27 40 32 31 25 22 25 26 24 35 58 41 22 41 94 45 35 71 23 25 29
leaf_count=3065 55 360 34 36 48 88 223 111 355 27 40 32 31 25 22 25 26 24 35 58 41 22 41 94 45 35 71 23 25 29
internal_value=4.28104e-05 -0.000980473 0.00485746 0.00410162 0.00926651 0.0033955 0.00107534 0.00391892 0.001676 0.00685863 0.00816189 0.00515289 0.00102834 0.00201158 0.00689094 0.0054578 0.0118488 0.00597185 0.0033471 0.00378012 0.00332874 0.00271553 0.000968318 0.000116154 0.00409357 0.00122913 0.00233804 0.0050415 0.00174365 0.00251316
internal_weight=5146 4244 902 770 132 613 1179 502 725 157 89 68 111 80 62 136 74 58 366 278 220 162 370 454 67 329 106 58 95 70
internal_count=5146 4244 902 770 132 613 1179 502 725 157 89 68 111 80 62 136 74 58 366 278 220 162 370 454 67 329 106 58 95 70
is_linear=0
shrinkage=0.01


Tree=34
num_leaves=31
num_cat=0
split_feature=13 13 13 4 2 1 12 4 12 4 12 4 12 12 12 6 4 12 13 7 13 2 4 12 4 1 7 4 13 6
split_gain=248.485 67.6235 29.4612 14.7047 11.0068 7.64112 6.6655 12.5988 6.51354 7.96166 5.83037 6.17028 5.59328 4.08752 3.86406 3.55564 2.89984 3.03994 2.83739 2.76485 2.72675 2.68729 2.67254 3.65275 2.62311 2.52564 2.45679 2.74471 2.39385 2.14268
threshold=0.41666666666666669 1.0000000180025095e-35 1.1666666666666667 86.500000000000014 0.47182539682539687 20.500000000000004 8.8333333333333339 21.500000000000004 22.416666666666668 49.500000000000007 56.833333333333336 20.500000000000004 23.833333333333339 95.833333333333357 75.500000000000014 0.85145784081954312 105.50000000000001 35.166666666666679 0.83333333333333337 0.042705167173252255 0.83333333333333337 0.49698795180722893 11.500000000000002 2.166666666666667 5.5000000000000009 32.500000000000007 0.038098693759071059 63.500000000000007 1.4166666666666667 0.81530214424951275
decision_type=2 2 2 2 2 2 2 2 2 2 2 2 2 2 2 2 2 2 2 2 2 2 2 2 2 2 2 2 2 2
left_child=1 -1 3 5 19 -2 22 -8 -9 -10 11 12 -7 18 16 29 17 -11 25 -4 -12 -22 23 -3 -25 -5 -17 -28 -6 -13
right_child=2 6 4 13 28 10 7 8 9 14 20 15 -14 -15 -16 26 -18 -19 -20 -21 21 -23 -24 24 -26 -27 27 -29 -30 -31
leaf_value=-0.0017535618397287209 0.0010180521789971773 0.0056030864392717684 0.0089216565489768987 0.0048748574141533147 0.010406596406052512 0.0039874332388745073 -0.00088750014303198203 0.003871234864881723 -5.8882165236103815e-05 0.0051511803181732412 0.0015725976579329549 0.006058435099465507 -0.0013597848323675301 0.004482772998187853 0.0001410197231867542 0.0072320001914694503 0.0057816333643027715 0.0019236917974590098 0.010720853959691936 0.0043281665052238268 0.0023808239355231774 0.0067785868172844255 0.0053962816259799859 -0.00077249203291204251 0.0032312730501095456 0.0087211099737568906 0.0037695607254582065 0.0076022430306131195 0.014174130696516771 0.01017770695945491
