tree
version=v4
num_class=1
num_tree_per_iteration=1
label_index=0
max_feature_idx=21
objective=regression
feature_names=week pass_attempts_rolling3 completions_rolling3 total_pass_plays pass_plays_off pass_pct_off red_zone_pass_pct_off deep_pass_pct_off avg_air_yards_off avg_yac_off blitz_rate_def pressure_rate_def man_coverage_pct_def zone_coverage_pct_def spread_line total_line over_odds under_odds player_moneyline fantasy_points_rolling3 passing_yards_rolling3 pass_touchdown_rolling3
feature_infos=[1:22] [1:54.666666666666664] [1:35] [3:72] [3:72] [0.059999999999999998:0.89830508474576276] [0:1] [0:0.29411764705882348] [0.90476190476190477:16.449999999999999] [1.6000000000000001:12.1875] [0:0.33333333333333331] [0:0.40625] [0:0.38461538461538458] [0.61538461538461542:1] [-17:20.5] [28.5:57.5] [-120:110] [-123:106] [-2100:1119] [-1.8533333333333333:35.45333333333334] [0.33333333333333331:405] [0:4]
tree_sizes=2567 2664 2662 2674 2662 2667 2652 2659 2689 2669 2661 2668 2687 2679 2653 2679 2691 2680 2673 2688 2672 2667 2666 2667 2689 2664 2662 2669 2659 2701 2693 2691 2658 2655 2681 2678 2692 2690 2686 2693 2676 2670 2677 2684 2668 2678 2710 2668 2687 2680 2688 2687 2696 2673 2698 2666 2690 2691 2693 2688 2671 2698 2680 2690 2678 2674 2673 2673 2668 2675 2702 2675 2694 2701 2695 2701 2699 2689 2684 2693 2671 2710 2688 2675 2683 2694 2703 2703 2699 2699 2680 2656 2693 2680 2656 2676 2675 2671 2691 2683 2698 2693 2687 2678 2682 2678 2699 2696 2698 2705 2699 2698 2690 2685 2684 2689 2711 2704 2700 2697 2689 2690 2694 2696 2694 2689 2711 2700 2702 2696 2663 2697 2683 2701 2670 2712 2705 2712 2716 2713 2716 2696 2709 2702 2716 2706 2718 2712 2711 2708 2713 2717 2716 2721 2700 2703 2705 2706 2691 2697 2713 2714 2703 2716 2709 2696 2710 2709 2714 2720 2702 2717 2714 2722 2726 2714 2716 2724 2734 2733 2701 2703 2712 2710 2699 2705 2709 2711 2717 2721 2716 2714 2711 2709 2702 2723 2725 2740 2713 2732 2721 2683 2717 2696 2696 2699 2720 2693 2729 2703 2705 2712 2720 2725 2712 2733 2711 2728 2732 2737 2717 2713 2713 2736 2728 2726 2691 2722 2706 2709 2737 2731 2734 2720 2733 2699 2704 2732 2743 2731 2730 2714 2730 2742 2736 2730 2725 2724 2736 2738 2723 2734 2717 2747 2725 2723 2712 2724 2725 2730 2720 2732 2738 2733 2735 2717 2734 2728 2731 2710 2705 2712 2729 2697 2707 2731 2725 2741 2748 2723 2715 2733 2720 2718 2720 2733 2733 2744 2737 2752 2727 2714 2730 2723 2729 2744 2744 2738 2743 2732 2709 2742 2743 2738 2744 2727 2721 2717 2735 2705 2729 2721 2730 2720 2734 2738 2740 2740 2729 2749 2730 2738 2731 2730 2719 2727 2714 2739 2733 2728 2726 2717 2731 2732 2722 2732 2718 2723 2738 2720 2746 2735 2735 2737 2741 2746 2735 2741 2743 2738 2753 2747 2760 2751 2738 2739 2752 2745 2750 2748 2733 2754 2726 2739 2747 2744 2750 2740 2747 2743 2734 2737 2731 2737 2719 2732 2720 2726 2721 2744 2728 2720 2738 2738 2723 2739 2757 2745 2721 2721 2739 2741 2720 2733 2734 2746 2742 2735 2707 2758 2745 2758 2759 2738 2721 2741 2754 2750 2726 2722 2734 2749 2723 2711 2727 2732 2736

Tree=0
num_leaves=31
num_cat=0
split_feature=20 20 3 20 20 20 2 2 20 20 3 9 1 3 20 9 3 1 5 5 2 2 9 1 3 1 5 9 12 20
split_gain=3.82775e+06 978135 702346 268952 208036 188203 171813 132580 113505 86859 82872.9 72325.1 64452.7 59312.4 54346.1 52594.9 52905.8 52418.7 49796.8 48980.1 45780 40285.4 39192.2 38975.4 33531.8 33437.4 26421.8 25076 24142.4 40069.2
threshold=210.16666666666669 102.00000000000001 41.500000000000007 253.16666666666669 180.83333333333334 295.50000000000006 16.833333333333339 20.166666666666668 35.666666666666664 321.50000000000006 27.500000000000004 5.5669642857142865 36.833333333333336 31.500000000000004 331.16666666666669 5.4037037037037043 50.500000000000007 17.500000000000004 0.63284313725490204 0.56486676016830306 21.833333333333339 23.500000000000004 5.131884057971015 18.166666666666668 38.500000000000007 37.500000000000007 0.44604989604989609 5.6609195402298864 0.14729990356798453 170.00000000000003
decision_type=2 2 2 2 2 2 2 2 2 2 2 2 2 2 2 2 2 2 2 2 2 2 2 2 2 2 2 2 2 2
left_child=1 8 3 11 6 15 17 10 -1 12 -6 13 19 -2 -7 16 25 -3 20 -5 -15 -9 -14 -10 27 -4 -19 -12 29 -8
right_child=2 4 5 9 7 14 28 21 23 -11 24 -13 22 18 -16 -17 -18 26 -20 -21 -22 -23 -24 -25 -26 -27 -28 -29 -30 -31
leaf_value=215.81795847694457 217.44015607684992 217.80415607915214 218.4578717675613 218.19296980380844 217.28895019967598 218.92227312886206 216.69719269032461 217.34982274451744 216.75624230827401 218.83198943065494 217.57447003077891 218.03950714032729 217.85760344568624 218.13596376776664 219.54465611703088 218.74687037849461 218.76615609959228 216.96185608131577 217.49008464685542 218.65719267171633 217.71634838353523 216.8495651870025 218.2107989391688 216.19056089510269 218.09418239525061 218.09750222947702 217.33024699415068 217.95901322133233 216.52151324789898 217.2431560792788
leaf_weight=43 60 20 51 51 34 47 41 60 29 24 43 94 57 52 20 56 28 25 35 41 52 22 70 21 38 52 88 28 28 20
leaf_count=43 60 20 51 51 34 47 41 60 29 24 43 94 57 52 20 56 28 25 35 41 52 22 70 21 38 52 88 28 28 20
internal_value=217.777 217.128 218.22 218.015 217.322 218.653 217.105 217.536 216.195 218.261 217.72 217.811 218.198 217.703 219.108 218.49 218.381 217.332 217.816 218.4 217.926 217.216 218.052 216.519 217.854 218.276 217.249 217.726 216.765 216.876
internal_weight=1330 540 790 536 447 254 222 225 93 243 143 293 219 199 67 187 131 133 139 92 104 82 127 50 109 103 113 71 89 61
internal_count=1330 540 790 536 447 254 222 225 93 243 143 293 219 199 67 187 131 133 139 92 104 82 127 50 109 103 113 71 89 61
is_linear=0
shrinkage=1


Tree=1
num_leaves=31
num_cat=0
split_feature=20 20 3 20 20 20 2 2 20 9 3 9 3 20 9 3 1 3 1 2 2 10 1 3 20 1 8 11 12 12
split_gain=3.75158e+06 958670 688370 263600 203896 184458 168394 129942 111247 85737.6 81223.8 70885.9 58132.1 53264.6 51548.2 51853 51375.6 48974.7 44571.2 41245.9 39483.7 39470.5 38199.8 38018.6 36425.9 32772 32687.1 30169.1 26530.3 23662
threshold=210.16666666666669 102.00000000000001 41.500000000000007 253.16666666666669 180.83333333333334 295.50000000000006 16.833333333333339 20.166666666666668 35.666666666666664 6.8768939393939403 27.500000000000004 5.5669642857142865 31.500000000000004 331.16666666666669 5.4037037037037043 50.500000000000007 17.500000000000004 36.500000000000007 37.166666666666679 21.833333333333339 23.500000000000004 0.13840996168582378 18.166666666666668 34.500000000000007 274.50000000000006 37.500000000000007 8.3198051948051965 0.13840996168582378 0.14946808510638296 0.14729990356798453
decision_type=2 2 2 2 2 2 2 2 2 2 2 2 2 2 2 2 2 2 2 2 2 2 2 2 2 2 2 2 2 2
left_child=1 8 3 11 6 14 16 10 -1 17 -6 12 -2 -7 15 25 -3 24 -19 27 -9 26 -10 -11 -5 -4 -12 -14 -21 -8
right_child=2 4 5 9 7 13 29 20 22 23 21 -13 19 -15 -16 -17 -18 18 -20 28 -22 -23 -24 -25 -26 -27 -28 -29 -30 -31
leaf_value=-1.9388773008834486 -0.33290155831972762 0.027458446741104127 0.67463697751363116 0.021030304863097822 -0.48259538769721988 1.1343943028754375 -0.8912209718930918 -0.4223315630753835 -1.0099762041815397 0.59224180438301777 -0.030772642313047896 0.26045599356729621 0.42931594014167784 1.7505534095764159 0.96074556725365778 0.97983842304774704 -0.52239894239775897 0.81099265330546622 0.35118350569082762 -0.0089837648905813691 -0.91758654670281847 -0.32418838429450986 -1.57000089100429 1.1092354232788086 0.40515489339828492 0.31787112611990709 0.35273164635119231 0.016019920267556841 -0.44248468337953095 -1.2423580060686383
leaf_weight=43 60 20 51 47 34 47 61 60 29 33 43 94 33 20 56 28 113 37 49 48 22 20 21 25 52 52 46 38 20 28
leaf_count=43 60 20 51 47 34 47 61 60 29 33 43 94 33 20 56 28 113 37 49 48 22 20 21 25 52 52 46 38 20 28
internal_value=0.000203662 -0.642185 0.439305 0.236101 -0.449997 0.868113 -0.665011 -0.237851 -1.56593 0.479613 -0.0558712 0.0341435 -0.0727579 1.31832 0.706808 0.598254 -0.439714 0.374439 0.549008 0.0395343 -0.555205 0.0772355 -1.24519 0.815084 0.222793 0.494522 0.167443 0.208115 -0.136484 -1.00169
internal_weight=1330 540 790 536 447 254 222 225 93 243 143 293 199 67 187 131 133 185 86 139 82 109 50 58 99 103 89 71 68 89
internal_count=1330 540 790 536 447 254 222 225 93 243 143 293 199 67 187 131 133 185 86 139 82 109 50 58 99 103 89 71 68 89
is_linear=0
shrinkage=0.01


Tree=2
num_leaves=31
num_cat=0
split_feature=20 20 3 20 20 20 2 2 20 9 3 9 2 20 9 3 1 1 3 2 10 12 1 5 20 8 1 8 2 5
split_gain=3.67692e+06 939592 674671 258604 199839 180787 165043 127356 109033 80086.8 79607.4 75239.4 61400 52204.7 50522.4 50821.1 50353.2 50229.7 49404.5 38698 38685.1 38027.5 37439.7 36415.5 35190.6 32688.7 32119.8 32036.7 26290.7 25896
threshold=210.16666666666669 102.00000000000001 41.500000000000007 261.83333333333343 180.83333333333334 295.50000000000006 16.833333333333339 20.166666666666668 35.666666666666664 4.4641025641025651 27.500000000000004 6.8768939393939403 18.500000000000004 331.16666666666669 5.4037037037037043 50.500000000000007 17.500000000000004 36.166666666666679 31.500000000000004 23.500000000000004 0.13840996168582378 0.10471491228070172 18.166666666666668 0.52667140825035574 292.50000000000006 7.7423963133640568 37.500000000000007 8.3198051948051965 26.500000000000004 0.44604989604989609
decision_type=2 2 2 2 2 2 2 2 2 2 2 2 2 2 2 2 2 2 2 2 2 2 2 2 2 2 2 2 2 2
left_child=1 8 3 9 6 14 16 10 -1 21 -6 17 -11 -7 15 26 -3 23 -14 -9 27 -2 -10 -5 28 -13 -4 -12 -19 -18
right_child=2 4 5 11 7 13 -8 19 22 12 20 25 18 -15 -16 -17 29 24 -20 -21 -22 -23 -24 -25 -26 -27 -28 -29 -30 -31
leaf_value=-1.9194884171596795 0.047509133891625838 0.027183855026960375 0.66789060919892551 0.35031163062368126 -0.4777694356572979 1.1230503171555539 -0.99167413735657595 -0.41810823694864907 -0.99987644688836452 0.58434776949696243 -0.030464918564918429 0.63100543039816392 -0.10553228830589967 1.7330478992462159 0.95113812548773624 0.97004007884434285 -0.80119458627700813 0.28830573771450974 0.22939662741184236 -0.90841068462892016 -0.32094650173187256 -0.31370491295091568 -1.5543008350190661 0.89710060382711476 0.52226382308536101 1.1502878737449647 0.31469241444881146 0.34920433727295502 -0.1482253903692419 -0.43648757200857452
leaf_weight=43 55 20 51 21 34 47 89 60 29 32 43 27 68 20 56 28 25 37 125 22 20 62 21 29 36 22 52 46 22 88
leaf_count=43 55 20 51 21 34 47 89 60 29 32 43 27 68 20 56 28 25 37 125 22 20 62 21 29 36 22 52 46 22 88
internal_value=0.00020163 -0.635763 0.434912 0.23374 -0.445497 0.859432 -0.658361 -0.235472 -1.55027 0.0683065 -0.0553125 0.52538 0.178656 1.30514 0.699739 0.592271 -0.435316 0.410899 0.111391 -0.549653 0.0764631 -0.143903 -1.23273 0.667449 0.275872 0.864153 0.489577 0.165769 0.125531 -0.517175
internal_weight=1330 540 790 536 447 254 222 225 93 342 143 194 225 67 187 131 133 145 193 82 109 117 50 50 95 49 103 89 59 113
internal_count=1330 540 790 536 447 254 222 225 93 342 143 194 225 67 187 131 133 145 193 82 109 117 50 50 95 49 103 89 59 113
is_linear=0
shrinkage=0.01


Tree=3
num_leaves=31
num_cat=0
split_feature=20 20 3 20 20 20 2 2 20 20 3 2 1 20 1 12 3 5 20 2 10 1 12 2 1 18 5 5 5 11
split_gain=3.60375e+06 920894 661245 253986 195862 177189 161759 124822 106863 83901.1 78023.2 65383.4 61390.1 51165.8 49351.2 48785.8 66064.7 46804.3 40853.1 37927.9 37915.2 36694.6 32353.1 31648.3 28656.5 27857 40299.4 27464.6 25380.7 24982.5
threshold=210.16666666666669 102.00000000000001 41.500000000000007 253.16666666666669 180.83333333333334 295.50000000000006 16.833333333333339 20.166666666666668 35.666666666666664 321.50000000000006 27.500000000000004 17.833333333333339 36.833333333333336 331.16666666666669 17.500000000000004 0.15655637254901963 28.500000000000004 0.56486676016830306 258.16666666666669 23.500000000000004 0.13840996168582378 18.166666666666668 0.075235849056603757 25.166666666666668 34.500000000000007 167.50000000000003 0.53597308488612849 0.64923672818409672 0.44604989604989609 0.11583184257602856
decision_type=2 2 2 2 2 2 2 2 2 2 2 2 2 2 2 2 2 2 2 2 2 2 2 2 2 2 2 2 2 2
left_child=1 8 3 11 6 18 14 10 -1 12 -6 -2 17 -7 -3 16 -13 -5 24 -9 25 -10 -14 29 -4 26 -12 -18 -16 -20
right_child=2 4 5 9 7 13 -8 19 21 -11 20 15 22 -15 28 -17 27 -19 23 -21 -22 -23 -24 -25 -26 -27 -28 -29 -30 -31
leaf_value=-1.9002936216842299 0.45978604214265945 0.026912023246288302 0.72543805885314938 0.40339945442536296 -0.4729917288527769 1.1118198412022691 -0.98175740863500016 -0.41392716821034747 -0.98987767712823271 1.0317356669902802 0.0039116057856329557 -0.30147600161758337 0.47821601188701129 1.7157174072265624 -0.79318261327743533 -0.31471850768379545 0.18422168729357977 0.85719453904686904 1.2563920621871949 -0.89932660222053529 -0.31773703360557554 -1.5387577883402506 0.1461392304190883 0.56505332371284223 0.37418021857738498 -0.11128398455106295 0.51134767644545609 -0.18063361500700315 -0.4321226888353174 0.83162267780303956
leaf_weight=43 32 20 45 51 34 47 89 60 29 24 29 44 46 20 25 46 147 41 20 22 20 21 81 29 48 26 34 24 88 45
leaf_count=43 32 20 45 51 34 47 89 60 29 24 29 44 46 20 25 46 147 41 20 22 20 21 81 29 48 26 34 24 88 45
internal_value=0.000199614 -0.629405 0.430563 0.231403 -0.441042 0.850837 -0.651777 -0.233117 -1.53476 0.470433 -0.0547593 0.0331622 0.40892 1.29209 -0.430963 -0.0191441 0.0440951 0.605634 0.692742 -0.544156 0.0756985 -1.22041 0.266419 0.83976 0.544144 0.164111 0.277766 0.133014 -0.512003 0.962321
internal_weight=1330 540 790 536 447 254 222 225 93 243 143 293 219 67 133 261 215 92 187 82 109 50 127 94 93 89 63 171 113 65
internal_count=1330 540 790 536 447 254 222 225 93 243 143 293 219 67 133 261 215 92 187 82 109 50 127 94 93 89 63 171 113 65
is_linear=0
shrinkage=0.01


Tree=4
num_leaves=31
num_cat=0
split_feature=20 20 3 20 20 20 2 2 20 9 3 9 2 20 9 3 1 1 3 2 11 1 12 3 3 8 1 20 17 9
split_gain=3.53204e+06 902569 648086 249098 191965 173663 158540 122338 104737 77821.3 76470.5 73432.2 59284.8 50147.6 49422.4 49354.6 48576.5 48369.1 47838.5 37173.1 37047.6 35964.4 34717.3 34476.5 32215.7 31973.3 31197.8 28724 26462.9 24153
threshold=210.16666666666669 102.00000000000001 41.500000000000007 261.83333333333343 180.83333333333334 295.50000000000006 16.833333333333339 20.166666666666668 35.666666666666664 4.4641025641025651 27.500000000000004 6.8768939393939403 18.500000000000004 331.16666666666669 5.4037037037037043 50.500000000000007 36.166666666666679 17.500000000000004 31.500000000000004 23.500000000000004 0.14670014347202293 18.166666666666668 0.13574938574938572 33.500000000000007 38.500000000000007 7.7423963133640568 37.500000000000007 292.16666666666669 -106.49999999999999 5.6609195402298864
decision_type=2 2 2 2 2 2 2 2 2 2 2 2 2 2 2 2 2 2 2 2 2 2 2 2 2 2 2 2 2 2
left_child=1 8 3 9 6 14 17 10 -1 20 -6 16 -11 -7 15 26 23 -3 -14 -9 -2 -10 27 -5 29 -13 -4 -18 -22 -12
right_child=2 4 5 11 7 13 -8 19 21 12 24 25 18 -15 -16 -17 22 -19 -20 -21 28 -23 -24 -25 -26 -27 -28 -29 -30 -31
leaf_value=-1.8812906309615736 0.033968351291397872 0.026642891198396683 0.65405665453742534 0.34593474478948688 -0.46826181075152229 1.1007016691248468 -0.9719398262527551 -0.409787896156311 -0.97997893497861666 0.5741443287581206 -0.19966406608736795 0.61941564683560968 -0.10405203906928792 1.6985602550506593 0.93446134448051454 0.95180139405386788 0.21345110360966171 -0.50688318482179828 0.22552567882657051 -0.89033332152800126 -0.48891604224840801 -1.523370215098063 -0.068796869464542554 0.87796732977032665 0.30993621826171874 1.1329841615936973 0.3059649677001513 0.62069550086712011 -0.048695489303632218 0.17773574335234507
leaf_weight=43 59 20 51 21 34 47 89 60 29 32 43 27 68 20 56 28 43 113 125 22 36 21 23 29 38 22 52 29 22 28
leaf_count=43 59 20 51 21 34 47 89 60 29 32 43 27 68 20 56 28 43 113 125 22 36 21 23 29 38 22 52 29 22 28
internal_value=0.000197618 -0.623111 0.426257 0.229089 -0.436632 0.842329 -0.645259 -0.230786 -1.51942 0.0667241 -0.0542117 0.515319 0.175501 1.27917 0.685815 0.579523 0.40222 -0.426654 0.109405 -0.538715 -0.142463 -1.2082 0.269434 0.654514 0.0749415 0.849997 0.478321 0.37748 -0.321936 -0.0508303
internal_weight=1330 540 790 536 447 254 222 225 93 342 143 194 225 67 187 131 145 133 193 82 117 50 95 50 109 49 103 72 58 71
internal_count=1330 540 790 536 447 254 222 225 93 342 143 194 225 67 187 131 145 133 193 82 117 50 95 50 109 49 103 72 58 71
is_linear=0
shrinkage=0.01


Tree=5
num_leaves=31
num_cat=0
split_feature=20 20 3 20 20 20 1 3 20 20 9 9 12 1 1 1 5 3 8 20 5 18 11 9 11 9 3 18 3 1
split_gain=3.06495e+06 744106 656640 239079 207719 176350 141968 104845 103322 79841.9 70069.6 69990.8 64857.2 53314.6 52524.9 46685.4 44331.9 43905.1 43396.9 42007.4 38747.9 34518.9 34002.4 32571.1 30475.8 33524.1 28614.6 36136.8 27730.2 27041.6
threshold=212.16666666666669 89.166666666666671 38.500000000000007 262.83333333333343 180.83333333333334 270.50000000000006 25.500000000000004 38.500000000000007 332.33333333333343 45.666666666666679 6.5400641025641031 4.5571895424836608 0.093386627906976716 32.833333333333336 28.500000000000004 33.166666666666679 0.62328251458686246 34.500000000000007 8.7970588235294134 229.5 0.39471396278908016 -125.49999999999999 0.15301003344481603 4.7257053291536062 0.16843971631205673 5.4309523809523821 35.500000000000007 142.50000000000003 28.500000000000004 38.833333333333336
decision_type=2 2 2 2 2 2 2 2 2 2 2 2 2 2 2 2 2 2 2 2 2 2 2 2 2 2 2 2 2 2
left_child=1 9 5 13 6 12 17 14 11 -1 22 29 18 -4 -6 -9 19 -3 28 23 -8 -16 -7 -14 25 -15 -22 -28 -2 -5
right_child=2 4 3 8 7 10 20 15 -10 -11 -12 -13 16 24 21 -17 -18 -19 -20 -21 26 -23 -24 -25 -26 -27 27 -29 -30 -31
leaf_value=-1.8130851459503174 -0.25478830768948507 -0.48575736153416516 0.78048775911331181 0.85890015323956803 0.0098541234731674195 0.4258020776251088 -1.1548653147770809 0.39036840391159061 1.631926398504348 -1.1485929737669049 0.77269282753052926 1.0359329416117538 -0.59144056612253193 0.33909680917859081 -0.23016983164368934 -0.19750366617332804 -0.52089584271113076 0.0084988426417112357 0.48204799813382765 0.085706568743501382 -0.60960148137349346 -0.56177148456697334 -0.045106592592985731 -0.088120990792910248 0.18602974497846195 0.7620074921640857 -1.1247581556998194 -0.60510065607402641 0.15574277805654627 0.41774565992933332
leaf_weight=40 21 41 40 24 35 46 26 35 21 33 46 109 20 53 53 22 24 32 34 84 78 77 23 36 56 29 32 23 76 33
leaf_count=40 21 41 40 24 35 46 26 35 21 33 46 109 20 53 53 22 24 32 34 84 78 77 23 36 56 29 32 23 76 33
internal_value=0.0127578 -0.575614 0.412851 0.721353 -0.424938 0.138209 -0.634177 -0.206273 0.97105 -1.5127 0.470377 0.887445 0.00871937 0.459031 -0.334003 0.16347 -0.123801 -0.269097 0.174622 -0.0557273 -0.801792 -0.42658 0.268833 -0.267878 0.365855 0.488663 -0.732771 -0.907447 0.0668649 0.603495
internal_weight=1302 527 775 365 454 410 232 222 187 73 115 166 295 178 165 57 164 73 131 140 159 130 69 56 138 82 133 55 97 57
internal_count=1302 527 775 365 454 410 232 222 187 73 115 166 295 178 165 57 164 73 131 140 159 130 69 56 138 82 133 55 97 57
is_linear=0
shrinkage=0.01


Tree=6
num_leaves=31
num_cat=0
split_feature=20 20 3 20 20 20 2 3 20 20 9 9 2 2 6 12 2 1 1 9 18 20 12 11 0 11 2 9 9 1
split_gain=3.00396e+06 729298 643573 234321 203586 172841 139805 102758 101266 78253 68675.2 68598 65865.9 62870.4 62432.1 58335.7 56522.8 52253.6 43817.8 43275.5 38836 35078.4 36074.2 33325.8 30593.3 29917.4 28766 28763.5 28678.6 26503.4
threshold=212.16666666666669 89.166666666666671 38.500000000000007 262.83333333333343 180.83333333333334 270.50000000000006 16.833333333333339 38.500000000000007 332.33333333333343 45.666666666666679 6.5400641025641031 4.5571895424836608 17.833333333333339 16.500000000000004 0.23764705882352941 0.13976744186046514 20.833333333333339 32.833333333333336 24.500000000000004 5.2376470588235309 -125.49999999999999 236 0.057983193277310906 0.15301003344481603 12.500000000000002 0.16542288557213927 19.833333333333339 5.4309523809523821 5.6043478260869568 38.833333333333336
decision_type=2 2 2 2 2 2 2 2 2 2 2 2 2 2 2 2 2 2 2 2 2 2 2 2 2 2 2 2 2 2
left_child=1 9 5 17 6 12 14 13 11 -1 23 29 -2 28 -3 21 -9 -4 19 -16 26 22 -14 -7 -8 27 -15 -19 -6 -5
right_child=2 4 3 8 7 10 24 16 -10 -11 -12 -13 15 20 18 -17 -18 25 -20 -21 -22 -23 -24 -25 -26 -27 -28 -29 -30 -31
leaf_value=-1.7949543418884277 0.47005179605313707 -0.88812218937873844 0.77268288540840147 0.8503111485640209 -0.26226058347658682 0.4215440535027048 -0.76373573597441324 0.39335581560392641 1.6156071236020042 -1.1371070497686213 0.76496589588082364 1.0255736165527904 0.20412836843066745 0.004970500373840332 -0.46529385339646112 -0.2926183606859516 -0.26647650849819182 0.3548977722644806 -0.50612239501369538 0.12658887960513432 -0.59871546725152247 0.16607286110791294 -0.23381275665375495 -0.044655528483183486 -1.1351297142392114 0.19917947998931332 -0.47474617167934774 0.76496604213347807 0.24834167009050195 0.41356819607994771
leaf_weight=40 28 25 40 24 22 46 47 37 21 33 46 109 27 25 21 68 20 50 67 30 71 110 62 23 42 62 25 26 22 33
leaf_count=40 28 25 40 24 22 46 47 37 21 33 46 109 27 25 21 68 20 50 67 30 71 110 62 23 42 62 25 26 22 33
internal_value=0.0126302 -0.569858 0.408722 0.71414 -0.420688 0.136827 -0.627835 -0.204211 0.96134 -1.49757 0.465673 0.878571 0.00863217 -0.330663 -0.434173 -0.0397564 0.161836 0.454441 -0.337997 -0.117128 -0.448373 0.0466487 -0.100954 0.266144 -0.939 0.362197 -0.234888 0.495184 -0.00695946 0.59746
internal_weight=1302 527 775 365 454 410 232 222 187 73 115 166 295 165 143 267 57 178 118 51 121 199 89 69 89 138 50 76 44 57
internal_count=1302 527 775 365 454 410 232 222 187 73 115 166 295 165 143 267 57 178 118 51 121 199 89 69 89 138 50 76 44 57
is_linear=0
shrinkage=0.01


Tree=7
num_leaves=31
num_cat=0
split_feature=20 20 4 20 20 20 2 4 20 20 9 9 2 2 6 12 2 1 1 9 18 20 12 11 0 11 9 2 9 1
split_gain=2.94418e+06 714785 630766 229658 199534 169401 137023 100713 99250.8 76695.8 67308.5 67232.9 64555.2 61619.3 61189.7 57174.8 55398 51213.8 42945.8 42414.3 38063.2 34380.4 35356.3 32662.6 29984.5 29324.8 32293.8 28193.6 28107.9 25976
threshold=212.16666666666669 89.166666666666671 38.500000000000007 262.83333333333343 180.83333333333334 270.50000000000006 16.833333333333339 38.500000000000007 332.33333333333343 45.666666666666679 6.5400641025641031 4.5571895424836608 17.833333333333339 16.500000000000004 0.23764705882352941 0.13976744186046514 20.833333333333339 32.833333333333336 24.500000000000004 5.2376470588235309 -125.49999999999999 236 0.057983193277310906 0.15301003344481603 12.500000000000002 0.16843971631205673 5.4309523809523821 19.833333333333339 5.6043478260869568 38.833333333333336
decision_type=2 2 2 2 2 2 2 2 2 2 2 2 2 2 2 2 2 2 2 2 2 2 2 2 2 2 2 2 2 2
left_child=1 9 5 17 6 12 14 13 11 -1 23 29 -2 28 -3 21 -9 -4 19 -16 27 22 -14 -7 -8 26 -19 -15 -6 -5
right_child=2 4 3 8 7 10 24 16 -10 -11 -12 -13 15 20 18 -17 -18 25 -20 -21 -22 -23 -24 -25 -26 -27 -28 -29 -30 -31
leaf_value=-1.7770046806335449 0.46535127737692428 -0.87924096452295786 0.7649560623168945 0.84180803577105212 -0.25963797902519054 0.41732861358186479 -0.75609838921973049 0.38942226732099378 1.5994510923113143 -1.125735940066251 0.75731623761031941 1.0153178795543287 0.20208707813863402 0.0049207986831665039 -0.46064091092064269 -0.2896921773605487 -0.26381173789501189 0.33224500570657123 -0.50106116641813248 0.12532299606005351 -0.59272831837056383 0.16441213195432317 -0.23147463138065033 -0.04420897411263508 -1.1237784140450615 0.18217765114137105 0.74732304005787287 -0.4699987057566643 0.2458582570336082 0.40943251898794464
leaf_weight=40 28 25 40 24 22 46 47 37 21 33 46 109 27 25 21 68 20 53 67 30 71 110 62 23 42 56 29 25 22 33
leaf_count=40 28 25 40 24 22 46 47 37 21 33 46 109 27 25 21 68 20 53 67 30 71 110 62 23 42 56 29 25 22 33
internal_value=0.0125039 -0.56416 0.404635 0.706998 -0.416482 0.135458 -0.621557 -0.202169 0.951726 -1.4826 0.461016 0.869785 0.00854585 -0.327356 -0.429831 -0.0393588 0.160217 0.449896 -0.334618 -0.115956 -0.44389 0.0461822 -0.0999447 0.263483 -0.92961 0.358575 0.479041 -0.232539 -0.00688986 0.591485
internal_weight=1302 527 775 365 454 410 232 222 187 73 115 166 295 165 143 267 57 178 118 51 121 199 89 69 89 138 82 50 44 57
internal_count=1302 527 775 365 454 410 232 222 187 73 115 166 295 165 143 267 57 178 118 51 121 199 89 69 89 138 82 50 44 57
is_linear=0
shrinkage=0.01


Tree=8
num_leaves=31
num_cat=0
split_feature=21 3 21 21 1 21 5 6 3 3 11 5 21 15 12 12 12 11 1 14 8 17 6 12 12 12 14 12 18 6
split_gain=1.48175e+06 929647 334940 240729 215393 165333 162309 106184 99320.5 92085.6 87598 68755.6 53150.9 50971.6 50517.7 50488.1 47687.1 39739.1 38963 37484.9 32106.6 31635.8 31560.9 31304.2 31176.3 31044 32025.7 30032 29149.8 25542.1
threshold=0.83333333333333337 37.500000000000007 0.50000000000000011 2.166666666666667 19.166666666666668 1.5000000000000002 0.39471396278908016 0.23764705882352941 42.500000000000007 39.500000000000007 0.11483516483516476 0.44274004683840751 2.166666666666667 42.250000000000007 0.088562091503267909 0.069971440228478163 0.082207207207207159 0.11696306429548561 29.833333333333339 -1.2499999999999998 6.6554945054945067 -108.49999999999999 0.63068181818181823 0.12060606060606062 0.17521929824561402 0.13976744186046514 1.0000000180025095e-35 0.12158167036215817 216.00000000000003 0.58114035087719318
decision_type=2 2 2 2 2 2 2 2 2 2 2 2 2 2 2 2 2 2 2 2 2 2 2 2 2 2 2 2 2 2
left_child=2 3 4 6 13 16 -2 -4 27 24 23 -6 14 -1 -10 20 29 -5 -18 -20 -12 -21 -11 -8 -9 26 -13 -7 -17 -3
right_child=1 5 7 17 11 8 10 9 12 22 15 25 -14 -15 -16 28 18 -19 19 21 -22 -23 -24 -25 -26 -27 -28 -29 -30 -31
leaf_value=-1.0351219670860856 -0.75942755787871608 0.82824845770994826 -0.79186664471030244 0.590311325373857 -1.1014147931879217 0.62323401201516393 0.22260834324359896 -0.21492601016846796 1.1362946269823158 0.50467015245686409 -0.23622010726195114 -0.070577659893035896 1.1194936930338542 -1.6294349513515349 0.59098568784273586 -0.24063264705399248 0.54978455678621929 0.18304291708469392 -0.10464774088981825 0.5120641383528709 0.23059708195574144 0.073990948059979605 -0.038492396354675294 -0.10256074007521285 -0.64892673063278195 -0.73255432749948202 -0.54507747198596146 0.27657286056658115 -0.55269589869599589 0.37988941282033922
leaf_weight=27 43 24 30 46 22 64 80 96 23 23 26 25 60 31 65 141 30 50 39 32 34 34 20 47 20 31 33 41 38 27
leaf_count=27 43 24 30 46 22 64 80 96 23 23 26 25 60 31 65 141 30 50 39 32 34 34 20 47 20 31 33 41 38 27
internal_value=0.0123789 0.220127 -0.535427 -0.0724627 -0.858894 0.556706 -0.17824 -0.24619 0.723102 -0.143232 -0.109958 -0.600832 0.88999 -1.35277 0.73351 -0.222733 0.330371 0.378192 0.231956 0.141147 0.0283096 0.28639 0.252036 0.10227 -0.289754 -0.477092 -0.340552 0.487871 -0.306881 0.590882
internal_weight=1302 944 358 505 169 439 409 189 253 159 366 111 148 58 88 239 186 96 135 105 60 66 43 127 116 89 58 105 179 51
internal_count=1302 944 358 505 169 439 409 189 253 159 366 111 148 58 88 239 186 96 135 105 60 66 43 127 116 89 58 105 179 51
is_linear=0
shrinkage=0.01


Tree=9
num_leaves=31
num_cat=0
split_feature=20 20 3 20 20 20 1 3 20 20 2 9 9 2 12 1 2 3 12 20 12 11 2 3 0 11 9 1 11 10
split_gain=2.84513e+06 689359 606264 222766 193415 164006 134176 97965.3 96515.5 74231 70210.8 65760.3 65493.6 62861.7 55101 49852.4 42823.9 42044.8 41200.1 33352 34425.2 31684.2 31585 29750.7 29106.6 28694.6 27596.9 25024.3 23083.1 22666.9
threshold=212.16666666666669 89.166666666666671 38.500000000000007 262.83333333333343 180.83333333333334 270.50000000000006 25.500000000000004 32.500000000000007 332.33333333333343 45.666666666666679 19.500000000000004 6.5400641025641031 4.5571895424836608 17.833333333333339 0.13976744186046514 32.833333333333336 17.166666666666668 34.500000000000007 0.13182720953326713 236 0.057983193277310906 0.15301003344481603 19.833333333333339 38.500000000000007 12.500000000000002 0.16542288557213927 5.4309523809523821 38.833333333333336 0.13759296822177147 0.080540540540540509
decision_type=2 2 2 2 2 2 2 2 2 2 2 2 2 2 2 2 2 2 2 2 2 2 2 2 2 2 2 2 2 2
left_child=1 9 5 15 6 13 17 18 12 -1 23 21 27 -2 19 -4 -8 -3 22 20 -15 -7 -6 -9 29 26 -17 -5 -21 -18
right_child=2 4 3 8 7 11 16 10 -10 -11 -12 -13 -14 14 -16 25 24 -19 -20 28 -22 -23 -24 -25 -26 -27 -28 -29 -30 -31
leaf_value=-1.7462173919677735 0.45973524398037363 -0.46860394957588936 0.75179523122310643 0.82540730396906536 -0.098385044764249752 0.41044365076915079 -0.60294860078315982 0.0091707615410345361 1.5739305296398345 -1.1054990791551995 -0.2867455932727227 0.74704049359845071 0.99802740053299377 0.19976800076939441 -0.28406230077366618 0.34368066000938413 -0.53831251273984493 0.015067833247594536 -0.68989437840486834 0.30963194390137988 -0.22804660831007265 -0.044128860079723858 -0.56562488742496653 0.42300951257348063 -1.1304017957051595 0.19120034092436394 0.74534708793346693 0.40102628498366388 0.019862303095204491 -0.99272306260608489
leaf_weight=40 28 41 40 24 39 46 76 38 21 33 52 46 109 27 68 50 23 32 38 54 62 23 23 32 39 62 26 33 56 21
leaf_count=40 28 41 40 24 39 46 76 38 21 33 52 46 109 27 68 50 23 32 38 54 62 23 23 32 39 62 26 33 56 21
internal_value=0.0122551 -0.554625 0.397733 0.694166 -0.409597 0.133836 -0.611503 -0.198596 0.935193 -1.45658 -0.00840965 0.454168 0.854389 0.00896139 -0.0383108 0.440951 -0.774454 -0.256583 -0.430624 0.0456646 -0.0982602 0.258919 -0.271716 0.198354 -0.931494 0.350851 0.481093 0.579713 0.162113 -0.75519
internal_weight=1302 527 775 365 454 410 232 222 187 73 122 115 166 295 267 178 159 73 100 199 89 69 62 70 83 138 76 57 110 44
internal_count=1302 527 775 365 454 410 232 222 187 73 122 115 166 295 267 178 159 73 100 199 89 69 62 70 83 138 76 57 110 44
is_linear=0
shrinkage=0.01


Tree=10
num_leaves=31
num_cat=0
split_feature=20 20 3 20 20 20 2 2 20 9 3 2 12 9 20 20 6 3 2 2 3 2 1 2 11 15 18 1 15 11
split_gain=3.25173e+06 776693 642451 246175 159855 150684 126941 110919 89708 82162 78481.9 74917.5 63676.4 55783.9 54875 51116.1 50030.2 45687.1 38641.4 34540.7 33934.7 31943.9 31129.1 30403.9 28304.4 26770.7 35024.4 26360.7 24452.1 20753.3
threshold=211.16666666666669 102.00000000000001 38.500000000000007 295.50000000000006 270.50000000000006 180.83333333333334 16.833333333333339 20.166666666666668 22.333333333333339 4.5086206896551735 27.500000000000004 17.833333333333339 0.13976744186046514 6.8038461538461545 257.83333333333343 332.33333333333343 0.23764705882352941 43.500000000000007 14.16666666666667 23.500000000000004 40.500000000000007 21.166666666666668 38.833333333333336 26.833333333333339 0.14670014347202293 41.750000000000007 -114.49999999999999 32.833333333333336 42.750000000000007 0.13284313725490196
decision_type=2 2 2 2 2 2 2 2 2 2 2 2 2 2 2 2 2 2 2 2 2 2 2 2 2 2 2 2 2 2
left_child=1 8 4 9 11 6 16 10 -1 17 -7 -2 29 23 27 22 -3 -4 -18 -9 25 -16 -5 -6 -20 -12 -27 -11 -10 -13
right_child=2 5 3 15 13 7 -8 19 28 14 20 12 -14 -15 21 -17 18 -19 24 -21 -22 -23 -24 -25 -26 26 -28 -29 -30 -31
leaf_value=-1.8794718038624731 0.48428758613268535 -0.86165550684928893 0.1224568799928743 1.1972352668566582 0.43895562375033342 -0.49277581034228207 -0.89904643281616947 -0.39682971453028065 -1.0567621212005616 0.80690261516571038 0.20646646554100101 0.15696383215163065 -0.31142581552041299 0.81530603615567088 1.2210750016712006 1.5312171686612643 -0.13649949735562716 0.53558497938059146 -0.2435057354514443 -0.85710858982542293 0.37859328058030872 0.77072136750296938 0.76877104059855139 -0.017468459069728853 -0.72917035549879072 0.12794150920141312 -0.41657920713777896 0.42639371667112874 -1.4462408302448415 -0.052686136039261963
leaf_weight=29 30 20 49 39 54 32 88 56 40 25 29 92 66 32 21 26 56 59 21 23 27 63 30 20 28 21 27 67 27 97
leaf_count=29 30 20 49 39 54 32 88 56 40 25 29 92 66 32 21 26 56 59 21 23 27 63 30 20 28 21 27 67 27 97
internal_value=0.00575823 -0.601915 0.419292 0.71268 0.134907 -0.419579 -0.608092 -0.232819 -1.41483 0.565278 -0.059707 0.0115952 -0.0440156 0.466453 0.698517 1.15334 -0.40326 0.348147 -0.315946 -0.530835 0.073545 0.88331 1.01095 0.315598 -0.521028 -0.03342 -0.178351 0.529793 -1.21372 0.0493657
internal_weight=1294 524 770 379 391 428 213 215 96 284 136 285 255 106 176 95 125 108 105 79 104 84 69 74 49 77 48 92 67 189
internal_count=1294 524 770 379 391 428 213 215 96 284 136 285 255 106 176 95 125 108 105 79 104 84 69 74 49 77 48 92 67 189
is_linear=0
shrinkage=0.01


Tree=11
num_leaves=31
num_cat=0
split_feature=20 20 3 20 20 20 2 2 20 9 3 2 12 9 20 20 10 3 2 2 3 2 2 18 15 18 12 2 5 11
split_gain=3.18702e+06 761236 629666 241276 156674 147686 124415 108712 88050.1 80527 76920.1 73426.6 62409.2 54673.8 53783 50098.9 46039.2 44777.9 44101.2 33853.3 33259.4 31308.2 29798.9 29236 26237.9 34327.4 23892.5 23477.3 23302.9 20340.3
threshold=211.16666666666669 102.00000000000001 38.500000000000007 295.50000000000006 270.50000000000006 180.83333333333334 16.833333333333339 20.166666666666668 45.666666666666679 4.5086206896551735 27.500000000000004 17.833333333333339 0.13976744186046514 6.8038461538461545 257.83333333333343 332.33333333333343 0.11451990632318497 43.500000000000007 10.500000000000002 23.500000000000004 40.500000000000007 21.166666666666668 26.833333333333339 135.50000000000003 41.750000000000007 -114.49999999999999 0.089087301587301507 19.833333333333339 0.7062745098039217 0.13284313725490196
decision_type=2 2 2 2 2 2 2 2 2 2 2 2 2 2 2 2 2 2 2 2 2 2 2 2 2 2 2 2 2 2
left_child=1 8 4 9 11 6 16 10 -1 17 -7 -2 29 22 27 26 23 -4 -10 -9 24 -16 -6 -3 -12 -26 -5 -11 -19 -13
right_child=2 5 3 15 13 7 -8 19 18 14 20 12 -14 -15 21 -17 -18 28 -20 -21 -22 -23 -24 -25 25 -27 -28 -29 -30 -31
leaf_value=-1.7164258641782015 0.47944471176465348 -0.43368492382168766 0.12123231715085556 1.2401429821894718 0.43456606584566609 -0.48784804105758667 -0.89005596676672039 -0.39286141128944502 -0.86770637226104741 0.75994637520148844 0.20440180147002485 0.15539419254531031 -0.30831155664541504 0.80715297225862748 1.2088642710731143 1.5159049899761494 -0.69519831557531619 0.75412653207778935 -1.4739326162338255 -0.84853750114855564 0.37480734617621814 0.76301415897551039 -0.017293783605098725 -0.065705613260108389 0.12666209788549515 -0.41241341149365462 0.85614035805990529 0.41611254539045078 0.35382510705427694 -0.052159274583010333
leaf_weight=46 30 50 49 26 54 32 88 56 30 29 29 92 66 32 21 26 37 26 20 23 27 63 20 38 21 27 43 63 33 97
leaf_count=46 30 50 49 26 54 32 88 56 30 29 29 92 66 32 21 26 37 26 20 23 27 63 20 38 21 27 43 63 33 97
internal_value=0.00570065 -0.595896 0.415099 0.705553 0.133558 -0.415383 -0.602011 -0.230491 -1.40068 0.559625 -0.0591099 0.0114793 -0.0435755 0.461789 0.691532 1.1418 -0.399227 0.344666 -1.1102 -0.525527 0.0728095 0.874477 0.312442 -0.274785 -0.0330858 -0.176568 1.00084 0.524495 0.530229 0.048872
internal_weight=1294 524 770 379 391 428 213 215 96 284 136 285 255 106 176 95 125 108 50 79 104 84 74 88 77 48 69 92 59 189
internal_count=1294 524 770 379 391 428 213 215 96 284 136 285 255 106 176 95 125 108 50 79 104 84 74 88 77 48 69 92 59 189
is_linear=0
shrinkage=0.01


Tree=12
num_leaves=31
num_cat=0
split_feature=19 3 19 19 5 9 3 19 19 10 9 6 21 3 18 18 9 2 2 15 19 13 5 11 3 15 3 17 13 13
split_gain=2.02854e+06 932144 476495 221452 190892 142843 128092 100687 94933.3 83491.6 79475.2 77550.7 71619.8 62318.6 54228.6 53790.4 53512.4 50720.2 49817.7 43281 40211.2 39077.6 44486.8 37808.8 34037.8 33139.3 31069.4 30563.2 29917.3 26773.8
threshold=11.430000000000001 37.500000000000007 6.7400000000000011 17.646666666666672 0.3917306052855925 5.5669642857142865 42.500000000000007 19.610000000000003 3.6400000000000001 0.10582306830907051 4.9629120879120885 0.23764705882352941 2.166666666666667 42.500000000000007 160.50000000000003 124.50000000000001 4.4791304347826104 14.833333333333334 20.166666666666668 41.750000000000007 10.246666666666668 0.88657804459691258 0.54421072226358913 0.11696306429548561 28.500000000000004 44.250000000000007 43.500000000000007 -108.49999999999999 0.83156028368794332 0.90803382663847787
decision_type=2 2 2 2 2 2 2 2 2 2 2 2 2 2 2 2 2 2 2 2 2 2 2 2 2 2 2 2 2 2
left_child=2 4 8 9 -2 12 16 24 19 14 -8 -4 17 20 -3 -10 -5 -6 -15 -1 21 -13 -23 -19 -7 -11 -16 -12 -25 -26
right_child=1 3 11 6 5 7 10 -9 15 25 27 13 -14 18 26 -17 -18 23 -20 -21 -22 22 -24 28 29 -27 -28 -29 -30 -31
leaf_value=-1.149829208024874 -0.69552631117048724 0.57510462703561427 -0.77182476494993479 0.14668271780014039 -0.67613993082195523 -0.14461503970913772 0.74632954155315046 0.66610949954390519 -1.1318862875046269 -0.26923775290449459 1.0488654438187095 -0.63682439375614774 0.20631621586158871 0.40685592818260191 0.040251695466668985 -0.50129611273606622 0.68717061163917659 0.017566565547300423 -0.29896056842803953 -1.6832128477096557 -0.13163913146654765 -0.52351667600459062 0.080837887809390122 -0.60059307222780978 0.071318598437767763 0.27471658820197697 0.51953332185745238 1.4760743655580464 -0.19904699862003328 0.40274148179934577
leaf_weight=29 42 133 42 26 22 41 55 40 31 24 34 69 48 20 38 24 62 69 20 32 45 29 21 23 65 21 21 33 96 39
leaf_count=29 42 133 42 26 22 41 55 40 31 24 34 69 48 20 38 24 62 69 20 32 45 29 21 23 65 21 21 33 96 39
internal_value=0.00564364 0.252401 -0.629655 0.581822 -0.0512088 0.00987772 0.818278 0.221934 -1.158 0.372304 1.02803 -0.380519 -0.142178 -0.299956 0.46317 -0.85672 0.527481 -0.221834 0.0539477 -1.42964 -0.386275 -0.482565 -0.269688 -0.168671 0.0994028 -0.0153924 0.210843 1.25928 -0.276657 0.195602
internal_weight=1294 932 362 447 485 443 210 185 116 237 122 246 258 204 192 55 88 210 40 61 164 119 50 188 145 45 59 67 119 104
internal_count=1294 932 362 447 485 443 210 185 116 237 122 246 258 204 192 55 88 210 40 61 164 119 50 188 145 45 59 67 119 104
is_linear=0
shrinkage=0.01


Tree=13
num_leaves=31
num_cat=0
split_feature=20 20 3 20 20 3 20 20 1 1 9 5 3 9 20 20 1 3 1 10 10 12 1 1 12 1 3 1 1 12
split_gain=3.07387e+06 733746 605144 233705 151414 142102 101891 86053.6 81258.4 80227.2 78166.6 60125.3 56078.4 52971.4 51957.9 48728.9 48106.2 43302.9 36403.7 47688.5 33182.9 35729.9 32707.9 30464.2 28034.7 27344.1 26556.5 26009.8 25438.4 24366
threshold=211.16666666666669 102.00000000000001 38.500000000000007 295.50000000000006 270.50000000000006 26.500000000000004 180.83333333333334 22.333333333333339 21.500000000000004 29.833333333333339 4.5086206896551735 0.60903532608695665 30.500000000000004 6.8038461538461545 257.83333333333343 332.33333333333343 26.500000000000004 43.500000000000007 36.500000000000007 0.11451990632318497 0.048980407836865213 0.097800095648015312 32.833333333333336 38.833333333333336 0.10762548262548262 37.166666666666679 36.500000000000007 39.500000000000007 32.833333333333336 0.13976744186046514
decision_type=2 2 2 2 2 2 2 2 2 2 2 2 2 2 2 2 2 2 2 2 2 2 2 2 2 2 2 2 2 2
left_child=1 7 4 10 11 16 8 -1 -7 26 17 12 29 27 28 23 -3 -4 19 -10 -11 -22 -14 -5 -13 -16 -8 -6 -12 -2
right_child=2 5 3 15 13 6 9 -9 18 20 14 24 22 -15 25 -17 -18 -19 -20 -21 21 -23 -24 -25 -26 -27 -28 -29 -30 -31
leaf_value=-1.8304334758890088 -0.024407032307178254 -0.36331941687542463 0.11726633929476446 1.167008450826009 0.45782231946123975 0.0082651107700971466 -0.01323248236468344 -1.1783792381144282 -0.38428559348191299 -0.0065721873121876873 0.78677399597167963 -0.0021183389502111823 0.44635148167610167 0.79426756650209429 1.0570560505515652 1.4906965857285721 -0.8923766211201164 0.51947008763329461 -0.97500922549854618 -0.83770279619623633 -0.11632038405447295 -0.52250559006655029 0.10890000473818991 0.74314420064290365 -0.47938356094062329 0.69456183314323428 0.43530496012080799 0.073779620672094412 0.41298084560614912 -0.41096964483911341
leaf_weight=29 63 23 49 39 45 26 33 67 73 31 25 20 39 32 38 26 68 59 22 34 33 63 109 30 32 46 22 29 67 22
leaf_count=29 63 23 49 39 45 26 33 67 73 31 25 20 39 32 38 26 68 59 22 34 33 63 109 30 32 46 22 29 67 22
internal_value=0.00558721 -0.585233 0.407652 0.692395 0.131648 -0.40801 -0.313324 -1.37535 -0.501742 -0.152858 0.548774 0.0116358 0.0802525 0.454322 0.678733 1.12174 -0.758659 0.336989 -0.604534 -0.528362 -0.291025 -0.382879 0.197823 0.98272 -0.29582 0.858547 0.166182 0.307319 0.514555 -0.124459
internal_weight=1294 524 770 379 391 428 337 96 155 182 284 285 233 106 176 95 91 108 129 107 127 96 148 69 52 84 55 74 92 85
internal_count=1294 524 770 379 391 428 337 96 155 182 284 285 233 106 176 95 91 108 129 107 127 96 148 69 52 84 55 74 92 85
is_linear=0
shrinkage=0.01


Tree=14
num_leaves=31
num_cat=0
split_feature=20 20 3 20 20 20 2 2 20 9 3 2 12 9 20 6 20 3 2 2 3 2 1 2 11 15 18 1 15 5
split_gain=3.0127e+06 719145 593102 229054 148401 139523 119833 105044 84341.1 76611 72913.1 70913.9 59251.9 51917.3 50924 48138.1 47759.2 42441.1 37265.7 32878.3 31704.8 30257 29858 28717.5 27010.5 25580.2 33323.3 24932.2 23579.9 22785.1
threshold=211.16666666666669 102.00000000000001 38.500000000000007 295.50000000000006 270.50000000000006 180.83333333333334 16.833333333333339 20.166666666666668 22.333333333333339 4.5086206896551735 27.500000000000004 17.833333333333339 0.13976744186046514 6.8038461538461545 257.83333333333343 0.23764705882352941 332.33333333333343 43.500000000000007 14.16666666666667 23.500000000000004 40.500000000000007 21.166666666666668 38.833333333333336 26.833333333333339 0.14670014347202293 41.750000000000007 -114.49999999999999 32.833333333333336 42.750000000000007 0.7062745098039217
decision_type=2 2 2 2 2 2 2 2 2 2 2 2 2 2 2 2 2 2 2 2 2 2 2 2 2 2 2 2 2 2
left_child=1 8 4 9 11 6 15 10 -1 17 -7 -2 -13 23 27 -3 22 -4 -17 -9 25 -16 -5 -6 -20 -12 -27 -11 -10 -19
right_child=2 5 3 16 13 7 -8 19 28 14 20 12 -14 -15 21 18 -18 29 24 -21 -22 -23 -24 -25 -26 26 -28 -29 -30 -31
leaf_value=-1.8121291482859645 0.4714079250693321 -0.83595682120323178 0.11609367948405597 1.1553383587568236 0.42413379502241255 -0.47317606814205648 -0.86801724493503574 -0.38349537534373151 -1.0124660873413087 0.7789062581062316 0.20378395004519101 0.047493541039078047 -0.30053766682518251 0.78632489420473572 1.1786878313337055 -0.12444264681211539 1.4757895924494819 0.73567139350450961 -0.23095922277087258 -0.83256126341612446 0.36753850089179146 0.74038649975307413 0.73571275838216155 -0.019451395213603975 -0.70539332065731286 0.12638229188464936 -0.4047508446375529 0.4088510396676277 -1.3949352497524685 0.33984216733412309
leaf_weight=29 30 20 49 39 54 32 88 56 40 25 29 189 66 32 21 56 26 26 21 23 27 63 30 20 28 21 27 67 27 33
leaf_count=29 30 20 49 39 54 32 88 56 40 25 29 189 66 32 21 56 26 26 21 23 27 63 30 20 28 21 27 67 27 33
internal_value=0.00553133 -0.579381 0.403575 0.685471 0.130332 -0.40393 -0.585327 -0.22422 -1.3616 0.543286 -0.0557544 0.0115194 -0.0425851 0.449779 0.671946 -0.386313 1.11053 0.333619 -0.300666 -0.514236 0.072683 0.849962 0.972892 0.304246 -0.502064 -0.0307079 -0.17238 0.50941 -1.1666 0.514275
internal_weight=1294 524 770 379 391 428 213 215 96 284 136 285 255 106 176 125 95 108 105 79 104 84 69 74 49 77 48 92 67 59
internal_count=1294 524 770 379 391 428 213 215 96 284 136 285 255 106 176 125 95 108 105 79 104 84 69 74 49 77 48 92 67 59
is_linear=0
shrinkage=0.01


Tree=15
num_leaves=31
num_cat=0
split_feature=20 20 4 20 20 20 20 2 2 20 4 5 4 1 9 4 2 20 9 12 2 12 2 12 10 1 9 2 21 2
split_gain=2.90731e+06 663651 514488 199449 174921 143146 142624 99439.9 78505.4 77648.4 75119 68648.4 65633.6 63841.2 55642.8 54298.1 49804 44769.2 42523.9 36878.2 35139.9 32660.3 31792.8 31408.3 28709 25506.7 25051.8 24512.9 22410.1 20651.6
threshold=210.16666666666669 121.83333333333336 38.500000000000007 263.50000000000006 270.50000000000006 35.666666666666664 180.83333333333334 16.500000000000004 23.500000000000004 332.33333333333343 32.500000000000007 0.60361093038386471 33.500000000000007 22.833333333333339 6.8038461538461545 31.500000000000004 17.833333333333339 84.166666666666671 7.0662393162393169 0.13182720953326713 21.166666666666668 0.14729990356798453 13.500000000000002 0.10762548262548262 0.077677224736048267 34.833333333333336 4.8956442831215972 19.166666666666668 2.166666666666667 24.500000000000004
decision_type=2 2 2 2 2 2 2 2 2 2 2 2 2 2 2 2 2 2 2 2 2 2 2 2 2 2 2 2 2 2
left_child=1 5 4 16 11 -1 7 12 10 20 19 15 22 17 -6 18 -4 -7 -2 -8 -5 24 -3 -13 -9 -17 28 -12 -22 -18
right_child=2 6 3 9 14 13 8 21 -10 -11 27 23 -14 -15 -16 25 29 -19 -20 -21 26 -23 -24 -25 -26 -27 -28 -29 -30 -31
leaf_value=-1.6959916323707216 -0.18992126384936275 -0.27462580046974699 0.81729076044900084 1.1310597110616751 0.33042040711716758 -1.025184584700543 -0.20299433475790118 -0.43892345019749235 -0.79680864381790162 1.4483603629198942 0.15006429534624605 0.011652789500287988 -0.013240633441342249 -1.2973306989669799 0.81424809483920824 0.40594335574729767 0.42790675367339182 -0.3865647974468413 0.26287657839911327 -0.63874860428994706 0.43783497949441275 -1.0794019584655761 -0.72606782201008924 -0.46312957738575189 -0.86333337584057379 0.11279168253213588 0.87212650181495976 -0.15720153133784023 0.82756677551269531 0.16969787180423737
leaf_weight=42 80 26 28 29 79 23 52 28 20 22 68 22 36 34 34 51 118 21 28 31 36 30 39 38 37 71 73 42 25 42
leaf_count=42 80 26 28 29 79 23 52 28 20 22 68 22 36 34 34 51 118 21 28 31 36 30 39 38 37 71 73 42 25 42
internal_value=0.000253498 -0.571414 0.38996 0.657602 0.142241 -1.22532 -0.37956 -0.574229 -0.200428 0.890709 -0.138627 0.0121917 -0.355778 -0.971876 0.475997 0.0907746 0.428215 -0.720389 -0.0725292 -0.365746 0.815443 -0.806476 -0.545491 -0.289043 -0.680511 0.235339 0.747138 0.0327446 0.597561 0.360127
internal_weight=1305 529 776 373 403 120 409 196 213 185 193 290 101 78 113 230 188 44 108 83 163 95 65 60 65 122 134 110 61 160
internal_count=1305 529 776 373 403 120 409 196 213 185 193 290 101 78 113 230 188 44 108 83 163 95 65 60 65 122 134 110 61 160
is_linear=0
shrinkage=0.01


Tree=16
num_leaves=31
num_cat=0
split_feature=19 3 19 19 3 21 10 3 10 3 18 19 10 8 3 14 18 14 19 3 12 2 10 18 12 8 16 3 3 21
split_gain=1.80886e+06 816821 407909 216203 188196 149816 110606 109603 71026.1 65469.3 71870.4 77114.9 47612.3 45381.2 42928 40740.9 37120.3 36495.2 34530.7 31510.5 31313.8 29999.9 25248.4 24132 22692.9 21903.7 27475.9 21211.7 21064.5 41626.8
threshold=10.520000000000001 38.500000000000007 3.6400000000000001 17.076666666666672 21.500000000000004 2.166666666666667 0.11451990632318497 44.500000000000007 0.10582306830907051 31.500000000000004 140.50000000000003 8.7666666666666693 0.075235849056603757 6.546536796536798 32.500000000000007 2.2500000000000004 107.50000000000001 4.7500000000000009 21.570000000000004 46.500000000000007 0.10762548262548262 18.500000000000004 0.03637566137566136 139.50000000000003 0.11952380952380952 6.6099033816425132 -107.49999999999999 34.500000000000007 25.500000000000004 0.50000000000000011
decision_type=2 2 2 2 2 2 2 2 2 2 2 2 2 2 2 2 2 2 2 2 2 2 2 2 2 2 2 2 2 2
left_child=2 4 -1 8 -2 6 14 13 19 28 11 -11 -9 -5 22 -10 27 -12 -15 23 25 -8 -6 -3 -23 -16 -27 -7 -4 -30
right_child=1 3 9 7 5 16 21 12 15 10 17 -13 -14 18 20 -17 -18 -19 -20 -21 -22 24 -24 -25 -26 26 -28 -29 29 -31
leaf_value=-1.4512591248208826 -0.9036033344268799 0.4571220692689868 -0.91806074686348438 0.21578227775437492 0.06703562944630781 0.34241568403691053 -0.58765088907770202 1.2254478448291994 -0.28845652984311948 -0.84541151584462926 0.050069635524982364 -0.23508975035435445 0.76843012475967409 0.47789823953594479 0.064926048823765348 0.31187702560424801 -0.022365111566725233 -0.39670105742685724 0.88340002536773687 0.64246898598141144 -0.012284588501896969 -0.088591758892649697 -0.18564304400106957 0.17487590039217912 -0.4561194465841566 0.59194444146649594 0.12329190036112612 0.69871407205859826 -0.95153570782054564 -0.40998254440724852
leaf_weight=55 24 69 32 28 60 55 37 53 26 47 41 37 40 42 35 20 21 33 42 45 86 42 116 54 28 29 22 24 22 40
leaf_count=55 24 69 32 28 60 55 37 53 26 47 41 37 40 42 35 20 21 33 42 45 86 42 116 54 28 29 22 24 22 40
internal_value=0.000250963 0.206742 -0.671014 0.543045 -0.0366272 0.000863683 -0.0761604 0.775134 0.320717 -0.500722 -0.376398 -0.576579 1.02888 0.564432 0.0102939 -0.0274419 0.351323 -0.149166 0.680649 0.416047 0.122644 -0.357339 -0.0995026 0.333209 -0.235603 0.257572 0.389781 0.450658 -0.709692 -0.602147
internal_weight=1305 998 307 419 579 555 455 205 214 252 158 84 93 112 348 46 100 74 84 168 172 107 176 123 70 86 51 79 94 62
internal_count=1305 998 307 419 579 555 455 205 214 252 158 84 93 112 348 46 100 74 84 168 172 107 176 123 70 86 51 79 94 62
is_linear=0
shrinkage=0.01


Tree=17
num_leaves=31
num_cat=0
split_feature=20 20 3 20 20 20 20 2 2 20 3 5 9 3 3 2 9 2 13 2 2 13 13 10 9 2 2 21 9 3
split_gain=2.80704e+06 639885 493663 192676 169782 161999 109305 90670.5 76530.2 75416.5 72397.2 66982.9 54467.7 52399.6 51024.6 48694 41651.9 36171.2 35800.4 34327.2 31279.9 30446.9 27284.9 35515.8 24658.1 24040.2 21676.3 21579.4 20273.2 19304.6
threshold=210.16666666666669 105.33333333333336 38.500000000000007 263.50000000000006 270.50000000000006 180.83333333333334 35.666666666666664 16.500000000000004 23.500000000000004 332.33333333333343 32.500000000000007 0.60361093038386471 6.8038461538461545 31.500000000000004 34.500000000000007 17.833333333333339 7.0662393162393169 13.833333333333334 0.86996779388083745 21.166666666666668 13.500000000000002 0.91143790849673212 0.85215543412264727 0.09404481132075472 4.8956442831215972 19.166666666666668 18.500000000000004 2.166666666666667 5.4037037037037043 30.500000000000004
decision_type=2 2 2 2 2 2 2 2 2 2 2 2 2 2 2 2 2 2 2 2 2 2 2 2 2 2 2 2 2 2
left_child=1 6 4 15 11 7 -1 14 10 19 18 13 29 16 20 -4 -2 -8 -7 -5 -3 -13 -9 -24 27 -12 -15 -21 -17 -6
right_child=2 5 3 9 12 8 17 22 -10 -11 25 21 -14 26 -16 28 -18 -19 -20 24 -22 -23 23 -25 -26 -27 -28 -29 -30 -31
leaf_value=-1.6673343077160063 -0.18658456377312541 -0.30492921587545424 0.80460241590227399 1.112229235747765 0.073688692396337338 -0.62799195008893161 -0.82255441531156881 -1.0633089021046955 -0.78589097213745118 1.4240387860211459 0.14837956210269648 -0.4444474043250084 0.80399895766202134 0.5330571678280831 -0.10401882284726853 0.28432103436726791 0.26154669812747411 -1.3456247591972352 -0.19865286009816024 0.42763864576816557 -0.71027192612911794 0.033413863629102709 -0.4596541314199567 -0.92058837781633662 0.85677597660316185 -0.15590956927055405 0.17301168859004976 0.81007907981872562 0.53823941000672271 0.42242328670986917
leaf_weight=42 80 32 28 29 22 31 39 30 20 22 68 40 34 20 39 117 28 20 52 36 47 20 32 35 73 42 102 25 43 57
leaf_count=42 80 32 28 29 22 31 39 30 20 22 68 40 34 20 39 117 28 20 52 36 47 20 32 35 73 42 102 25 43 57
internal_value=0.000248453 -0.561475 0.383176 0.645345 0.140522 -0.392523 -1.27743 -0.586168 -0.197061 0.87446 -0.136042 0.0123974 0.469338 0.0900212 -0.399977 0.419887 -0.0704024 -0.999866 -0.359008 0.800284 -0.546082 -0.28516 -0.812668 -0.700441 0.732773 0.0321964 0.232036 0.584377 0.352562 0.325307
internal_weight=1305 529 776 373 403 428 101 215 213 185 193 290 113 230 118 188 108 59 83 163 79 60 97 67 134 110 122 61 160 79
internal_count=1305 529 776 373 403 428 101 215 213 185 193 290 113 230 118 188 108 59 83 163 79 60 97 67 134 110 122 61 160 79
is_linear=0
shrinkage=0.01


Tree=18
num_leaves=31
num_cat=0
split_feature=20 20 3 20 20 20 20 2 20 2 3 5 3 2 9 3 2 9 20 12 2 12 2 12 10 9 2 21 8 11
split_gain=2.75118e+06 627538 483839 188878 166403 136096 134892 95266.9 75009.2 75007.2 70956.5 65649.9 62762.2 60516 53383.8 51356.9 49137.9 40823 39943.4 35088 33826.2 31195.7 30476.8 29841.8 27680.2 26423.1 23561.8 21526.9 21469.8 21033.1
threshold=210.16666666666669 121.83333333333336 38.500000000000007 262.83333333333343 270.50000000000006 35.666666666666664 180.83333333333334 16.500000000000004 332.33333333333343 23.500000000000004 32.500000000000007 0.60361093038386471 33.500000000000007 13.500000000000002 6.8038461538461545 31.500000000000004 17.833333333333339 7.0662393162393169 84.166666666666671 0.13182720953326713 21.166666666666668 0.14729990356798453 13.500000000000002 0.10762548262548262 0.077677224736048267 4.8956442831215972 19.166666666666668 2.166666666666667 8.0334821428571441 0.15954545454545457
decision_type=2 2 2 2 2 2 2 2 2 2 2 2 2 2 2 2 2 2 2 2 2 2 2 2 2 2 2 2 2 2
left_child=1 5 4 16 11 -1 7 12 20 10 19 15 22 18 -6 17 -4 -2 -7 -8 -5 24 -3 -13 -9 27 -12 -22 -17 -18
right_child=2 6 3 8 14 13 9 21 -10 -11 26 23 -14 -15 -16 28 29 -19 -20 -21 25 -23 -24 -25 -26 -27 -28 -29 -30 -31
leaf_value=-1.6506609671456474 -0.18471871821954847 -0.26511601388454437 0.79655639682497292 1.0927527052561441 0.32205425212654887 -1.0100620206832887 -0.19666633086708879 -0.4256114933320454 1.409798392382535 -0.77803206944465642 0.14689576863804285 0.010792105401104146 -0.0098389789958794917 -1.3066669329281511 0.7959589766053593 0.11149909450727349 0.43463817315352593 0.25893122979572841 -0.43891869961904983 -0.62171202798043534 0.41654801822997428 -1.0526758124033611 -0.70711638291676837 -0.45199866163103203 -0.84234818110594878 0.85015802159502696 -0.1543504747712896 0.79201671673701357 0.3785798849220629 0.19668760694196966
leaf_weight=42 80 26 28 30 79 25 52 28 22 20 68 22 36 29 34 68 95 28 24 31 37 30 39 38 37 74 42 26 54 61
leaf_count=42 80 26 28 30 79 25 52 28 22 20 68 22 36 29 34 68 95 28 24 31 37 30 39 38 37 74 42 26 54 61
internal_value=0.000245968 -0.55586 0.379344 0.638892 0.139117 -1.19172 -0.369299 -0.558618 0.860924 -0.19509 -0.134682 0.0122735 -0.3448 -0.944602 0.464645 0.089121 0.410827 -0.0696984 -0.730318 -0.355418 0.788617 -0.78594 -0.530316 -0.282309 -0.662831 0.722018 0.0318745 0.571503 0.229715 0.341593
internal_weight=1305 529 776 373 403 120 409 196 189 213 193 290 101 78 113 230 184 108 49 83 167 95 65 60 65 137 110 63 122 156
internal_count=1305 529 776 373 403 120 409 196 189 213 193 290 101 78 113 230 184 108 49 83 167 95 65 60 65 137 110 63 122 156
is_linear=0
shrinkage=0.01


Tree=19
num_leaves=31
num_cat=0
split_feature=20 20 3 20 20 20 20 2 2 20 3 5 3 1 3 2 20 12 1 20 12 2 12 10 1 2 2 21 10 20
split_gain=2.69643e+06 615050 474211 185137 163092 133388 132208 93371.1 73514.6 72436.2 69544.5 64343.5 61513.2 60777.8 50334.9 46783.1 42310.8 34389.7 33080.4 30682.2 30574.9 29870.3 29288.9 27129.4 24519.5 23092.9 20188.6 20014.6 19862 19841.7
threshold=210.16666666666669 121.83333333333336 38.500000000000007 263.50000000000006 270.50000000000006 35.666666666666664 180.83333333333334 16.500000000000004 23.500000000000004 332.33333333333343 32.500000000000007 0.60361093038386471 33.500000000000007 22.833333333333339 31.500000000000004 17.833333333333339 84.166666666666671 0.13182720953326713 38.833333333333336 311.16666666666669 0.14729990356798453 13.500000000000002 0.10471491228070172 0.077677224736048267 34.833333333333336 19.166666666666668 24.500000000000004 1.8333333333333337 0.091750841750841708 239.16666666666669
decision_type=2 2 2 2 2 2 2 2 2 2 2 2 2 2 2 2 2 2 2 2 2 2 2 2 2 2 2 2 2 2
left_child=1 5 4 15 11 -1 7 12 10 18 17 14 21 16 29 -4 -7 -8 -5 -6 23 -3 -13 -9 -16 -12 28 -20 -17 -2
right_child=2 6 3 9 19 13 8 20 -10 -11 25 22 -14 -15 24 26 -18 -19 27 -21 -22 -23 -24 -25 -26 -27 -28 -29 -30 -31
leaf_value=-1.6341543615432013 -0.18138773778453471 -0.26246484861924102 0.78859083788735529 0.92086212702358472 0.38358377195494153 -0.98608534056207409 -0.19469966654594129 -0.4213553790535246 -0.77025174832344057 1.3957004076784307 0.14542681188514348 0.032971797883510588 -0.0097405945758024855 -1.25270566926283 0.39468877860144075 0.48996896461508743 -0.36524739935284573 -0.61549489798084378 0.47954941675066948 0.81532757234573372 -1.0421490542093914 -0.70004522476440822 -0.43571434110403062 -0.83392470281671838 0.10726580253789124 -0.15280696915107825 0.15722617296945482 0.80002806713706565 0.19517927039654986 0.09446970149874688
leaf_weight=42 64 26 28 85 93 23 52 28 20 22 68 20 36 34 51 87 21 31 40 20 30 39 40 37 71 42 42 38 31 44
leaf_count=42 64 26 28 85 93 23 52 28 20 22 68 20 36 34 51 87 21 31 40 20 30 39 40 37 71 42 42 38 31 44
internal_value=0.000243508 -0.550301 0.375551 0.632503 0.137726 -1.17981 -0.365606 -0.553031 -0.193139 0.85709 -0.133335 0.0121507 -0.341352 -0.935156 0.0882298 0.411499 -0.689776 -0.351864 0.784395 0.459999 -0.77808 -0.525013 -0.279486 -0.656203 0.227418 0.0315557 0.345508 0.63568 0.412524 -0.0690014
internal_weight=1305 529 776 373 403 120 409 196 213 185 193 290 101 78 230 188 44 83 163 113 95 65 60 65 122 110 160 78 118 108
internal_count=1305 529 776 373 403 120 409 196 213 185 193 290 101 78 230 188 44 83 163 113 95 65 60 65 122 110 160 78 118 108
is_linear=0
shrinkage=0.01


Tree=20
num_leaves=31
num_cat=0
split_feature=20 20 20 3 3 2 20 20 20 10 2 2 10 1 11 8 10 1 1 20 2 20 1 2 20 19 8 20 10 18
split_gain=2.48068e+06 719761 339200 279588 138930 116423 96862 80009.5 69402.4 57516.2 53019.7 50068.7 49672.2 47388.1 39265.9 39076.1 39590.6 38972 33690 33552.2 31097.2 30993.5 30650.3 30554.4 26500.8 26302.2 24423.4 23913.2 22219.2 19526.8
threshold=186.83333333333334 236 105.33333333333336 41.500000000000007 38.500000000000007 16.833333333333339 302.83333333333343 292.50000000000006 35.666666666666664 0.069366479550922219 19.833333333333339 27.500000000000004 0.13840996168582378 21.500000000000004 0.11342195540308746 8.1933056564608222 0.082482993197278864 18.166666666666668 40.166666666666679 151.66666666666671 14.833333333333334 178.50000000000003 42.166666666666679 22.500000000000004 212.83333333333334 19.023333333333337 9.192105263157897 261.83333333333343 0.075235849056603757 210.50000000000003
decision_type=2 2 2 2 2 2 2 2 2 2 2 2 2 2 2 2 2 2 2 2 2 2 2 2 2 2 2 2 2 2
left_child=2 4 8 7 10 13 14 11 -1 -6 12 15 29 -4 25 16 -3 -10 -8 -15 -21 28 24 -11 -12 -5 -9 -17 -7 -2
right_child=1 3 5 6 9 21 18 26 17 23 22 -13 -14 19 -16 27 -18 -19 -20 20 -22 -23 -24 -25 -26 -27 -28 -29 -30 -31
leaf_value=-1.5967041738409744 0.12011883481804814 0.29068197830037756 0.0017205728689829508 0.70927094750934172 0.44233342530363701 -0.7207293364876195 1.4182624494112455 0.49811530192693076 -0.80003639671206472 0.16374390178001844 -0.44267311568162881 -0.14075890741280969 -0.49091408252716068 -0.70074615146432606 0.54564205761049311 0.31884216338396071 -0.08049102033887591 -1.3541590336236087 0.89285310579382848 -0.021592045219048211 -0.48305485558509831 -0.52603039049543443 -0.67773194241523738 -0.31700217336416248 -0.15004397779703141 1.154591250646682 0.90719450449943539 0.63643072847780346 -1.0563847887225268 -0.22755946147441866
leaf_weight=38 84 91 30 36 59 38 26 54 30 39 49 31 20 35 102 66 42 22 23 23 40 32 20 20 84 21 20 37 41 20
leaf_count=38 84 91 30 36 59 38 26 54 30 39 49 31 20 35 102 66 42 22 23 23 40 32 20 20 84 21 20 37 41 20
internal_value=-0.000856743 0.259748 -0.748611 0.493967 -0.0657852 -0.551572 0.782914 0.317717 -1.27186 0.221556 -0.188191 0.237077 -0.034512 -0.346041 0.663117 0.286707 0.173469 -1.03447 1.17164 -0.452499 -0.314584 -0.788581 -0.312741 0.000779131 -0.257855 0.873336 0.608677 0.432927 -0.89493 0.0532576
internal_weight=1273 944 329 549 395 239 208 341 90 118 277 267 124 128 159 236 133 52 49 98 63 111 153 59 133 57 74 103 79 104
internal_count=1273 944 329 549 395 239 208 341 90 118 277 267 124 128 159 236 133 52 49 98 63 111 153 59 133 57 74 103 79 104
is_linear=0
shrinkage=0.01


Tree=21
num_leaves=31
num_cat=0
split_feature=20 20 20 3 3 2 20 9 20 20 9 10 9 12 1 12 1 3 3 1 20 8 8 2 20 2 10 12 1 10
split_gain=2.43131e+06 705438 332450 274024 136165 114106 94934.4 82349.9 68021.3 65749.9 60866.4 56371.6 52280.1 52142.3 46445.1 38827.8 38196.4 36866.3 33290 33019.5 32884.5 32770.2 31833 30478.3 30376.8 29946.4 25922 24815.8 25416 21777
threshold=186.83333333333334 236 105.33333333333336 41.500000000000007 38.500000000000007 16.833333333333339 302.83333333333343 7.0662393162393169 35.666666666666664 277.83333333333343 5.4835978835978851 0.069366479550922219 5.3801313628899843 0.036038961038961002 21.500000000000004 0.14670014347202293 18.166666666666668 27.500000000000004 29.500000000000004 40.166666666666679 151.66666666666671 6.5893997445721597 8.1779788838612379 14.833333333333334 178.50000000000003 22.500000000000004 0.032795698924731158 0.093386627906976716 38.500000000000007 0.075235849056603757
decision_type=2 2 2 2 2 2 2 2 2 2 2 2 2 2 2 2 2 2 2 2 2 2 2 2 2 2 2 2 2 2
left_child=2 4 8 7 10 14 12 9 -1 15 13 -6 -5 -2 -4 18 -10 -12 -3 -8 -16 -9 -17 -22 29 -13 -15 -11 -29 -7
right_child=1 3 5 6 11 24 19 21 16 27 17 25 -14 26 20 22 -18 -19 -20 -21 23 -23 -24 -25 -26 -27 -28 28 -30 -31
leaf_value=-1.5807371300145201 0.15994854187423532 -0.10484479305920777 0.0017033671140670775 0.52461970822169224 0.43791008807845033 -0.71352204046751322 1.4040798260615424 0.33016421806812291 -0.79203604801495875 0.64006537004958763 -0.33621306087659752 0.16210646454340374 0.9058337046016347 -0.071455197105040918 -0.69373868348343037 -0.41918003833293915 -1.340617434599183 0.12143646408716836 0.28263828409507108 0.88392457630323318 -0.021376128404036812 0.83025234843555251 0.13827052299110662 -0.47822430962324142 -0.52077008819207549 -0.31383215045928958 -0.41712506594776194 0.55944681991230361 0.097623032388778841 -1.0458209209907348
leaf_weight=38 22 27 30 104 59 38 26 20 30 43 23 39 55 26 35 20 22 75 124 23 23 38 21 40 32 20 131 22 26 41
leaf_count=38 22 27 30 104 59 38 26 20 30 43 23 39 55 26 35 20 22 75 124 23 23 38 21 40 32 20 131 22 26 41
internal_value=-0.000848175 0.257151 -0.741125 0.489027 -0.0651274 -0.546057 0.775085 0.31454 -1.25914 0.244188 -0.186309 0.219341 0.656486 -0.295991 -0.342581 0.139252 -1.02413 0.0140289 0.213353 1.15993 -0.447974 0.657808 -0.133657 -0.311438 -0.780695 0.000771341 -0.35988 0.465592 0.309292 -0.885981
internal_weight=1273 944 329 549 395 239 208 341 90 283 277 118 159 179 128 192 52 98 151 49 98 58 41 63 111 59 157 91 48 79
internal_count=1273 944 329 549 395 239 208 341 90 283 277 118 159 179 128 192 52 98 151 49 98 58 41 63 111 59 157 91 48 79
is_linear=0
shrinkage=0.01


Tree=22
num_leaves=31
num_cat=0
split_feature=20 20 20 3 3 2 20 9 20 20 9 10 9 12 6 12 3 3 8 8 2 20 20 2 2 10 12 10 2 2
split_gain=2.38293e+06 691400 325834 268571 133456 111835 93045.2 80711.1 66667.7 64441.5 59655.2 55249.8 51239.7 51104.7 38387.1 38055.2 36132.6 32627.5 32118 31199.6 30157.7 39573.4 29772.3 29350.5 26776 25406.1 24322 21343.6 20483.7 18930.8
threshold=186.83333333333334 236 105.33333333333336 41.500000000000007 38.500000000000007 16.833333333333339 302.83333333333343 7.0662393162393169 35.666666666666664 277.83333333333343 5.4835978835978851 0.069366479550922219 5.3801313628899843 0.036038961038961002 0.23764705882352941 0.14670014347202293 27.500000000000004 29.500000000000004 6.5893997445721597 8.1779788838612379 14.833333333333334 151.66666666666671 178.50000000000003 22.500000000000004 10.500000000000002 0.032795698924731158 0.093386627906976716 0.075235849056603757 26.166666666666668 26.833333333333339
decision_type=2 2 2 2 2 2 2 2 2 2 2 2 2 2 2 2 2 2 2 2 2 2 2 2 2 2 2 2 2 2
left_child=2 4 8 7 10 14 12 9 -1 15 13 -6 28 -2 -4 17 -12 -3 -9 -17 21 -16 27 -13 -10 -15 -11 -7 -5 -8
right_child=1 3 5 6 11 22 29 18 24 26 16 23 -14 25 20 19 -18 -19 -20 -21 -22 -23 -24 -25 -26 -27 -28 -29 -30 -31
leaf_value=-1.5649297754388107 0.15834905494343152 -0.10379634426699745 -0.71928254019130367 0.59415747822066889 0.43353098954184582 -0.70638682089353866 1.3185483809879848 0.32686257052421569 -0.81180111930288124 0.6336647196703179 -0.33285093307495117 0.16048539965580669 0.89677536305514249 -0.070740644427446223 -0.36802461747465465 -0.41498823440074922 0.1202220982948939 0.27981190175779402 0.82194983287861478 0.13688781654550916 -0.44567367547502124 0.1543928704590633 -0.51556238982826474 -0.3106938315033913 -1.2686906836781164 -0.41295381472822817 0.30619934702602525 -1.0353627201405968 0.25600387822026793 0.92136297407604406
leaf_weight=38 22 27 22 81 59 38 28 20 29 43 23 39 55 26 29 20 75 124 38 21 48 29 32 20 23 131 48 41 23 21
leaf_count=38 22 27 22 81 59 38 28 20 29 43 23 39 55 26 29 20 75 124 38 21 48 29 32 20 23 131 48 41 23 21
internal_value=-0.000839695 0.254579 -0.733714 0.484137 -0.0644761 -0.540596 0.767334 0.311395 -1.24655 0.241746 -0.184446 0.217147 0.649921 -0.293031 -0.339155 0.13786 0.0138886 0.21122 0.65123 -0.13232 -0.260261 -0.106816 -0.772888 0.000763626 -1.01389 -0.356282 0.460936 -0.877121 0.519374 1.14833
internal_weight=1273 944 329 549 395 239 208 341 90 283 277 118 159 179 128 192 98 151 58 41 106 58 111 59 52 157 91 79 104 49
internal_count=1273 944 329 549 395 239 208 341 90 283 277 118 159 179 128 192 98 151 58 41 106 58 111 59 52 157 91 79 104 49
is_linear=0
shrinkage=0.01


Tree=23
num_leaves=31
num_cat=0
split_feature=20 20 20 3 3 2 20 20 20 10 12 2 1 10 11 8 10 1 1 20 2 20 2 2 19 8 20 3 10 12
split_gain=2.33551e+06 677641 319350 263227 130800 109610 91193.6 76072.8 65341 54150.4 53125.7 48422.9 45088.1 40680 38334.1 37605.7 38182.8 36829.9 32030.2 31981.9 29405.1 29179.8 28766.4 28643.9 25598.9 23847.4 23245.9 23154.2 20918.9 19147.6
threshold=186.83333333333334 236 105.33333333333336 41.500000000000007 38.500000000000007 16.833333333333339 302.83333333333343 292.50000000000006 35.666666666666664 0.069366479550922219 0.036038961038961002 27.500000000000004 21.500000000000004 0.034785238959467606 0.11342195540308746 8.1933056564608222 0.082482993197278864 18.166666666666668 40.166666666666679 151.66666666666671 14.833333333333334 178.50000000000003 22.500000000000004 16.166666666666668 19.023333333333337 9.192105263157897 261.83333333333343 26.500000000000004 0.075235849056603757 0.089087301587301507
decision_type=2 2 2 2 2 2 2 2 2 2 2 2 2 2 2 2 2 2 2 2 2 2 2 2 2 2 2 2 2 2
left_child=2 4 8 7 10 12 14 11 -1 -6 -2 15 -4 -12 24 16 -3 -10 -8 -14 -21 28 -11 -15 -5 29 -17 -25 -7 -9
right_child=1 3 5 6 9 21 18 25 17 22 13 -13 19 23 -16 26 -18 -19 -20 20 -22 -23 -24 27 -26 -27 -28 -29 -30 -31
leaf_value=-1.549280467786287 0.17571773260831833 0.2824798846244812 0.0034540245930353803 0.68927461663881939 0.42919567754713156 -0.69932295874545447 1.3773118312542254 0.63295678687818124 -0.77584538090229038 0.15888054410616556 0.017803912782669067 -0.14192459615488207 -0.68197377906526835 0.028371155832124795 0.52734905482507222 0.30941782271320167 -0.08203421195348104 -1.3145243487574836 0.865008258404939 -0.020047287779009861 -0.46878012156486515 -0.51040676128119233 -0.30758689117431642 -0.64267959511798367 1.1286012059166317 0.8869681985378266 0.62254379140364158 -0.30115494358128514 -1.0250090992159959 0.24669002351306735
leaf_weight=38 36 91 30 36 59 38 26 33 30 39 50 31 35 23 102 66 42 22 23 23 40 32 20 23 21 20 37 145 41 21
leaf_count=38 36 91 30 36 59 38 26 33 30 39 50 31 35 23 102 66 42 22 23 23 40 32 20 23 21 20 37 145 41 21
internal_value=-0.000831297 0.252034 -0.726377 0.479295 -0.0638313 -0.53519 0.759661 0.308281 -1.23408 0.214976 -0.182601 0.229649 -0.335764 -0.236126 0.643422 0.278457 0.16737 -1.00375 1.13684 -0.439606 -0.304957 -0.765159 0.00075599 -0.3026 0.851132 0.591992 0.4219 -0.347911 -0.86835 0.482742
internal_weight=1273 944 329 549 395 239 208 341 90 118 277 267 128 241 159 236 133 52 49 98 63 111 59 191 57 74 103 168 79 54
internal_count=1273 944 329 549 395 239 208 341 90 118 277 267 128 241 159 236 133 52 49 98 63 111 59 191 57 74 103 168 79 54
is_linear=0
shrinkage=0.01


Tree=24
num_leaves=31
num_cat=0
split_feature=19 3 19 19 3 9 3 10 19 18 3 2 19 9 3 13 9 1 19 18 13 21 9 0 19 11 8 9 10 11
split_gain=1.4607e+06 694484 250298 187531 175012 167807 113804 113595 72657.4 70579.9 72239.6 73078.4 58485.6 57768.3 51557.1 50504.4 46675.8 42248.2 39891.8 37786.1 37257.5 34506.1 33041.9 32093.2 29062.6 28554.4 26917.4 25736.4 25269.9 25077
threshold=10.320000000000002 37.500000000000007 3.6400000000000001 17.076666666666672 26.500000000000004 4.9039938556067595 42.500000000000007 0.10471491228070172 19.023333333333337 135.50000000000003 33.500000000000007 15.16666666666667 8.7666666666666693 4.3266666666666671 21.500000000000004 0.83156028368794332 4.4387500000000015 28.833333333333339 14.000000000000005 139.50000000000003 0.93582704186684984 2.166666666666667 4.0816666666666679 12.500000000000002 15.619999999999999 0.088562091503267909 7.1204994192799083 6.3169856459330154 0.048980407836865213 0.12034482758620692
decision_type=2 2 2 2 2 2 2 2 2 2 2 2 2 2 2 2 2 2 2 2 2 2 2 2 2 2 2 2 2 2
left_child=2 4 -1 7 14 15 16 19 20 12 -11 -12 22 -8 -2 -6 -5 -17 -9 -3 27 -15 -4 -13 -16 -19 -18 29 -21 -7
right_child=1 3 9 6 5 8 13 18 -10 10 11 23 -14 21 24 17 26 25 -20 28 -22 -23 -24 -25 -26 -27 -28 -29 -30 -31
leaf_value=-1.3022049635648727 -0.84845931728680923 0.49945783581650049 -0.58804852591620549 0.080772782138415752 -0.54620465404847085 0.085842553156117593 0.48793780735560827 -0.36017032533884047 0.4924532479432322 -0.62738851988569222 0.39019156990200282 -0.09743808050155639 -0.40014731963475547 0.83680879859363333 -0.49747872213038002 -0.51079430205126608 0.33549781887762009 0.24236321695722066 0.19299192921681838 0.39945845535823277 0.31960434681521011 1.231949336712177 -1.0343879923016526 -0.63487490952014924 -0.10515185717173985 -0.12458993809637817 0.72205823845641559 0.15780838284576149 0.024629370022464441 -0.30091622691405451
leaf_weight=48 24 114 27 28 34 30 28 32 62 47 20 25 45 51 41 24 31 26 22 35 52 39 43 20 35 115 43 57 37 38
leaf_count=48 24 114 27 28 34 30 28 32 62 47 20 25 45 51 41 24 31 26 22 35 52 39 43 20 35 115 43 57 37 38
internal_value=-0.000822984 0.176992 -0.646129 0.462276 -0.0669318 0.019248 0.673164 0.268962 0.197854 -0.507399 -0.328722 -0.112763 -0.681414 0.884623 -0.4444 -0.195258 0.428535 -0.122942 -0.134808 0.386186 0.0946608 1.00804 -0.862228 -0.336299 -0.316802 -0.0569248 0.560121 0.0010843 0.206838 -0.130287
internal_weight=1273 998 275 460 538 438 220 240 239 227 112 65 115 118 100 199 102 165 54 186 177 90 70 45 76 141 74 125 72 68
internal_count=1273 998 275 460 538 438 220 240 239 227 112 65 115 118 100 199 102 165 54 186 177 90 70 45 76 141 74 125 72 68
is_linear=0
shrinkage=0.01


Tree=25
num_leaves=31
num_cat=0
split_feature=20 20 4 20 20 2 20 20 1 20 4 9 9 4 4 5 9 2 2 11 5 11 11 20 20 1 8 9 10 11
split_gain=2.35507e+06 592922 399306 173091 140433 122097 133766 119402 83048.5 73978.5 67041.7 57573.8 55672 53253.7 49598.4 49835.9 44265.6 38278.5 37822.8 34119.3 28717.7 42148.3 28109.3 27450.6 26526.9 25860.4 24984.7 27015.6 24573.5 23942.7
threshold=210.16666666666669 121.83333333333336 38.500000000000007 262.83333333333343 270.50000000000006 16.833333333333339 182.5 45.666666666666679 21.500000000000004 331.16666666666669 32.500000000000007 6.8038461538461545 7.5962962962962974 32.500000000000007 30.500000000000004 0.60361093038386471 4.5571895424836608 20.166666666666668 24.500000000000004 0.14670014347202293 0.60361093038386471 0.17902930402930403 0.13597842835130966 84.166666666666671 164.83333333333334 38.833333333333336 6.4558441558441571 5.4309523809523821 0.045983086680761058 0.15301003344481603
decision_type=2 2 2 2 2 2 2 2 2 2 2 2 2 2 2 2 2 2 2 2 2 2 2 2 2 2 2 2 2 2
left_child=1 7 4 18 12 13 20 -1 23 16 -8 29 14 26 -2 -16 25 -12 22 -17 21 -7 -4 -9 -15 -5 -3 -28 -18 -6
right_child=2 5 3 9 11 6 10 8 -10 -11 17 -13 -14 24 15 19 28 -19 -20 -21 -22 -23 -24 -25 -26 -27 27 -29 -30 -31
leaf_value=-1.513511503537496 -0.23518616790218011 -0.56840678264697397 0.5745432531189274 0.74715188429905821 0.39884651179390923 -0.42462631297833997 -0.54230552232387708 -0.85603205051111131 -1.3025016287394935 1.3598195333480834 0.077856320535882984 0.77002981627688682 0.4200588008562724 -0.16531914580252863 0.15943180811224561 0.098621189057826991 1.017553734196557 -0.34024172299155375 0.084879192985021154 -0.44216635738100324 -1.0446679680922935 -0.96897492675781249 0.30649087208222198 -0.36746198304321454 0.20845485290702509 0.33562273953412031 -0.35721161120816286 0.066056427145004273 0.71718475742616516 0.02948816281098586
leaf_weight=48 84 24 74 26 54 33 64 23 28 20 47 34 30 31 132 20 45 41 39 28 29 25 83 23 49 37 38 25 69 26
leaf_count=48 84 24 74 26 54 33 64 23 28 20 47 34 30 31 132 20 45 41 39 28 29 25 83 23 49 37 38 25 69 26
internal_value=0.00472912 -0.513759 0.346504 0.573998 0.127373 -0.330063 -0.475024 -1.12507 -0.873114 0.78333 -0.296041 0.425311 0.0118466 -0.122605 -0.0345412 0.0590931 0.71819 -0.116939 0.363598 -0.216838 -0.787729 -0.659259 0.432834 -0.611747 0.0636174 0.50546 -0.293844 -0.189248 0.835751 0.278805
internal_weight=1329 528 801 393 408 406 239 122 74 197 152 114 294 167 264 180 177 88 196 48 87 58 157 46 80 63 87 63 114 80
internal_count=1329 528 801 393 408 406 239 122 74 197 152 114 294 167 264 180 177 88 196 48 87 58 157 46 80 63 87 63 114 80
is_linear=0
shrinkage=0.01


Tree=26
num_leaves=31
num_cat=0
split_feature=20 20 3 20 20 2 20 20 2 20 3 9 9 20 3 9 11 10 2 2 3 12 11 3 20 2 10 12 9 12
split_gain=2.3082e+06 581123 391360 169646 137638 119668 131104 117026 79485.7 72506.3 65707.6 56428 54564.1 52241.3 48611.4 43384.7 42325.9 38596.6 37516.8 37070.2 33724.1 28489.3 27549.9 26937.1 26038.4 25131.1 24084.5 24006.6 22082.5 21181
threshold=210.16666666666669 121.83333333333336 38.500000000000007 262.83333333333343 270.50000000000006 16.833333333333339 182.5 45.666666666666679 13.16666666666667 331.16666666666669 32.500000000000007 6.8038461538461545 7.5962962962962974 170.00000000000003 30.500000000000004 4.5571895424836608 0.14174107142857142 0.10676291793313065 20.166666666666668 24.500000000000004 36.500000000000007 0.043015726179463455 0.13597842835130966 32.500000000000007 84.166666666666671 24.500000000000004 0.045983086680761058 0.13574938574938572 4.2886904761904772 0.088562091503267909
decision_type=2 2 2 2 2 2 2 2 2 2 2 2 2 2 2 2 2 2 2 2 2 2 2 2 2 2 2 2 2 2
left_child=1 7 4 19 12 13 -7 -1 24 15 -8 27 14 17 21 25 -16 23 -12 22 -15 -2 28 -3 -9 -5 -17 -6 -4 -28
right_child=2 5 3 9 11 6 10 8 -10 -11 18 -13 -14 20 16 26 -18 -19 -20 -21 -22 -23 -24 -25 -26 -27 29 -29 -30 -31
leaf_value=-1.4983763790130615 0.086144344239007853 -0.36282831674112992 0.36534604299452994 0.70332775054439423 0.3760308196345965 -0.77985158901104978 -0.53688246795907613 -0.8655213551044465 -1.3374334708849589 1.3462213506698608 0.077077762129458979 0.76232952770064855 0.41585821326573685 -0.071346840794597355 0.20681719808168311 1.007378189696206 -0.10004141272484571 -0.65302505766803565 -0.33683930422474695 0.084030397221063965 0.37669192512830102 -0.33916052321711226 0.30342596163053109 0.044751016093838601 -0.40911469354629521 0.30382469594478606 0.98425344562530515 -0.024024460196495054 0.71547236575636763 0.59807799159264075
leaf_weight=48 21 34 31 31 60 87 64 25 24 20 47 34 30 56 93 45 87 22 41 39 24 63 83 31 25 32 20 20 43 49
leaf_count=48 21 34 31 31 60 87 64 25 24 20 47 34 30 56 93 45 87 22 41 39 24 63 83 31 25 32 20 20 43 49
internal_value=0.00468183 -0.508621 0.343039 0.568258 0.1261 -0.326762 -0.470273 -1.11382 -0.864382 0.775497 -0.29308 0.421058 0.0117281 -0.121379 -0.0341958 0.711008 0.0585022 -0.290982 -0.11577 0.359962 0.0630648 -0.232834 0.428506 -0.168444 -0.637318 0.500406 0.827394 0.276017 0.568798 0.710013
internal_weight=1329 528 801 393 408 406 239 122 74 197 152 114 294 167 264 177 180 87 88 196 80 84 157 65 50 63 114 80 74 69
internal_count=1329 528 801 393 408 406 239 122 74 197 152 114 294 167 264 177 180 87 88 196 80 84 157 65 50 63 114 80 74 69
is_linear=0
shrinkage=0.01


Tree=27
num_leaves=31
num_cat=0
split_feature=20 20 3 20 9 2 20 20 20 2 20 3 3 5 3 9 2 2 12 5 11 8 12 11 19 20 2 6 10 12
split_gain=2.26227e+06 569558 383572 166270 135136 117286 128495 114697 101578 77903.9 71063.5 64400 59289.2 57885.8 51228.8 42521.4 36770.2 36332.5 28730.2 28146.2 41309.6 28008.4 27242.1 27001.6 26706.7 25627.1 24631 23698.9 23605.2 23108.4
threshold=210.16666666666669 121.83333333333336 38.500000000000007 262.83333333333343 8.2312834224598941 16.833333333333339 182.5 45.666666666666679 276.50000000000006 13.16666666666667 331.16666666666669 32.500000000000007 30.500000000000004 0.62328251458686246 32.500000000000007 4.5571895424836608 20.166666666666668 24.500000000000004 0.075235849056603757 0.60361093038386471 0.17902930402930403 9.5441558441558456 0.043015726179463455 0.13597842835130966 3.8433333333333333 164.83333333333334 24.500000000000004 0.38675213675213677 0.045983086680761058 0.11396103896103892
decision_type=2 2 2 2 2 2 2 2 2 2 2 2 2 2 2 2 2 2 2 2 2 2 2 2 2 2 2 2 2 2
left_child=1 7 4 17 8 14 19 -1 12 24 15 -8 22 21 18 26 -13 23 -3 20 -7 -14 -2 -4 -9 -16 -5 -10 -17 -15
right_child=2 5 3 10 -6 6 11 9 27 -11 -12 16 13 29 25 28 -18 -19 -20 -21 -22 -23 -24 -25 -26 -27 -28 -29 -30 -31
leaf_value=-1.4833926288286845 0.085282903058188295 -0.031121647686793884 0.56310984519687857 0.69629447752429596 0.74867913022637367 -0.41258152217576 -0.53151364449411631 -0.90253532727559405 0.099412080787477028 -1.3240591323375701 1.3327591390609741 0.076306981672631932 0.11695817924879648 -0.0029274325143723262 -0.1625378405663275 0.9973044149080913 -0.33347091032237541 0.083190091091852922 -0.41661398881468281 -1.0264227669814536 -0.95148666534423831 0.51649304106831551 -0.3267683294305907 0.30039170418877198 -0.43427585959434511 0.20484214976125834 0.30078644901514057 0.49058879006717165 0.70291277477706682 -0.46174279358076015
leaf_weight=48 21 29 74 31 32 33 64 21 21 24 20 47 143 21 31 45 41 39 58 29 25 20 68 83 29 49 32 59 69 23
leaf_count=48 21 29 74 31 32 33 64 21 21 24 20 47 143 21 31 45 41 39 58 29 25 20 68 83 29 49 32 59 69 23
internal_value=0.00463501 -0.503535 0.339608 0.562576 0.124839 -0.323495 -0.465571 -1.10268 0.0717458 -0.855739 0.767742 -0.29015 -0.0137027 0.0790982 -0.120165 0.703898 -0.114612 0.356363 -0.288117 -0.772053 -0.644868 0.165981 -0.229543 0.424221 -0.630945 0.0624824 0.495402 0.387905 0.81912 -0.242763
internal_weight=1329 528 801 393 408 406 239 122 376 74 197 152 296 207 167 177 88 196 87 87 58 163 89 157 50 80 63 80 114 44
internal_count=1329 528 801 393 408 406 239 122 376 74 197 152 296 207 167 177 88 196 87 87 58 163 89 157 50 80 63 80 114 44
is_linear=0
shrinkage=0.01


Tree=28
num_leaves=31
num_cat=0
split_feature=20 20 3 20 20 2 20 20 1 20 3 9 9 20 3 5 9 10 2 2 3 5 12 20 3 1 3 2 12 2
split_gain=2.21725e+06 558224 375939 162962 132727 114952 125938 112415 78739.2 69649.3 63118.4 54774.1 52343.4 50620.3 46638.6 47800.5 41675.2 37745.8 36038.5 35609.4 32584.1 27586.1 27378.5 26351.5 26094.5 24689 23955.7 23543 23367.3 19718
threshold=210.16666666666669 121.83333333333336 38.500000000000007 262.83333333333343 270.50000000000006 16.833333333333339 182.5 45.666666666666679 21.500000000000004 331.16666666666669 32.500000000000007 6.8038461538461545 7.5962962962962974 170.00000000000003 30.500000000000004 0.60361093038386471 4.5571895424836608 0.10676291793313065 20.166666666666668 24.500000000000004 36.500000000000007 0.60361093038386471 0.043015726179463455 84.166666666666671 32.500000000000007 38.833333333333336 27.500000000000004 21.166666666666668 0.13574938574938572 18.166666666666668
decision_type=2 2 2 2 2 2 2 2 2 2 2 2 2 2 2 2 2 2 2 2 2 2 2 2 2 2 2 2 2 2
left_child=1 7 4 19 12 13 21 -1 23 16 -8 28 14 17 22 -16 25 24 -12 29 -15 26 -2 -9 -3 -5 -7 -18 -6 -4
right_child=2 5 3 9 11 6 10 8 -10 -11 18 -13 -14 20 15 -17 27 -19 -20 -21 -22 -23 -24 -25 -26 -27 -28 -29 -30 -31
leaf_value=-1.4685586969057718 0.084430075372968399 -0.35605431283221528 0.63313291339751554 0.72660145649543184 0.36901259211699172 -0.84165062279536818 -0.52619850547984248 -0.83203067074651305 -1.2652805886949812 1.3194315509796144 0.075543914297793779 0.74947220707640927 0.40709821081161501 -0.069524039498397278 0.1553637598048557 -0.21314253305395445 1.1133487660544259 -0.64394524085250771 -0.33013620170151314 0.082358199545206165 0.37087659080823265 -1.0161585301366345 -0.33250123306872353 -0.3533414291817209 0.045099316873858049 0.32450145914747908 -0.43518846968124658 0.74264042481299375 -0.025679395675659179 0.36105767846592074
leaf_weight=48 21 34 34 26 60 29 64 23 28 20 47 34 30 56 132 48 21 22 41 39 24 29 63 23 31 37 29 93 20 123
leaf_count=48 21 34 34 26 60 29 64 23 28 20 47 34 30 56 132 48 21 22 41 39 24 29 63 23 31 37 29 93 20 123
internal_value=0.00458866 -0.4985 0.336212 0.55695 0.12359 -0.32026 -0.460915 -1.09166 -0.847181 0.760064 -0.287248 0.413239 0.0112775 -0.118963 -0.0337022 0.0570954 0.696859 -0.285915 -0.113466 0.352799 0.0625961 -0.764333 -0.228268 -0.592686 -0.164735 0.490447 -0.63842 0.810929 0.27034 0.419978
internal_weight=1329 528 801 393 408 406 239 122 74 197 152 114 294 167 264 180 177 87 88 196 80 87 84 46 65 63 58 114 80 157
internal_count=1329 528 801 393 408 406 239 122 74 197 152 114 294 167 264 180 177 87 88 196 80 87 84 46 65 63 58 114 80 157
is_linear=0
shrinkage=0.01


Tree=29
num_leaves=31
num_cat=0
split_feature=19 3 19 3 19 21 3 9 10 3 9 9 19 14 18 2 18 10 9 5 18 10 12 15 10 1 9 16 12 12
split_gain=1.47115e+06 661465 265546 157801 122006 121363 90006.1 89826.5 76704.7 69355.9 65390.9 54079.7 51104.9 42073 41455.7 40889.5 70543.5 40675.7 38249.3 37131.2 33054.7 33779.2 30888.6 26905.9 26610.6 24211.7 23771.3 22210.8 21445.5 21238.9
threshold=10.320000000000002 37.500000000000007 3.6400000000000001 28.500000000000004 17.076666666666672 2.166666666666667 42.500000000000007 4.8221343873517801 0.10582306830907051 21.500000000000004 4.9629120879120885 7.4599358974358987 6.7400000000000011 2.2500000000000004 124.50000000000001 16.166666666666668 129.50000000000003 0.050423728813559311 4.4387500000000015 0.66141439205955344 139.50000000000003 0.048980407836865213 0.089087301587301507 41.750000000000007 0.12861869313482219 31.166666666666668 5.1464285714285731 -109.49999999999999 0.13759296822177147 0.12861869313482219
decision_type=2 2 2 2 2 2 2 2 2 2 2 2 2 2 2 2 2 2 2 2 2 2 2 2 2 2 2 2 2 2
left_child=2 3 23 9 8 7 18 22 20 -2 -8 -11 14 -10 -4 16 -14 -17 -6 -12 -3 -22 -5 -1 25 -9 -7 -19 -27 -29
right_child=1 4 12 5 6 26 10 24 13 11 19 -13 15 -15 -16 17 -18 27 -20 -21 21 -23 -24 -25 -26 28 -28 29 -30 -31
leaf_value=-1.0034203323824653 -0.85302463488145308 0.48112257213324539 -0.99817767237794819 -0.029960867797627168 0.089362546364466361 0.24618417411237151 0.54810998979068948 -0.02036759982506434 -0.29673420690256974 -0.33670795710581652 0.70731320243860996 0.21875689046723501 -0.54025965835778944 0.25725030697309054 -0.42251666134054011 -0.22999767135929416 0.11480692510945456 -0.81990395518711634 0.5126662816459665 1.1752479482251545 0.48657965770134559 0.023580823495984077 -0.33862263764558215 -1.4305795211791992 -0.17018328979097563 0.32134083020758913 0.61246616211007621 -0.24112886330485345 -0.012754815721511841 -0.67833631649017334
leaf_weight=29 22 129 29 51 30 37 63 51 29 106 28 21 31 26 22 37 35 35 74 43 26 40 89 30 29 83 34 20 25 25
leaf_count=29 22 129 29 51 30 37 63 51 29 106 28 21 31 26 22 37 35 35 74 43 26 40 89 30 29 83 34 20 25 25
internal_value=0.00454277 0.18148 -0.62108 -0.0569673 0.449246 0.0467308 0.611301 -0.0344118 0.294969 -0.334656 0.782622 -0.244859 -0.469914 -0.0348506 -0.749853 -0.391898 -0.192876 -0.504167 0.390559 0.99071 0.387995 0.205974 -0.226182 -1.22062 0.108396 0.159205 0.421587 -0.63097 0.244004 -0.484022
internal_weight=1329 1036 293 548 488 399 238 328 250 149 134 127 234 55 51 183 66 117 104 71 195 66 140 59 188 159 71 80 108 45
internal_count=1329 1036 293 548 488 399 238 328 250 149 134 127 234 55 51 183 66 117 104 71 195 66 140 59 188 159 71 80 108 45
is_linear=0
shrinkage=0.01


Tree=30
num_leaves=31
num_cat=0
split_feature=19 3 19 5 19 9 3 21 10 3 12 12 10 9 19 15 9 2 12 12 1 19 21 5 11 9 8 8 3 12
split_gain=1.25205e+06 582692 311069 165821 153453 130766 95687.9 81321.8 69541.6 68507.4 56526.6 52536.9 50252.1 42784.4 40272 39553.9 37899.7 37105 36916.4 35939.7 33566.1 29630.4 27991.2 27438.3 27106.4 25143 22654.8 22333.5 20816.3 20525
threshold=10.520000000000001 37.500000000000007 4.4233333333333347 0.3917306052855925 17.076666666666672 4.8221343873517801 43.500000000000007 2.166666666666667 0.10582306830907051 31.500000000000004 0.12262799856784816 0.17712418300653593 0.10676291793313065 4.3879598662207373 6.5666666666666673 44.250000000000007 4.4387500000000015 18.500000000000004 0.079473684210526321 0.11814556331006977 35.166666666666679 18.79666666666667 2.166666666666667 0.63967213114754118 0.16542288557213927 5.9511904761904768 6.6264534883720936 6.9220647773279369 46.500000000000007 0.075235849056603757
decision_type=2 2 2 2 2 2 2 2 2 2 2 2 2 2 2 2 2 2 2 2 2 2 2 2 2 2 2 2 2 2
left_child=2 3 -1 -2 8 11 10 12 28 18 16 22 21 -8 -11 -10 -6 -14 -4 -16 24 25 27 -15 -21 -7 -19 -5 -3 -25
right_child=1 4 9 5 6 7 13 -9 15 14 -12 -13 17 23 19 -17 -18 26 -20 20 -22 -23 -24 29 -26 -27 -28 -29 -30 -31
leaf_value=-1.1389034436477556 -0.59948300590515136 0.28879650160457127 -0.26964923434853555 -0.39610671832011302 0.2086769613765535 -0.057759061329998078 0.49720404480184827 0.45697531166057737 -0.29227817743055284 -0.62385147633759874 0.097237833351702302 -0.61131718048682582 -0.52744687642369958 0.65984073141346811 0.042738271926840148 0.24846333091457684 0.70563328263529557 -0.26228397096906386 -0.72086932606769327 0.087149183262478225 -0.64698231152125774 0.46248813209533696 0.12338082262447903 1.3174822035289946 -0.40926014390858739 0.20967417781169598 0.18324847936630248 -0.11475116472417379 0.53561166906356816 0.92409714592827696
leaf_weight=72 50 142 25 39 21 64 28 63 31 23 37 26 21 23 48 24 57 21 66 22 21 25 35 21 22 78 25 102 45 36
leaf_count=72 50 142 25 39 21 64 28 63 31 23 37 26 21 23 48 24 57 21 66 22 21 25 35 21 22 78 25 102 45 36
internal_value=0.00248417 0.170169 -0.566187 -0.0504487 0.430641 0.00456477 0.619882 0.138069 0.256257 -0.384532 0.41914 -0.191726 0.0522097 0.833636 -0.242428 -0.0563182 0.571837 -0.179151 -0.596908 -0.164793 -0.318047 0.145031 -0.129741 0.951387 -0.161055 0.0891409 -0.0201468 -0.192573 0.348191 1.06903
internal_weight=1313 1014 299 549 465 499 223 297 242 227 115 202 234 108 136 55 78 67 91 113 65 167 176 80 44 142 46 141 187 57
internal_count=1313 1014 299 549 465 499 223 297 242 227 115 202 234 108 136 55 78 67 91 113 65 167 176 80 44 142 46 141 187 57
is_linear=0
shrinkage=0.01


Tree=31
num_leaves=31
num_cat=0
split_feature=19 3 19 5 19 9 3 21 10 3 12 12 10 9 19 9 2 12 12 1 19 21 5 11 6 11 9 8 8 12
split_gain=1.22713e+06 571096 304879 162522 150400 128164 93783.7 79703.5 68423.9 67144.1 55401.7 51491.4 49252.1 41933 39470.6 37145.5 36366.6 36181.8 35224.5 32898.1 29040.8 27434.2 26892.3 26567 25086.8 28390.9 24642.6 22204 21889.1 20116.5
threshold=10.520000000000001 37.500000000000007 4.4233333333333347 0.3917306052855925 17.076666666666672 4.8221343873517801 43.500000000000007 2.166666666666667 0.13921188630490958 31.500000000000004 0.12262799856784816 0.17712418300653593 0.10676291793313065 4.3879598662207373 6.5666666666666673 4.4387500000000015 18.500000000000004 0.079473684210526321 0.11814556331006977 35.166666666666679 18.79666666666667 2.166666666666667 0.63967213114754118 0.16542288557213927 0.6043478260869567 0.16843971631205673 5.9511904761904768 6.6264534883720936 6.9220647773279369 0.075235849056603757
decision_type=2 2 2 2 2 2 2 2 2 2 2 2 2 2 2 2 2 2 2 2 2 2 2 2 2 2 2 2 2 2
left_child=2 3 -1 -2 8 11 10 12 24 17 15 21 20 -8 -11 -6 -14 -4 -16 23 26 28 -15 -20 -3 -26 -7 -18 -5 -24
right_child=1 4 9 5 6 7 13 -9 -10 14 -12 -13 16 22 18 -17 27 -19 19 -21 -22 -23 29 -25 25 -27 -28 -29 -30 -31
leaf_value=-1.1275144147872924 -0.59348817396163944 0.42492325566031719 -0.26695274770259858 -0.39214565014227842 0.20659019078527177 -0.057181470408104361 0.49223200627735686 0.45240555190141235 -0.27804224014282225 -0.61761297371076507 0.096265452455829931 -0.6052040089093722 -0.52217241219111854 0.65324231935584021 0.042310888494054483 0.69857694529650505 -0.25966113090515136 -0.71366063376267752 0.086277693184939303 -0.64051247778392983 0.4578632507324219 0.12214701345988684 1.3043073872157507 -0.40516752784902405 0.3099640567478012 -0.02509539087613424 0.20757743535897671 0.18141599416732787 -0.11360365207654004 0.91485618061489538
leaf_weight=72 50 99 25 39 21 64 28 63 22 23 37 26 21 23 48 57 21 66 22 21 25 35 21 22 85 36 78 25 102 36
leaf_count=72 50 99 25 39 21 64 28 63 22 23 37 26 21 23 48 57 21 66 22 21 25 35 21 22 85 36 78 25 102 36
internal_value=0.00245932 0.168468 -0.560525 -0.0499442 0.426334 0.00451912 0.613684 0.136688 0.253694 -0.380687 0.414949 -0.189809 0.0516876 0.8253 -0.240004 0.566119 -0.17736 -0.590939 -0.163145 -0.314867 0.143581 -0.128444 0.941873 -0.159445 0.306868 0.210277 0.0882495 -0.0199453 -0.190647 1.05834
internal_weight=1313 1014 299 549 465 499 223 297 242 227 115 202 234 108 136 78 67 91 113 65 167 176 80 44 220 121 142 46 141 57
internal_count=1313 1014 299 549 465 499 223 297 242 227 115 202 234 108 136 78 67 91 113 65 167 176 80 44 220 121 142 46 141 57
is_linear=0
shrinkage=0.01


Tree=32
num_leaves=31
num_cat=0
split_feature=20 20 20 3 20 3 20 1 1 1 9 1 3 8 12 12 12 9 3 12 8 3 10 20 20 20 19 1 11 15
split_gain=1.97039e+06 525189 333009 144766 108866 101544 97793.6 83259.2 73257.9 62125.3 55251.7 49227 46711.5 46381.8 33803.2 33478.3 32406.1 32402.4 31890.8 34362.1 30326.9 28571.5 27889.1 26599.3 25291.4 23528.9 23388.1 21682.8 21481.2 20420.6
threshold=210.16666666666669 121.83333333333336 262.83333333333343 43.500000000000007 182.5 31.500000000000004 32.833333333333343 21.500000000000004 30.500000000000004 32.500000000000007 6.275252525252526 21.500000000000004 37.500000000000007 6.6905901116427442 0.064866760168302909 0.13079116179615108 0.17521929824561402 6.8038461538461545 25.500000000000004 0.11814556331006977 8.7066905615292729 35.500000000000007 0.06030303030303031 236 75.166666666666686 305.16666666666669 10.246666666666668 29.500000000000004 0.13921188630490958 42.750000000000007
decision_type=2 2 2 2 2 2 2 2 2 2 2 2 2 2 2 2 2 2 2 2 2 2 2 2 2 2 2 2 2 2
left_child=1 6 5 10 7 17 -1 -3 -6 20 13 24 26 -4 -5 22 23 -2 -9 29 -7 -12 -15 -11 -8 -16 -10 -21 -14 -20
right_child=2 4 3 14 8 9 11 18 12 16 21 -13 28 15 25 -17 -18 -19 19 27 -22 -23 -24 -25 -26 -27 -28 -29 -30 -31
leaf_value=-1.4761729190224098 -0.22495556421860866 0.081988661792129283 -0.036322549389254666 1.1779376373291015 0.096808294250240817 0.33155951775610448 -0.85554969131946568 -0.79410134887695305 -0.71610712862014769 0.068677910602092745 0.48427862539103161 -1.1433089735928703 0.21059557006472635 0.67106965506330452 0.65161329492193765 0.15601798723905513 -0.20801714236086066 0.15223592065274716 -0.11706817863509059 -0.40518295802176002 0.74567471981048583 0.91448605170616737 0.29821379859106883 0.28253631371173926 -0.37405405390262603 1.0017612314224242 -0.33069060305485859 -0.74266215836748162 -0.21584483751544245 -0.50770831229894053
leaf_weight=38 79 24 31 25 79 48 24 40 20 100 38 34 21 47 61 39 22 32 32 32 28 26 35 139 20 28 74 47 27 23
leaf_count=38 79 24 31 25 79 48 24 40 20 100 38 34 21 47 61 39 22 32 32 32 28 26 35 139 20 28 74 47 27 23
internal_value=0.00243473 -0.464716 0.323676 0.564733 -0.29986 0.146111 -1.06018 -0.470155 -0.147288 0.232515 0.412573 -0.857523 -0.283088 0.308792 0.853037 0.39721 0.159249 -0.116216 -0.546313 -0.472347 0.484128 0.65905 0.511924 0.193056 -0.636688 0.761772 -0.412694 -0.605962 -0.0292772 -0.280427
internal_weight=1313 535 778 330 419 448 116 198 221 337 216 78 142 152 114 121 261 111 174 134 76 64 82 239 44 89 94 79 48 55
internal_count=1313 535 778 330 419 448 116 198 221 337 216 78 142 152 114 121 261 111 174 134 76 64 82 239 44 89 94 79 48 55
is_linear=0
shrinkage=0.01


Tree=33
num_leaves=31
num_cat=0
split_feature=20 20 20 3 20 3 20 1 1 1 9 1 3 8 12 12 12 9 5 8 0 3 10 20 20 12 1 11 5 20
split_gain=1.93118e+06 514737 326382 141885 106699 99523.8 95847.5 81602.6 71800 60889 54152.2 48247.4 45781.9 45458.8 33130.5 32812.1 31761.2 31757.6 31310.6 29723.4 29142.3 28002.9 27334.1 26069.9 24788.1 23777.9 41401.7 26886.9 23433.5 23060.6
threshold=210.16666666666669 121.83333333333336 262.83333333333343 43.500000000000007 182.5 31.500000000000004 32.833333333333343 24.166666666666668 30.500000000000004 32.500000000000007 6.275252525252526 21.500000000000004 37.500000000000007 6.6905901116427442 0.064866760168302909 0.13079116179615108 0.17521929824561402 6.8038461538461545 0.39471396278908016 8.7066905615292729 11.500000000000002 35.500000000000007 0.06030303030303031 236 75.166666666666686 0.080540540540540509 36.166666666666679 0.16172624237140362 0.4971910112359551 305.16666666666669
decision_type=2 2 2 2 2 2 2 2 2 2 2 2 2 2 2 2 2 2 2 2 2 2 2 2 2 2 2 2 2 2
left_child=1 6 5 10 7 17 -1 20 28 19 13 24 -10 -4 -5 22 23 -2 -9 -7 -3 -12 -15 -11 -8 -20 27 -27 -6 -16
right_child=2 4 3 14 8 9 11 18 12 16 21 -13 -14 15 29 -17 -18 -19 25 -21 -22 -23 -24 -25 -26 26 -28 -29 -30 -31
leaf_value=-1.4614112050909744 -0.2227060111715824 -0.32277983191868537 -0.035959323606183452 1.1661582687377929 -0.16488377626364428 0.32824392010768255 -0.84699419597784686 -0.86863628321680519 -0.40856717424269051 0.067991133105754858 0.47943584440570131 -1.1318758797645569 -0.028984385281801223 0.66435895832295122 0.64509715662627931 0.15445780448424512 -0.20593697211959147 0.15071355901658534 -0.263713542242204 0.73821798001016892 0.19915621310472489 0.90534119239220245 0.29523166475977219 0.27971094941706964 -0.37031351411342622 -0.26470929669983245 -0.97454860323951353 -0.64719615507125849 0.20961067823930221 0.99174362386975978
leaf_weight=38 79 23 31 25 24 48 24 29 94 100 38 34 48 47 61 39 22 32 31 28 20 26 35 139 20 34 21 40 55 28
leaf_count=38 79 23 31 25 24 48 24 29 94 100 38 34 48 47 61 39 22 32 31 28 20 26 35 139 20 34 21 40 55 28
internal_value=0.00241038 -0.460068 0.320439 0.559086 -0.296862 0.14465 -1.04958 -0.465454 -0.145815 0.23019 0.408447 -0.848948 -0.280257 0.305705 0.844506 0.393238 0.157656 -0.115054 -0.572381 0.479287 -0.0800189 0.65246 0.506805 0.191125 -0.630321 -0.504195 -0.582668 -0.471459 0.0958402 0.754154
internal_weight=1313 535 778 330 419 448 116 198 221 337 216 78 142 152 114 121 261 111 155 76 43 64 82 239 44 126 95 74 79 89
internal_count=1313 535 778 330 419 448 116 198 221 337 216 78 142 152 114 121 261 111 155 76 43 64 82 239 44 126 95 74 79 89
is_linear=0
shrinkage=0.01


Tree=34
num_leaves=31
num_cat=0
split_feature=20 20 20 3 20 2 3 20 2 3 1 2 9 1 3 12 12 9 8 11 18 12 1 3 19 10 10 6 18 8
split_gain=1.89275e+06 504494 319887 139061 104576 99604.7 97543.2 93940.1 87302.4 60164.9 59677.3 55618.8 53160.1 35562.3 35298.4 32471.2 31129.2 31125.7 29131.9 28722.9 28688.9 27229.1 27037.1 25725.2 25423.4 23203.5 22876.6 22657.4 19977.4 18600.2
threshold=210.16666666666669 121.83333333333336 262.83333333333343 43.500000000000007 182.5 23.166666666666668 31.500000000000004 32.833333333333343 14.16666666666667 32.500000000000007 32.500000000000007 12.16666666666667 8.7255639097744382 28.833333333333339 37.500000000000007 0.064866760168302909 0.17521929824561402 6.8038461538461545 8.7066905615292729 0.18677325581395346 129.50000000000003 0.079473684210526321 38.833333333333336 38.500000000000007 11.330000000000004 0.048980407836865213 0.063164893617021267 0.58578431372549034 -119.49999999999999 6.8619281045751643
decision_type=2 2 2 2 2 2 2 2 2 2 2 2 2 2 2 2 2 2 2 2 2 2 2 2 2 2 2 2 2 2
left_child=1 7 6 12 8 9 17 -1 24 13 18 20 14 -6 19 -5 23 -2 -8 29 -9 -10 -16 27 -3 -11 -17 -12 -23 -4
right_child=2 4 3 15 5 -7 10 11 21 25 16 -13 -14 -15 22 26 -18 -19 -20 -21 -22 28 -24 -25 -26 -27 -28 -29 -30 -31
leaf_value=-1.4467970978586298 -0.22047894890549816 0.032386207501921387 0.082107587928573283 1.1544966888427735 0.1006058692932129 -0.75259185791015626 0.32496148114403089 -0.89408224058151253 -0.33592413872480392 0.32114012957612675 0.17736981372038524 -1.1522845275474318 0.89547291135787965 -0.38073967032811856 0.66292839427789052 0.96058794245123869 -0.20387759956446563 0.14920641995966435 0.73083579727581571 -0.080395626814469046 -0.38594792890548701 -0.860566376845042 0.31090537452697753 0.28341523444152061 -0.41229035663604735 -0.0044226560438120803 0.62648660877294715 -0.12988545232348972 -0.57335679114670368 0.41073054818833465
leaf_weight=38 79 36 24 25 20 24 48 20 32 30 72 33 20 66 48 32 22 32 28 23 25 36 40 131 20 81 57 36 74 61
leaf_count=38 79 36 24 25 20 24 48 20 32 30 72 33 20 66 48 32 22 32 28 23 25 36 40 131 20 81 57 36 74 61
internal_value=0.00238628 -0.455468 0.317234 0.553495 -0.293893 -0.144357 0.143203 -1.03909 -0.460799 -0.0702575 0.227888 -0.840458 0.404362 -0.268799 0.354249 0.836061 0.15608 -0.113903 0.474494 0.233112 -0.611785 -0.592665 0.502918 0.189214 -0.126427 0.0835673 0.746613 0.0749514 -0.667353 0.317943
internal_weight=1313 535 778 330 419 221 448 116 198 197 337 78 216 86 196 114 261 111 76 108 45 142 88 239 56 111 89 108 110 85
internal_count=1313 535 778 330 419 221 448 116 198 197 337 78 216 86 196 114 261 111 76 108 45 142 88 239 56 111 89 108 110 85
is_linear=0
shrinkage=0.01


Tree=35
num_leaves=31
num_cat=0
split_feature=19 3 19 5 6 9 10 3 19 19 3 12 11 19 10 9 3 19 15 9 1 11 9 15 3 19 10 5 17 19
split_gain=1.12702e+06 502899 358503 137236 119080 103471 99323.2 69909 69045.3 64818 61151.8 50486.2 49959.8 43687.2 42726.1 41960.9 41434 40058.2 36678.7 35531.9 44777.7 31431.3 31378 31129 29938 32860.7 29367.1 28579 28429.6 23578.4
threshold=12.113333333333339 37.500000000000007 6.7400000000000011 0.3917306052855925 0.23764705882352941 4.8221343873517801 0.11451990632318497 23.500000000000004 18.510000000000002 24.423333333333336 47.500000000000007 0.097800095648015312 0.15590277777777778 3.6400000000000001 0.11396103896103892 7.7550000000000008 30.500000000000004 14.803333333333336 41.750000000000007 5.4309523809523821 35.166666666666679 0.09404481132075472 3.910714285714286 41.750000000000007 39.500000000000007 9.9100000000000001 0.084039548022598873 0.55036231884057984 -109.49999999999999 16.65666666666667
decision_type=2 2 2 2 2 2 2 2 2 2 2 2 2 2 2 2 2 2 2 2 2 2 2 2 2 2 2 2 2 2
left_child=2 3 13 -2 -4 14 9 -6 16 10 19 27 24 23 22 -10 28 -8 -14 20 -3 -21 -5 -1 25 -13 -22 -9 -7 -12
right_child=1 6 4 5 7 8 17 11 15 -11 29 12 18 -15 -16 -17 -18 -19 -20 21 26 -23 -24 -25 -26 -27 -28 -29 -30 -31
leaf_value=-0.91083259204338329 -0.58360997903347012 0.50913365064188842 -0.70360524177253236 -0.23806241789171773 -0.74307500457763664 -0.37104889305308464 -0.30418684673309326 -0.14096725324257497 0.26383670956799476 0.91079828262329099 0.52726918520246235 -0.49154622860930181 -0.65022013306617743 -0.72444327129017227 -0.44924273257836322 0.77705274264017743 0.16807853949464818 0.26631530016660693 -0.2219755948384603 0.8907463072595142 0.26301906320694335 0.45035759294536754 0.068842092992530926 -1.4034630783744482 0.22636132516860963 0.0016624398912702288 -0.15312076286836104 0.20827153425171691 0.053863605241621697 0.88064566920443288
leaf_weight=29 40 64 50 62 20 32 20 42 66 37 35 22 36 55 39 21 96 32 45 21 74 71 72 23 25 35 22 53 31 41
leaf_count=29 40 64 50 62 20 32 20 42 66 37 35 22 36 55 39 21 96 32 45 21 74 71 72 23 25 35 22 53 31 41
internal_value=-0.00221333 0.2044 -0.418289 -0.0239761 -0.254322 0.0294496 0.455777 -0.173516 0.161232 0.51403 0.469272 -0.129364 -0.236157 -0.920918 -0.15794 0.387716 0.0373066 0.0468914 -0.412307 0.394287 0.304246 0.550881 -0.0731585 -1.12873 -0.0621561 -0.188699 0.167654 0.0538712 -0.161965 0.717906
internal_weight=1311 876 435 459 328 419 417 278 246 365 328 258 163 107 173 87 159 52 81 252 160 92 134 52 82 57 96 95 63 76
internal_count=1311 876 435 459 328 419 417 278 246 365 328 258 163 107 173 87 159 52 81 252 160 92 134 52 82 57 96 95 63 76
is_linear=0
shrinkage=0.01


Tree=36
num_leaves=31
num_cat=0
split_feature=20 20 3 20 9 20 2 2 20 6 3 2 9 3 12 2 20 1 20 20 1 11 8 3 11 3 3 5 5 20
split_gain=1.90932e+06 462982 359469 127890 125617 113942 102154 87929.9 77404.3 57992.5 54162.5 53513.7 41130.5 51671.3 38665.6 34324.5 34121.7 33452.2 33330.8 31392.1 46957.6 29240 23508.5 22281.8 21898.1 19088.9 18183.3 28642.2 17689.4 17566.3
