tree
version=v4
num_class=1
num_tree_per_iteration=1
label_index=0
max_feature_idx=25
objective=regression
feature_names=week pass_attempt complete_pass total_pass_plays pass_plays_off pass_pct_off receiving_yards receiving_touchdown red_zone_pass_pct_off deep_pass_pct_off avg_air_yards_off avg_yac_off man_coverage_pct_def zone_coverage_pct_def blitz_rate_def pressure_rate_def spread_line total_line over_odds under_odds player_moneyline fantasy_points fantasy_points_rolling3 receiving_yards_rolling3 reception_rolling3 receiving_touchdown_rolling3
feature_infos=[1:22] [0:54] [0:33] [3:72] [3:72] [0.059999999999999998:0.89830508474576276] [-17:266] [0:4] [0:1] [0:0.29411764705882348] [0.90476190476190477:17.633333333333333] [1.6000000000000001:12.4] [0:0.38461538461538458] [0.61538461538461542:1] [0:0.33333333333333331] [0:0.44827586206896552] [-17:20.5] [28.5:57.5] [-120:110] [-123:106] [-2100:1119] [-1.1000000000000001:55.600000000000001] [-1:38.899999999999999] [-10:197] [0.33333333333333331:13] [0:2]
tree_sizes=2669 2813 2822 2828 2828 2835 2837 2842 2840 2842 2843 2829 2838 2837 2811 2828 2820 2822 2801 2830 2857 2846 2829 2815 2830 2831 2822 2823 2838 2846 2849 2836 2841 2853 2842 2838 2869 2850 2850 2854 2825 2836 2839 2819 2841 2850 2844 2861 2833 2871 2837 2862 2868 2830 2855 2843 2840 2844 2849 2860 2857 2826 2838 2846 2837 2837 2850 2874 2866 2862 2848 2871 2866 2857 2855 2865 2850 2854 2854 2878 2879 2836 2849 2840 2853 2875 2879 2831 2872 2867 2836 2856 2855 2838 2859 2840 2844 2852 2863 2839 2866 2871 2874 2849 2867 2846 2871 2838 2859 2852 2836 2868 2847 2873 2885 2876 2857 2866 2862 2843 2873 2889 2889 2877 2865 2841 2836 2860 2878 2867 2872 2864 2862 2851 2883 2872 2886 2877 2862 2869 2861 2882 2874 2832 2881 2870 2864 2860 2846 2873 2860 2874 2851 2844 2860 2873 2874 2893 2888 2867 2873 2867 2860 2875 2839 2881 2892 2878 2897 2878 2908 2886 2863 2867 2895 2854 2877 2849 2872 2868 2874 2889 2868 2875 2897 2872 2897 2886 2853 2877 2866 2876 2871 2876 2874 2901 2848 2888 2884 2867 2891 2880 2879 2894 2866 2844 2892 2879 2882 2870 2873 2900 2920 2864 2878 2861 2885 2869 2871 2905 2883 2900 2902 2866 2892 2888 2893 2880 2884 2871 2878 2901 2884 2878 2881 2871 2862 2895 2881 2903 2886 2890 2879 2898 2872 2894 2895 2897 2886 2902 2879 2873 2861 2886 2886 2873 2867 2869 2868 2883 2917 2901 2883 2853 2893 2898 2887 2894 2888 2879 2898 2892 2878 2906 2879 2897 2888 2887 2892 2899 2874 2897 2897 2898 2907 2905 2902 2892 2890 2913 2910 2893 2891 2869 2895 2869 2893 2881 2894 2891 2883 2895 2883 2881 2897 2908 2911 2911 2902 2882 2913 2909 2885 2909 2903 2924 2890 2909 2913 2909 2910 2916 2918 2909 2911 2887 2890 2889 2903 2896 2899 2904 2892 2896 2877 2870 2913 2876 2882 2887 2869 2896 2878 2898 2889 2898 2888 2885 2910 2912 2888 2916 2883 2877 2877 2913 2900 2902 2899 2904 2895 2893 2897 2906 2898 2874 2877 2860 2906 2900 2897 2906 2875 2889 2886 2903 2899 2874 2893 2884 2910 2886 2904 2890 2901 2919 2867 2918 2906 2933 2885 2894 2901 2883 2898 2919 2907 2913 2926 2906 2878 2880 2847 2862 2867 2911 2905 2839 2898 2875 2910 2910 2897 2914 2915 2895 2876 2896 2895 2884 2875 2895 2914 2896 2891 2896 2924 2907 2923 2905 2899 2903 2913 2880 2884 2918 2899 2919 2907 2897 2867 2918 2905 2909 2924 2918 2907 2895 2912 2883 2917 2903 2880 2882 2926 2896 2909 2898 2905 2923 2893 2884 2877 2907 2878 2922 2893 2871 2890 2901 2888 2894 2917 2920 2888 2904 2893 2913 2905 2907 2938 2924 2920 2899 2938 2899 2898 2879 2908 2880 2897 2901 2887 2912 2897 2881 2920 2919 2907 2907 2880 2885 2889 2913 2880 2891 2895 2890 2911 2867 2879 2890 2878 2883 2886 2925 2909 2897 2914 2896 2920 2904 2904 2914 2901 2906 2918 2895 2857 2883 2909 2894 2905 2902 2917 2902 2889 2873 2892 2885 2921 2871 2871 2914 2923 2877 2905 2903 2909 2884 2889 2872 2896 2862 2905 2901 2920 2904 2901 2901 2887 2874 2897 2885 2893 2868 2903 2920 2898 2944 2929 2878 2897 2914 2890 2908 2903 2900 2917 2911 2899 2877 2908 2914 2886 2904 2860 2892 2831 2888 2914 2891 2924 2876 2910 2896 2876 2916 2894 2906 2926 2916 2903 2912 2935 2858 2898 2887 2919 2884 2905 2919 2913 2914 2894 2901 2894 2880 2884 2873 2884 2902 2893 2900 2919 2913 2884 2924 2907 2895 2891 2894 2878 2891 2890 2901 2904 2903 2896 2922 2861 2899 2885 2917 2889 2928 2913 2909 2871 2898 2907 2874 2902 2910 2885 2909 2899 2883 2895 2914 2916 2906 2878 2904 2905 2894 2869 2868 2876 2920 2919 2875 2908 2950 2900 2898 2887 2880 2897 2908 2910 2906 2872 2900 2887 2857 2881 2895 2864 2919 2919 2895 2875 2892 2876 2913 2940 2907 2884 2906 2889 2925 2911 2916 2875 2883 2887 2873 2882 2885 2902 2926 2931 2925 2955 2896 2888 2925 2911 2915 2931 2910 2882 2897 2897 2890 2890 2902 2895 2876 2886 2899 2887 2879 2871 2873 2881 2877 2860 2889 2906 2913 2905 2934 2927 2914 2916 2927 2903 2871 2904 2902 2866 2913 2918 2903 2901 2889 2906 2860 2899 2885 2874 2895 2871 2934 2941 2912 2891 2887 2841 2874 2865 2867 2858 2867 2917 2893 2908 2875 2881 2891 2921 2867 2916 2881 2892 2858 2863 2864 2884 2902 2907 2916 2889 2888 2881 2872 2882 2913 2849 2867 2895 2877 2929 2887 2892 2865 2916 2886 2930 2894 2939 2909 2877 2903 2906 2890 2915 2895 2918 2873 2874 2897 2856 2917 2878 2873 2872 2885 2891 2864 2879 2877 2891 2856 2869 2879 2860 2899 2917 2883 2905 2882 2847 2874 2882 2872 2856 2907 2915 2886 2914 2863 2869 2900 2874 2880 2877 2896 2904 2889 2898 2886 2868 2871 2891 2866 2869 2875 2908 2926 2919 2867 2895 2855 2850 2865 2860 2871 2913 2907 2897 2905 2903 2926 2891 2915 2874 2886 2897 2897 2889 2856 2885 2903 2891 2889 2910 2894 2915 2878 2871 2882 2890 2900 2914 2850 2885 2884 2871 2872 2871 2881 2888 2908 2854 2876 2884 2841 2906 2901 2895 2919 2909 2891 2888 2889 2915 2885 2887 2854 2884 2839 2882 2902 2892 2890 2871 2864 2889 2930 2875 2856 2848 2901 2891 2890 2847 2897 2893 2892 2894 2857 2883 2887 2895 2894 2898 2910 2865 2877 2890 2882 2886 2916 2869 2877 2941 2863 2937 2912 2868 2911 2895 2872 2876 2864 2884 2904 2904 2855 2887 2899 2886 2925 2909 2890 2904 2899 2871 2914 2905 2866 2902 2903 2877 2888 2905 2886

Tree=0
num_leaves=31
num_cat=0
split_feature=24 21 21 24 24 21 21 21 21 21 24 21 7 24 3 22 22 7 21 7 21 21 24 3 22 21 7 22 21 21
split_gain=19927.3 4986.18 4442.84 1794.25 1463.56 1137 573.988 487.017 389.162 382.439 332.849 222.132 222.121 203.116 187.224 181.062 172.477 170.75 138.79 138.078 131.447 125.577 112.482 97.3785 92.2863 88.8259 110.291 80.8122 86.3196 75.8265
threshold=3.8333333333333335 12.950000000000001 4.6500000000000012 2.166666666666667 6.166666666666667 6.5500000000000016 22.350000000000005 9.5500000000000025 2.9200000000000004 18.330000000000002 1.1666666666666667 9.2500000000000018 1.0000000180025095e-35 9.1666666666666696 33.500000000000007 9.4400000000000031 14.200000000000005 1.0000000180025095e-35 4.3200000000000012 1.0000000180025095e-35 15.15 17.450000000000003 3.166666666666667 36.500000000000007 12.800000000000006 6.2500000000000009 1.0000000180025095e-35 19.083333333333336 26.680000000000003 35.650000000000013
decision_type=2 2 2 2 2 2 2 2 2 2 2 2 2 2 2 2 2 2 2 2 2 2 2 2 2 2 2 2 2 2
left_child=2 5 8 10 9 18 19 25 -1 12 -4 -7 16 23 -11 22 -3 -13 -2 21 -17 -6 -9 -8 -22 -5 -27 28 -16 -25
right_child=1 4 3 7 6 11 13 15 -10 14 -12 17 -14 -15 27 20 -18 -19 -20 -21 24 -23 -24 29 -26 26 -28 -29 -30 -31
leaf_value=3.0157949581192458 3.0211504952776598 3.0703807212598622 3.0189843804914536 3.0312065639923818 3.0745231367793324 3.0437384158125114 3.0834190138767203 3.0456992173696138 3.0228027034873035 3.0615922246559486 3.0290057584989207 3.0559188252179035 3.0506357894116505 3.1231763598052633 3.0754918931461992 3.0359882146512769 3.0543449397371085 3.0357700605747531 3.0341232933178044 3.065632202586972 3.0506673664698245 3.0918570170781359 3.0559434400730012 3.0960219912209004 3.0408920565220665 3.0382705741001672 3.0211504952810744 3.0662240246816634 3.0904106993515312 3.116805258991183
leaf_weight=2113 144 177 453 379 106 327 54 313 1268 133 1235 491 204 29 186 285 108 46 193 82 163 69 163 107 237 635 40 68 49 21
leaf_count=2113 144 177 453 379 106 327 54 313 1268 133 1235 491 204 29 186 285 108 46 193 82 163 69 163 107 237 635 40 68 49 21
internal_value=3.03529 3.05909 3.02681 3.03408 3.07196 3.04416 3.08637 3.04 3.01842 3.06467 3.02632 3.05024 3.0586 3.0986 3.07148 3.04447 3.0643 3.05419 3.02858 3.07634 3.04118 3.08136 3.04921 3.09468 3.04488 3.03508 3.03726 3.07582 3.0786 3.09943
internal_weight=9878 2594 7284 3903 1393 1201 468 2215 3381 925 1688 864 489 211 436 1161 285 537 337 257 685 175 476 182 400 1054 675 303 235 128
internal_count=9878 2594 7284 3903 1393 1201 468 2215 3381 925 1688 864 489 211 436 1161 285 537 337 257 685 175 476 182 400 1054 675 303 235 128
is_linear=0
shrinkage=1


Tree=1
num_leaves=31
num_cat=0
split_feature=6 6 6 22 22 22 3 6 6 22 3 6 6 3 3 3 22 22 3 22 3 10 3 6 10 6 11 11 15 11
split_gain=21495.2 4607.34 2266.28 915.407 850.278 472.618 376.835 282.087 278.652 219.974 171.338 156.271 132.621 127.916 127.356 112.172 110.509 108.009 100.691 95.0305 88.5485 87.7354 87.0911 75.0722 73.8219 72.3652 72.1471 64.2374 60.3652 59.4222
threshold=35.500000000000007 76.500000000000014 17.500000000000004 8.016666666666671 17.31666666666667 5.1416666666666684 39.500000000000007 57.500000000000007 9.5000000000000018 11.466666666666674 35.500000000000007 87.500000000000014 23.500000000000004 32.500000000000007 39.500000000000007 45.500000000000007 11.633333333333342 4.2666666666666684 30.500000000000004 6.4666666666666677 34.500000000000007 8.1617647058823533 39.500000000000007 124.50000000000001 8.2633053221288542 131.50000000000003 6.6282894736842115 4.6809090909090916 0.099019607843137264 7.7550000000000008
decision_type=2 2 2 2 2 2 2 2 2 2 2 2 2 2 2 2 2 2 2 2 2 2 2 2 2 2 2 2 2 2
left_child=2 3 8 17 9 -4 18 13 -1 -3 29 -8 -7 -5 26 28 -14 -2 -6 -10 -18 -12 -19 -16 -15 27 -11 -20 -13 -9
right_child=1 4 5 7 6 12 11 10 19 14 21 15 16 24 23 -17 20 22 25 -21 -22 -23 -24 -25 -26 -27 -28 -29 -30 -31
leaf_value=-0.017637613384430716 -0.0044855894113425164 0.0229626871912736 -0.009479289514896197 0.0079922807812166045 0.029633949114406699 -0.0038987269328239764 0.039598967550743013 0.017496407284324084 -0.014146316737328706 0.033782967749569154 0.029825398520941279 0.067879864069131712 -8.0112478261017508e-05 0.017988391643799985 0.039041653736296929 0.072538014801242681 0.00066228993321047693 0.0023545538994669915 0.051122256081278732 -0.0092267630277690152 0.011255746982300405 0.019944988246474945 0.009638097338531524 0.058707246346907181 0.011298382292416961 0.05850674052392283 0.020447527357088081 0.035318004593145158 0.049094111835956578 0.002302565306168178
leaf_weight=2348 128 223 780 284 61 561 31 229 1045 135 251 26 709 518 165 79 133 375 41 629 194 140 292 22 242 31 58 69 50 29
leaf_count=2348 128 223 780 284 61 561 31 229 1045 135 251 26 709 518 165 79 133 375 41 629 194 140 292 22 242 31 58 69 50 29
internal_value=3.68524e-05 0.0200431 -0.0108401 0.0127802 0.0382773 -0.00309892 0.0498247 0.0169368 -0.0154151 0.030847 0.0221139 0.0600949 1.73537e-05 0.0137184 0.0354739 0.0641941 0.00213793 0.00392846 0.040368 -0.0122978 0.00694709 0.0262877 0.00554315 0.0413553 0.0158582 0.0450118 0.0297754 0.0412087 0.0555208 0.0157886
internal_weight=9878 3479 6399 2488 991 2377 388 1693 4022 603 649 186 1597 1044 380 155 1036 795 202 1674 327 391 667 187 760 141 193 110 76 258
internal_count=9878 3479 6399 2488 991 2377 388 1693 4022 603 649 186 1597 1044 380 155 1036 795 202 1674 327 391 667 187 760 141 193 110 76 258
is_linear=0
shrinkage=0.01


Tree=2
num_leaves=31
num_cat=0
split_feature=6 24 21 21 24 21 24 21 24 6 21 6 21 7 6 21 7 21 21 6 3 21 24 22 24 7 24 21 23 24
split_gain=21067.4 5394.02 2563.35 2095.44 1062.16 1034.17 595.75 536.66 526.101 305.43 372.469 279.768 271.435 220.798 183.845 182.054 175.741 173.436 154.097 140.695 134.675 125.913 110.725 101.569 97.5362 97.3026 96.315 91.8279 91.8165 85.3793
threshold=35.500000000000007 4.416666666666667 4.1500000000000012 18.330000000000002 2.166666666666667 8.5500000000000025 2.5833333333333335 10.640000000000002 7.166666666666667 16.500000000000004 5.7500000000000009 11.500000000000002 2.8000000000000007 1.0000000180025095e-35 92.500000000000014 16.350000000000005 1.0000000180025095e-35 12.65 6.5500000000000016 125.50000000000001 32.500000000000007 12.950000000000001 9.1666666666666696 19.483333333333338 3.166666666666667 1.0000000180025095e-35 1.5833333333333337 8.5500000000000025 88.166666666666671 1.1666666666666667
decision_type=2 2 2 2 2 2 2 2 2 2 2 2 2 2 2 2 2 2 2 2 2 2 2 2 2 2 2 2 2 2
left_child=2 5 12 7 11 18 26 27 19 -6 -11 -4 -1 21 -10 16 17 -8 -2 23 -17 -9 28 25 -12 -5 -7 -3 -16 -13
right_child=1 3 4 8 9 6 15 13 14 10 24 29 -14 -15 22 20 -18 -19 -20 -21 -22 -23 -24 -25 -26 -27 -28 -29 -30 -31
leaf_value=-0.01918464201769023 -0.012300688562095166 0.0023105462661811285 -0.016638698694999617 0.053864929233827907 -0.0062113492632808499 -0.0079204185157489611 0.013902258426361279 0.026314059451057768 0.045774541212164836 -0.0052049986724325313 0.0028191353294562981 -0.013207732408509356 -0.013049620564584622 0.018586463278278391 0.081493838973667312 0.013110006940737367 0.005287820479860812 0.026464600363682058 0.00037886032290811086 0.05384845755743177 0.026722671615618063 0.036950511994761993 0.084836752631447535 0.03062766353868776 0.0093966357919442311 0.039206900704829468 0.0050485361909896539 0.015896238485827698 0.058884688252355995 -0.0058748868337624152
leaf_weight=2094 125 70 518 62 457 71 454 181 46 369 385 203 1100 141 23 100 165 145 411 89 266 289 33 90 544 168 296 172 82 729
leaf_count=2094 125 70 518 62 457 71 454 181 46 369 385 203 1100 141 23 100 165 145 411 89 266 289 33 90 544 168 296 172 82 729
internal_value=3.6484e-05 0.0198426 -0.0107317 0.034607 -0.00441339 0.0093413 0.013609 0.0245699 0.0490447 0.00081932 0.00329468 -0.0107468 -0.0170718 0.0295618 0.0630877 0.0172042 0.014426 0.0169432 -0.00257812 0.0427271 0.0230034 0.0328543 0.0688588 0.039634 0.00667076 0.0431582 0.00253956 0.0119665 0.0638372 -0.00747206
internal_weight=9878 3479 6399 1446 3205 2033 1497 853 593 1755 1298 1450 3194 611 184 1130 764 599 536 409 366 470 138 320 929 230 367 242 105 932
internal_count=9878 3479 6399 1446 3205 2033 1497 853 593 1755 1298 1450 3194 611 184 1130 764 599 536 409 366 470 138 320 929 230 367 242 105 932
is_linear=0
shrinkage=0.01


Tree=3
num_leaves=31
num_cat=0
split_feature=6 24 21 21 24 21 24 21 24 6 21 6 21 7 6 21 7 21 21 6 3 21 24 22 24 7 24 21 23 24
split_gain=20648.2 5286.68 2512.33 2053.74 1041.02 1013.59 583.895 525.98 515.631 299.352 365.057 274.2 266.034 216.404 180.186 178.432 172.243 169.984 151.031 137.895 131.995 123.408 108.522 99.5474 95.5952 95.3662 94.3983 90.0005 89.9894 83.6803
threshold=35.500000000000007 4.416666666666667 4.1500000000000012 18.330000000000002 2.166666666666667 8.5500000000000025 2.5833333333333335 10.640000000000002 7.166666666666667 16.500000000000004 5.7500000000000009 11.500000000000002 2.8000000000000007 1.0000000180025095e-35 92.500000000000014 16.350000000000005 1.0000000180025095e-35 12.65 6.5500000000000016 125.50000000000001 32.500000000000007 12.950000000000001 9.1666666666666696 19.483333333333338 3.166666666666667 1.0000000180025095e-35 1.5833333333333337 8.5500000000000025 88.166666666666671 1.1666666666666667
decision_type=2 2 2 2 2 2 2 2 2 2 2 2 2 2 2 2 2 2 2 2 2 2 2 2 2 2 2 2 2 2
left_child=2 5 12 7 11 18 26 27 19 -6 -11 -4 -1 21 -10 16 17 -8 -2 23 -17 -9 28 25 -12 -5 -7 -3 -16 -13
right_child=1 3 4 8 9 6 15 13 14 10 24 29 -14 -15 22 20 -18 -19 -20 -21 -22 -23 -24 -25 -26 -27 -28 -29 -30 -31
leaf_value=-0.018992795047115398 -0.012177681772224605 0.0022874407071088042 -0.01647231164823006 0.053326280117034913 -0.0061492358030307082 -0.0078412142094277156 0.013763235867565029 0.026050918239750257 0.045316795292107956 -0.0051529485468568437 0.0027909439900865802 -0.013075655255228134 -0.012919124482508579 0.018400598663493251 0.0806789027089658 0.012978906968981027 0.0052349423045913376 0.026199954300605018 0.0003750717629726133 0.05330997351850017 0.026455444672558094 0.036581006634812868 0.083988384478019942 0.030321386814117432 0.0093026694287682947 0.038814831824441044 0.0049980508558754178 0.015737276076404162 0.058295841682248002 -0.0058161380385567361
leaf_weight=2094 125 70 518 62 457 71 454 181 46 369 385 203 1100 141 23 100 165 145 411 89 266 289 33 90 544 168 296 172 82 729
leaf_count=2094 125 70 518 62 457 71 454 181 46 369 385 203 1100 141 23 100 165 145 411 89 266 289 33 90 544 168 296 172 82 729
internal_value=3.61192e-05 0.0196442 -0.0106244 0.0342609 -0.00436925 0.00924788 0.0134729 0.0243242 0.0485543 0.000811126 0.00326173 -0.0106393 -0.016901 0.0292661 0.0624569 0.0170321 0.0142818 0.0167738 -0.00255234 0.0422998 0.0227733 0.0325258 0.0681702 0.0392376 0.00660405 0.0427266 0.00251416 0.0118468 0.0631988 -0.00739734
internal_weight=9878 3479 6399 1446 3205 2033 1497 853 593 1755 1298 1450 3194 611 184 1130 764 599 536 409 366 470 138 320 929 230 367 242 105 932
internal_count=9878 3479 6399 1446 3205 2033 1497 853 593 1755 1298 1450 3194 611 184 1130 764 599 536 409 366 470 138 320 929 230 367 242 105 932
is_linear=0
shrinkage=0.01


Tree=4
num_leaves=31
num_cat=0
split_feature=6 24 21 21 24 21 24 21 24 6 21 6 21 7 6 21 7 21 21 6 3 21 24 22 24 7 24 21 24 6
split_gain=20237.3 5181.47 2462.34 2012.87 1020.31 993.417 572.275 515.513 505.37 293.395 357.792 268.744 260.74 212.098 176.601 174.881 168.816 166.602 148.025 135.151 129.368 120.952 106.362 97.5664 93.6929 93.4684 92.5198 88.2095 82.0151 71.6602
threshold=35.500000000000007 4.416666666666667 4.1500000000000012 18.330000000000002 2.166666666666667 8.5500000000000025 2.5833333333333335 10.640000000000002 7.166666666666667 16.500000000000004 5.7500000000000009 11.500000000000002 2.8000000000000007 1.0000000180025095e-35 92.500000000000014 16.350000000000005 1.0000000180025095e-35 12.65 6.5500000000000016 125.50000000000001 32.500000000000007 12.950000000000001 9.1666666666666696 19.483333333333338 3.166666666666667 1.0000000180025095e-35 1.5833333333333337 8.5500000000000025 1.1666666666666667 101.50000000000001
decision_type=2 2 2 2 2 2 2 2 2 2 2 2 2 2 2 2 2 2 2 2 2 2 2 2 2 2 2 2 2 2
left_child=2 5 12 7 11 18 26 27 19 -6 -11 -4 -1 21 -10 16 17 -8 -2 23 -17 -9 -16 25 -12 -5 -7 -3 -13 -23
right_child=1 3 4 8 9 6 15 13 14 10 24 28 -14 -15 22 20 -18 -19 -20 -21 -22 29 -24 -25 -26 -27 -28 -29 -30 -31
leaf_value=-0.018802867188405712 -0.012055904935273573 0.0022645664268306324 -0.016307588701161582 0.05279301581844207 -0.0060877434556607848 -0.0077628023023913863 0.013625603498570981 0.025790409547436305 0.044863627915797032 -0.0051014190992507025 0.0027630345437240291 -0.012944898847169404 -0.012789933174414646 0.018216592620344873 0.062566809711002161 0.012849117980152369 0.0051825929010907816 0.025937954833281453 0.00037132095574988214 0.052776872957690381 0.026190890300094631 0.03818196108818054 0.083148501425078417 0.030018172873391046 0.0092096427278867098 0.038426683245315438 0.0049480703698370505 0.0155799033193914 -0.0057579764096093193 0.02360773111001039
leaf_weight=2094 125 70 518 62 457 71 454 181 46 369 385 203 1100 141 105 100 165 145 411 89 266 250 33 90 544 168 296 172 729 39
leaf_count=2094 125 70 518 62 457 71 454 181 46 369 385 203 1100 141 105 100 165 145 411 89 266 250 33 90 544 168 296 172 729 39
internal_value=3.5758e-05 0.0194478 -0.0105181 0.0339183 -0.00432556 0.00915541 0.0133382 0.024081 0.0480688 0.000803015 0.00322911 -0.0105329 -0.016732 0.0289735 0.0618323 0.0168618 0.0141389 0.0166061 -0.00252682 0.0418768 0.0225456 0.0322005 0.0674885 0.0388453 0.00653801 0.0422993 0.00248902 0.0117284 -0.00732337 0.0362152
internal_weight=9878 3479 6399 1446 3205 2033 1497 853 593 1755 1298 1450 3194 611 184 1130 764 599 536 409 366 470 138 320 929 230 367 242 932 289
internal_count=9878 3479 6399 1446 3205 2033 1497 853 593 1755 1298 1450 3194 611 184 1130 764 599 536 409 366 470 138 320 929 230 367 242 932 289
is_linear=0
shrinkage=0.01


Tree=5
num_leaves=31
num_cat=0
split_feature=24 21 21 24 21 24 21 21 7 21 24 21 3 5 21 21 21 3 3 24 24 21 7 22 22 22 22 24 7 22
split_gain=18423.2 4885.36 4032.58 1543.98 1450.01 1095.66 475.94 331.764 376.292 320.15 295.718 286.806 189.717 169.602 157.078 152.206 136.596 132.47 131.745 109.076 100.945 92.819 105.675 91.299 85.499 78.3305 77.0291 76.1658 72.9706 72.4719
threshold=3.8333333333333335 16.350000000000005 4.5500000000000016 2.166666666666667 6.7500000000000009 6.166666666666667 9.5500000000000025 9.6500000000000004 1.0000000180025095e-35 2.9200000000000004 1.1666666666666667 28.050000000000004 35.500000000000007 0.53957811194653316 4.5500000000000016 12.750000000000002 23.650000000000006 46.500000000000007 44.500000000000007 3.166666666666667 4.8333333333333348 6.3500000000000014 1.0000000180025095e-35 17.016666666666676 19.083333333333336 8.016666666666671 14.200000000000005 4.8333333333333348 1.0000000180025095e-35 8.8500000000000032
decision_type=2 2 2 2 2 2 2 2 2 2 2 2 2 2 2 2 2 2 2 2 2 2 2 2 2 2 2 2 2 2
left_child=2 4 9 10 14 13 21 -6 15 -1 -4 18 29 23 -2 -9 26 -13 -7 -14 -17 -5 25 27 -18 -23 28 -3 -15 -8
right_child=1 5 3 6 7 11 12 8 -10 -11 -12 17 19 16 -16 20 24 -19 -20 -21 -22 22 -24 -25 -26 -27 -28 -29 -30 -31
leaf_value=-0.0185771016407047 -0.012851433397642982 0.023617943180859954 -0.015439177912236519 -0.004312696806571906 0.0091485487552561348 0.044268074118675872 0.010150162886104565 0.020067002441561021 0.0079577934817486526 -0.012111313432520759 -0.0059505812532670808 0.061165551104043654 0.0084954721884559822 0.044793040085194712 0.00053518350887068436 0.021879049399350255 0.051427873977025355 0.086609843117850166 0.059509827788872052 0.016628096781776611 0.034082827786966176 0.0060786183399860142 -0.013407247623991828 0.016967515238062586 0.034442986665027486 -0.0011866380805392028 0.026827709417304266 0.039734078257107272 0.02960985373084744 0.0016873155624778774
leaf_weight=2101 162 69 441 419 351 201 139 409 185 1205 1287 76 374 67 191 108 75 28 79 295 182 331 43 86 49 269 138 51 60 372
leaf_count=2101 162 69 441 419 351 201 139 409 185 1205 1287 76 374 67 191 108 75 28 79 295 182 331 43 86 49 269 138 51 60 372
internal_value=6.38644e-05 0.023097 -0.0080623 -0.00126868 0.0122651 0.0406668 0.00420626 0.0173739 0.0206398 -0.0162204 -0.00837215 0.0538355 0.00857725 0.0321681 -0.00560825 0.0239963 0.0360533 0.0680159 0.0485684 0.0120816 0.029538 -0.00065039 0.00173609 0.0248315 0.0447161 0.00282136 0.0319998 0.0304673 0.0376199 0.00398934
internal_weight=9843 2567 7276 3970 1588 979 2242 1235 884 3306 1728 384 1180 595 353 699 389 104 280 669 290 1062 643 206 124 600 265 120 127 511
internal_count=9843 2567 7276 3970 1588 979 2242 1235 884 3306 1728 384 1180 595 353 699 389 104 280 669 290 1062 643 206 124 600 265 120 127 511
is_linear=0
shrinkage=0.01


Tree=6
num_leaves=31
num_cat=0
split_feature=6 24 21 21 24 21 24 24 21 6 21 6 21 21 6 21 6 3 24 3 24 24 3 21 6 22 6 24 21 24
split_gain=19510.5 5349.29 2422.94 2092.1 963.395 954.954 566.737 530.18 391.748 303.939 374.599 246.12 242.96 183.376 169.051 136.64 134.16 121.863 100.642 91.9927 87.8261 82.1985 78.8812 75.5165 74.4157 70.7782 69.072 63.7035 61.563 60.98
threshold=35.500000000000007 4.416666666666667 4.1500000000000012 17.450000000000003 2.166666666666667 8.6500000000000039 7.166666666666667 2.5833333333333335 10.550000000000002 16.500000000000004 5.7500000000000009 12.500000000000002 2.9200000000000004 16.350000000000005 90.500000000000014 6.5500000000000016 85.500000000000014 35.500000000000007 9.8333333333333339 40.500000000000007 1.4166666666666667 3.166666666666667 45.500000000000007 8.5500000000000025 46.500000000000007 8.7166666666666703 21.500000000000004 1.1666666666666667 11.050000000000002 3.8333333333333335
decision_type=2 2 2 2 2 2 2 2 2 2 2 2 2 2 2 2 2 2 2 2 2 2 2 2 2 2 2 2 2 2
left_child=2 5 12 8 11 15 16 20 23 -6 -11 -4 -1 25 -8 -2 -5 -15 -16 -10 -7 -12 -18 -3 -17 28 -14 -13 -9 -27
right_child=1 3 4 6 9 7 14 13 19 10 21 27 26 17 18 24 22 -19 -20 -21 -22 -23 -24 -25 -26 29 -28 -29 -30 -31
leaf_value=-0.018361443659613712 -0.011646522337180233 0.0022353523568465158 -0.015427904413496278 0.034355195077301948 -0.0060948385737800616 -0.0086543503099457044 0.044883946037292483 0.013283705423864943 0.023853927935316013 -0.005203216548810864 0.0031242655305127988 -0.012413526704361619 -0.011397875914579794 0.014837291797609637 0.062733679404625528 0.0032585838113740927 0.042261343717023177 0.026756809432990851 0.085861214507709852 0.032370539531111721 0.0045504530594332928 0.0091858613807639794 0.054681177601885435 0.015101449604030528 -0.0054869067666761511 0.0072376155336810787 -0.019057716599473841 -0.0056378903538235117 0.022212189671984555 0.014658089801669121
leaf_weight=2168 124 65 556 191 469 61 50 177 325 370 379 172 876 139 130 284 216 224 22 208 289 546 67 153 148 220 136 718 137 223
leaf_count=2168 124 65 556 191 469 61 50 177 325 370 379 172 876 139 130 284 216 224 22 208 289 546 67 153 148 220 136 718 137 223
internal_value=6.32257e-05 0.0192156 -0.0102863 0.0340462 -0.00415736 0.00876979 0.0468084 0.0129921 0.0225585 0.000802669 0.00330068 -0.0102082 -0.016473 0.0163493 0.0608343 -0.00239351 0.0408311 0.0221926 0.0660811 0.0271775 0.00224904 0.00670225 0.0452017 0.0112652 0.000262444 0.0135473 -0.0124273 -0.00694734 0.0171793 0.010973
internal_weight=9843 3453 6390 1427 3210 2026 676 1470 751 1764 1295 1446 3180 1120 202 556 474 363 152 533 350 925 283 218 432 757 1012 890 314 443
internal_count=9843 3453 6390 1427 3210 2026 676 1470 751 1764 1295 1446 3180 1120 202 556 474 363 152 533 350 925 283 218 432 757 1012 890 314 443
is_linear=0
shrinkage=0.01


Tree=7
num_leaves=31
num_cat=0
split_feature=6 24 21 21 24 21 24 24 21 6 21 6 21 7 21 7 6 21 6 21 3 21 24 24 24 3 21 6 6 6
split_gain=19122.2 5242.84 2374.72 2050.47 944.224 935.95 555.459 519.629 383.953 297.89 367.144 241.222 238.125 218.78 179.727 179.024 165.687 133.921 131.49 124.845 119.438 109.986 98.6397 86.0783 80.5628 77.3115 74.0137 72.9348 71.2944 67.6975
threshold=35.500000000000007 4.416666666666667 4.1500000000000012 17.450000000000003 2.166666666666667 8.6500000000000039 7.166666666666667 2.5833333333333335 10.550000000000002 16.500000000000004 5.7500000000000009 12.500000000000002 2.9200000000000004 1.0000000180025095e-35 16.350000000000005 1.0000000180025095e-35 90.500000000000014 6.5500000000000016 85.500000000000014 11.930000000000001 35.500000000000007 13.950000000000001 9.8333333333333339 1.4166666666666667 3.166666666666667 45.500000000000007 8.5500000000000025 46.500000000000007 88.500000000000014 21.500000000000004
decision_type=2 2 2 2 2 2 2 2 2 2 2 2 2 2 2 2 2 2 2 2 2 2 2 2 2 2 2 2 2 2
left_child=2 5 12 8 11 17 18 23 26 -6 -11 -4 -1 21 15 19 -8 -2 -5 -9 -16 -10 -18 -7 -12 -20 -3 -19 -23 -14
right_child=1 3 4 6 9 7 16 14 13 10 24 -13 29 -15 20 -17 22 27 25 -21 -22 28 -24 -25 -26 -27 -28 -29 -30 -31
leaf_value=-0.018177829207062061 -0.011530056957365765 0.0022129988727661279 -0.015273625164212351 0.03401164317006216 -0.0060338902100672458 -0.0085678068842914446 0.0444351064324379 0.012699081580548149 0.02581433646134601 -0.0051511842629784164 0.0030930228187336455 -0.0068778657911206711 -0.011283897256572225 0.014484267837500998 0.014688918791550527 0.0045102656564150736 0.062106342297333937 0.0032259979752272787 0.041838730210783305 0.022423890335946387 0.026489241349377801 0.040747407361482961 0.085002602447162984 0.0045049485642218055 0.0090940027291657941 0.054134365302413258 0.014950435059327706 -0.0054320377280394471 0.027483688256432937 -0.018867140116772669
leaf_weight=2168 124 65 556 191 469 61 50 381 242 370 379 890 876 112 139 174 130 284 216 202 224 117 22 289 546 67 153 148 62 136
leaf_count=2168 124 65 556 191 469 61 50 381 242 370 379 890 876 112 139 174 130 284 216 202 224 117 22 289 546 67 153 148 62 136
internal_value=6.25935e-05 0.0190234 -0.0101834 0.0337057 -0.00411579 0.00868209 0.0463403 0.0128622 0.0223329 0.000794642 0.00326768 -0.0101061 -0.0163082 0.0269057 0.0161858 0.0134118 0.0602259 -0.00236958 0.0404228 0.0160686 0.0219707 0.0302102 0.0654203 0.00222655 0.00663522 0.0447497 0.0111526 0.000259819 0.0361533 -0.012303
internal_weight=9843 3453 6390 1427 3210 2026 676 1470 751 1764 1295 1446 3180 533 1120 757 202 556 474 583 363 421 152 350 925 283 218 432 179 1012
internal_count=9843 3453 6390 1427 3210 2026 676 1470 751 1764 1295 1446 3180 533 1120 757 202 556 474 583 363 421 152 350 925 283 218 432 179 1012
is_linear=0
shrinkage=0.01


Tree=8
num_leaves=31
num_cat=0
split_feature=6 24 21 21 24 21 24 24 21 6 21 6 21 7 21 7 6 21 6 21 3 21 24 24 24 3 21 6 6 6
split_gain=18741.7 5138.51 2327.46 2009.66 925.433 917.325 544.405 509.289 376.312 291.962 360.015 236.421 233.386 214.426 176.15 175.461 162.389 131.256 128.874 122.36 117.062 107.797 96.6767 84.3654 79.8899 76.0613 72.5409 71.4834 69.8756 66.3503
threshold=35.500000000000007 4.416666666666667 4.1500000000000012 17.450000000000003 2.166666666666667 8.6500000000000039 7.166666666666667 2.5833333333333335 10.550000000000002 16.500000000000004 5.6400000000000015 12.500000000000002 2.9200000000000004 1.0000000180025095e-35 16.350000000000005 1.0000000180025095e-35 90.500000000000014 6.5500000000000016 85.500000000000014 11.930000000000001 35.500000000000007 13.950000000000001 9.8333333333333339 1.4166666666666667 4.8333333333333348 32.500000000000007 8.5500000000000025 46.500000000000007 88.500000000000014 21.500000000000004
decision_type=2 2 2 2 2 2 2 2 2 2 2 2 2 2 2 2 2 2 2 2 2 2 2 2 2 2 2 2 2 2
left_child=2 5 12 8 11 17 18 23 26 -6 -11 -4 -1 21 15 19 -8 -2 -5 -9 -16 -10 -18 -7 -12 -20 -3 -19 -23 -14
right_child=1 3 4 6 9 7 16 14 13 10 24 -13 29 -15 20 -17 22 27 25 -21 -22 28 -24 -25 -26 -27 -28 -29 -30 -31
leaf_value=-0.017996051563637341 -0.011414756475902734 0.0021908688768744471 -0.015120888913666709 0.033671526738798432 -0.0059735513196489624 -0.0084821288133103048 0.043990755248069766 0.012572090821316235 0.025556193245343924 -0.0053281380927937072 0.0052147607522356459 -0.0068090870485253887 -0.011171058249408932 0.014339425126090646 0.014542029759973931 0.0044651629655868162 0.061485278991552504 0.0031937380078655314 0.035343875070692789 0.022199651517785423 0.02622434897414808 0.040339933503896759 0.084152574972672894 0.0044598990854739524 0.013197870205075249 0.047302412354158906 0.014800930714685155 -0.0053777174053814356 0.027208851595078746 -0.018678468757254235
leaf_weight=2168 124 65 556 191 469 61 50 381 242 356 790 890 876 112 139 174 130 284 71 202 224 117 22 289 149 212 153 148 62 136
leaf_count=2168 124 65 556 191 469 61 50 381 242 356 790 890 876 112 139 174 130 284 71 202 224 117 22 289 149 212 153 148 62 136
internal_value=6.19674e-05 0.0188332 -0.0100816 0.0333686 -0.00407463 0.00859527 0.0458769 0.0127336 0.0221096 0.000786696 0.003235 -0.010005 -0.0161451 0.0266367 0.016024 0.0132777 0.0596237 -0.00234588 0.0400185 0.0159079 0.021751 0.0299081 0.0647661 0.00220429 0.00648152 0.0443022 0.011041 0.000257221 0.0357917 -0.01218
internal_weight=9843 3453 6390 1427 3210 2026 676 1470 751 1764 1295 1446 3180 533 1120 757 202 556 474 583 363 421 152 350 939 283 218 432 179 1012
internal_count=9843 3453 6390 1427 3210 2026 676 1470 751 1764 1295 1446 3180 533 1120 757 202 556 474 583 363 421 152 350 939 283 218 432 179 1012
is_linear=0
shrinkage=0.01


Tree=9
num_leaves=31
num_cat=0
split_feature=6 24 21 21 24 21 24 24 21 6 21 6 21 7 21 7 6 21 6 21 3 21 24 24 24 3 21 6 6 24
split_gain=18368.8 5036.25 2281.15 1969.67 907.017 899.07 533.572 499.154 368.823 286.152 352.85 231.717 228.742 210.159 172.645 171.969 159.158 129.601 126.309 119.925 114.732 105.652 94.7529 82.6865 78.3001 75.2844 71.0973 68.4851 65.0299 62.4358
threshold=35.500000000000007 4.416666666666667 4.1500000000000012 17.450000000000003 2.166666666666667 8.6500000000000039 7.166666666666667 2.5833333333333335 10.550000000000002 16.500000000000004 5.6400000000000015 12.500000000000002 2.9200000000000004 1.0000000180025095e-35 16.350000000000005 1.0000000180025095e-35 90.500000000000014 7.410000000000001 85.500000000000014 11.930000000000001 35.500000000000007 13.950000000000001 9.8333333333333339 1.4166666666666667 4.8333333333333348 45.500000000000007 8.5500000000000025 88.500000000000014 21.500000000000004 1.1666666666666667
decision_type=2 2 2 2 2 2 2 2 2 2 2 2 2 2 2 2 2 2 2 2 2 2 2 2 2 2 2 2 2 2
left_child=2 5 12 8 11 17 18 23 26 -6 -11 -4 -1 21 15 19 -8 -2 -5 -9 -16 -10 -18 -7 -12 -20 -3 -23 -14 -13
right_child=1 3 4 6 9 7 16 14 13 10 24 29 28 -15 20 -17 22 -19 25 -21 -22 27 -24 -25 -26 -27 -28 -29 -30 -31
leaf_value=-0.017816090905880797 -0.0066389724004615857 0.0021689602314279629 -0.014969680176699432 0.033334811353246584 -0.0059138157807046713 -0.0083973074699828371 0.043550847983360293 0.012446369868642075 0.025300631582860122 -0.0052748566199933827 0.0051626131620311141 -0.012152521849804841 -0.011059347625702756 0.014196030874071378 0.014396609484934979 0.0044205113140673479 0.060870426232998195 0.0030776324618215622 0.040986627039534075 0.021977655003123948 0.025962105458602308 0.03993653408737264 0.083311050154946081 0.0044153000821059761 0.013065891509888157 0.053119998262889351 0.014652921512625577 0.026936763044326538 -0.01849168347194791 -0.0054446419184861448
leaf_weight=2168 309 65 556 191 469 61 50 381 242 356 790 172 876 112 139 174 130 247 216 202 224 117 22 289 149 67 153 62 136 718
leaf_count=2168 309 65 556 191 469 61 50 381 242 356 790 172 876 112 139 174 130 247 216 202 224 117 22 289 149 67 153 62 136 718
internal_value=6.13478e-05 0.0186449 -0.00998074 0.033035 -0.00403389 0.00850932 0.0454181 0.0126062 0.0218885 0.000778829 0.00320265 -0.009905 -0.0159837 0.0263703 0.0158637 0.0131449 0.0590274 -0.00232242 0.0396184 0.0157488 0.0215334 0.029609 0.0641184 0.00218225 0.0064167 0.0438592 0.0109306 0.0354338 -0.0120582 -0.006741
internal_weight=9843 3453 6390 1427 3210 2026 676 1470 751 1764 1295 1446 3180 533 1120 757 202 556 474 583 363 421 152 350 939 283 218 179 1012 890
internal_count=9843 3453 6390 1427 3210 2026 676 1470 751 1764 1295 1446 3180 533 1120 757 202 556 474 583 363 421 152 350 939 283 218 179 1012 890
is_linear=0
shrinkage=0.01


Tree=10
num_leaves=31
num_cat=0
split_feature=6 24 21 21 24 24 6 24 21 6 21 21 21 6 21 24 24 7 21 24 21 7 3 3 6 23 23 23 11 24
split_gain=17833.6 3901.63 3187.33 1452.83 1262.59 897.847 398.057 388.833 375.755 352.394 401.774 322.967 315.794 175.609 168.186 148.182 126.148 125.78 123.812 115.133 107.522 158.488 102.522 90.7535 83.9782 71.6464 71.2252 69.0948 64.1959 60.8763
threshold=42.500000000000007 4.8333333333333348 4.5500000000000016 17.850000000000005 2.5833333333333335 3.166666666666667 12.500000000000002 7.166666666666667 10.750000000000002 17.500000000000004 7.1500000000000012 2.8000000000000007 10.450000000000001 90.500000000000014 8.240000000000002 1.1666666666666667 3.416666666666667 1.0000000180025095e-35 12.950000000000001 1.8333333333333337 16.350000000000005 1.0000000180025095e-35 32.500000000000007 44.500000000000007 125.50000000000001 34.833333333333336 71.166666666666671 49.833333333333336 4.5227743271221543 1.1666666666666667
decision_type=2 2 2 2 2 2 2 2 2 2 2 2 2 2 2 2 2 2 2 2 2 2 2 2 2 2 2 2 2 2
left_child=2 5 11 12 6 14 -4 24 -7 -6 -11 -1 -3 -9 -2 -8 -12 18 -14 -16 21 27 -22 -15 -5 -21 -20 -10 -25 -13
right_child=1 3 4 7 9 8 15 13 20 10 16 29 17 23 19 -17 -18 -19 26 25 22 -23 -24 28 -26 -27 -28 -29 -30 -31
leaf_value=-0.017779801018578185 -0.0059593211444744837 0.0099216020460856161 -0.014344247412954442 0.038457278216914303 -0.0048283157360313805 0.007580875405851676 -0.012956511240258727 0.040903396689614589 0.026406299823096821 -0.00022496049346877858 0.0058670254222937483 -0.015422127543674318 0.023793289065361024 0.057873842120170597 -0.0030334716238097376 -0.0029366005126581487 0.013738634857153502 0.016617112494521327 0.041399768284388953 0.011687513460496478 0.016852890587115026 0.0047378507130582575 0.029229636353701939 0.088338371992111211 0.049919672673007093 0.004075069298191617 0.030099914144067205 0.016301964860381064 0.06587960515703474 -0.010367532217594207
leaf_weight=2124 149 118 613 278 354 245 173 43 140 564 335 309 156 94 117 1005 519 77 105 255 91 71 253 20 83 240 119 131 35 1041
leaf_count=2124 149 118 613 278 354 245 173 43 140 564 335 309 156 94 117 1005 519 77 105 255 91 71 253 20 83 240 119 131 35 1041
internal_value=-1.83833e-05 0.0212295 -0.00853324 0.0356355 -0.00188776 0.0116255 -0.00780892 0.047208 0.0182114 0.0040969 0.00632505 -0.015349 0.0245059 0.0587059 0.0035683 -0.00440812 0.0106508 0.0282716 0.0306332 0.00588794 0.0220081 0.0180375 0.0259556 0.0638436 0.0410927 0.00799663 0.0353967 0.0215219 0.0740464 -0.0115245
internal_weight=9857 2820 7037 1128 3563 1692 1791 553 931 1772 1418 3474 575 192 761 1178 854 457 380 612 686 342 344 149 361 495 224 271 55 1350
internal_count=9857 2820 7037 1128 3563 1692 1791 553 931 1772 1418 3474 575 192 761 1178 854 457 380 612 686 342 344 149 361 495 224 271 55 1350
is_linear=0
shrinkage=0.01


Tree=11
num_leaves=31
num_cat=0
split_feature=6 24 21 21 24 24 6 24 21 6 21 21 21 6 21 24 24 24 21 4 4 6 22 23 24 23 22 11 24 23
split_gain=17478.7 3823.99 3123.9 1423.92 1237.46 879.98 390.135 381.095 368.277 345.381 393.779 316.54 309.51 172.115 164.839 145.233 123.638 112.842 105.382 100.482 88.9475 82.307 79.9133 70.2206 69.2734 67.8317 65.4709 62.9184 60.8561 68.2211
threshold=42.500000000000007 4.8333333333333348 4.5500000000000016 17.850000000000005 2.5833333333333335 3.166666666666667 12.500000000000002 7.166666666666667 10.750000000000002 17.500000000000004 7.1500000000000012 2.8000000000000007 10.450000000000001 90.500000000000014 8.240000000000002 1.1666666666666667 3.416666666666667 1.8333333333333337 16.350000000000005 32.500000000000007 44.500000000000007 125.50000000000001 9.4400000000000031 34.833333333333336 6.8333333333333348 68.166666666666671 17.783333333333339 4.5227743271221543 6.5833333333333348 42.833333333333336
decision_type=2 2 2 2 2 2 2 2 2 2 2 2 2 2 2 2 2 2 2 2 2 2 2 2 2 2 2 2 2 2
left_child=2 5 11 12 6 14 -4 21 -7 -6 -11 -1 -3 -9 -2 -8 -12 -16 22 -20 -15 26 -10 -19 25 -14 -5 -22 29 -18
right_child=1 3 4 7 9 8 15 13 18 10 16 -13 24 20 17 -17 28 23 19 -21 27 -23 -24 -25 -26 -27 -28 -29 -30 -31
leaf_value=-0.01760200280850497 -0.0058997279436690045 0.0098223860915434558 -0.014200805069796657 0.04245913455688876 -0.0047800325465521456 0.0075050666657637578 -0.012826946124089935 0.040494362448537075 0.024604299824427942 -0.0002227109037290149 0.0058083551837437184 -0.011409228238780742 0.029884089955042319 0.057295103402847936 -0.0030031369247028017 -0.002907234504166759 0.015756246733545053 0.011570638386350052 0.016684361753555445 0.028937340008882668 0.087454990625381479 0.049420475744339359 0.014393981055282386 0.0040343186342312641 0.035252302721434953 0.021103643377930484 0.032703716154098512 0.065220809187207907 0.027426155954599379 0.0081075938647457713
leaf_weight=2124 149 118 613 153 354 245 173 43 116 564 335 1350 194 94 117 1005 297 255 91 253 20 83 226 240 102 161 125 35 30 192
leaf_count=2124 149 118 613 153 354 245 173 43 116 564 335 1350 194 94 117 1005 297 255 91 253 20 83 226 240 102 161 125 35 30 192
internal_value=-1.81994e-05 0.0210172 -0.00844791 0.0352792 -0.00186888 0.0115092 -0.00773084 0.0467359 0.0180293 0.00405593 0.0062618 -0.0151955 0.0242608 0.0581189 0.00353262 -0.00436403 0.0105443 0.00582906 0.021788 0.025696 0.0632052 0.0406817 0.0178571 0.00791667 0.0279889 0.025902 0.0380727 0.073306 0.0136012 0.0127531
internal_weight=9857 2820 7037 1128 3563 1692 1791 553 931 1772 1418 3474 575 192 761 1178 854 612 686 344 149 361 342 495 457 355 278 55 519 489
internal_count=9857 2820 7037 1128 3563 1692 1791 553 931 1772 1418 3474 575 192 761 1178 854 612 686 344 149 361 342 495 457 355 278 55 519 489
is_linear=0
shrinkage=0.01


Tree=12
num_leaves=31
num_cat=0
split_feature=24 21 21 24 21 24 21 24 24 21 21 7 21 21 21 7 24 22 22 7 21 7 21 22 22 21 21 3 22 22
split_gain=15940.5 4885.74 2833.35 1469.95 1077.77 990.922 454.66 305.541 274.865 266.999 253.851 216.096 210.12 185.769 160.249 147.235 133.411 132.204 120.933 117.343 112.101 114.177 105.813 105.083 82.3169 88.0302 78.1918 71.32 69.4436 65.3603
threshold=3.5833333333333335 12.950000000000001 4.5500000000000016 6.166666666666667 6.8500000000000014 2.166666666666667 22.150000000000006 1.1666666666666667 4.416666666666667 2.9200000000000004 7.410000000000001 1.0000000180025095e-35 9.5500000000000025 18.950000000000003 4.3200000000000012 1.0000000180025095e-35 8.1666666666666696 9.3666666666666725 9.1166666666666689 1.0000000180025095e-35 14.550000000000002 1.0000000180025095e-35 17.510000000000005 19.083333333333336 16.683333333333341 15.15 15.250000000000002 37.500000000000007 14.316666666666668 4.8166666666666691
decision_type=2 2 2 2 2 2 2 2 2 2 2 2 2 2 2 2 2 2 2 2 2 2 2 2 2 2 2 2 2 2
left_child=2 4 9 8 14 7 15 -4 18 -1 -7 12 -6 19 -2 22 27 20 -3 28 21 -12 -5 -15 25 -20 -19 -8 -10 -9
right_child=1 3 5 6 11 10 16 29 13 -11 17 -13 -14 23 -16 -17 -18 26 24 -21 -22 -23 -24 -25 -26 -27 -28 -29 -30 -31
leaf_value=-0.0173675724208242 -0.012385537955164909 0.034832217517224227 -0.014933110727606927 0.03606971245951357 0.0085466204355125891 -0.0026605096936611543 0.042100626758809358 -0.0021065997188273967 0.034874737587305582 -0.011370345890164115 0.0091541833334086008 -0.0039589159515375895 0.018024949584831942 0.039557341835461557 -0.00093304431761442961 0.025764294508602716 0.067844444932164377 -0.0016344422586138871 0.010878475213955557 0.016890392257748965 0.018086761835022083 -0.0017269097862020136 0.051390393161773684 0.026309075932735685 0.008431468911826747 0.022805649226640374 0.0056166233556860035 0.056753303602840123 0.022313439166889739 -0.0068917916237693569
leaf_weight=2111 200 44 443 113 432 582 53 427 101 1145 422 75 510 192 314 77 74 302 84 129 102 125 75 87 82 235 293 89 78 861
leaf_count=2111 200 44 443 113 432 582 53 427 101 1145 422 75 510 192 314 77 74 302 84 129 102 125 75 87 82 235 293 89 78 861
internal_value=-1.80173e-05 0.019007 -0.00851827 0.0317512 0.00641271 -0.00234833 0.0461889 -0.00776933 0.025022 -0.0152586 0.00279064 0.0123775 0.0136782 0.0295154 -0.00538927 0.0374113 0.0569577 0.00534093 0.0190946 0.0241612 0.00846233 0.00666764 0.0421817 0.0354262 0.0173678 0.019665 0.00193625 0.0512843 0.0294011 -0.0053054
internal_weight=9857 3044 6813 1513 1531 3557 481 1731 1032 3256 1826 1017 942 587 514 265 216 1244 445 308 649 547 188 279 401 319 595 142 179 1288
internal_count=9857 3044 6813 1513 1531 3557 481 1731 1032 3256 1826 1017 942 587 514 265 216 1244 445 308 649 547 188 279 401 319 595 142 179 1288
is_linear=0
shrinkage=0.01


Tree=13
num_leaves=31
num_cat=0
split_feature=6 24 21 21 24 24 21 24 21 21 6 21 6 21 6 7 21 7 24 4 21 6 4 23 21 24 24 21 6 23
split_gain=16814.4 4428.89 2156.13 1601.16 1026.65 868.361 448.272 378.773 356.213 268.819 263.328 402.699 208.77 176.702 171.81 156.845 142.177 144.853 137.99 122.431 112.794 95.2803 86.7648 85.9837 85.6858 80.2793 73.8572 73.6859 66.1246 64.4566
threshold=35.500000000000007 4.8333333333333348 3.9500000000000006 17.850000000000005 3.166666666666667 2.166666666666667 10.050000000000002 7.166666666666667 10.450000000000001 7.5300000000000002 17.500000000000004 5.7500000000000009 9.5000000000000018 2.7500000000000004 90.500000000000014 1.0000000180025095e-35 15.15 1.0000000180025095e-35 1.8333333333333337 32.500000000000007 12.950000000000001 78.500000000000014 44.500000000000007 28.416666666666668 7.5300000000000002 1.5833333333333337 3.416666666666667 12.850000000000003 19.500000000000004 49.833333333333336
decision_type=2 2 2 2 2 2 2 2 2 2 2 2 2 2 2 2 2 2 2 2 2 2 2 2 2 2 2 2 2 2
left_child=2 4 13 8 9 12 24 21 -3 -2 -7 -12 -4 -1 -9 20 17 29 -11 -18 -10 -5 -16 -20 -6 -14 -13 -28 -15 -8
right_child=1 3 5 7 6 10 16 14 15 18 11 26 25 28 22 -17 19 -19 23 -21 -22 -23 -24 -25 -26 -27 27 -29 -30 -31
leaf_value=-0.017375093788185855 -0.0067233833780074382 0.01021973857300819 -0.015316031319707369 0.031490116423084621 -0.0037920771145394873 -0.005295267937279865 0.022747758414064134 0.039686624997191958 0.023417072619452618 -0.0030267281241817346 -0.0056419024981053346 0.0038371669129334887 -0.010148634896430326 -0.011092389333330526 0.056145460351984554 0.015456634162304302 0.015249056375275056 0.0032187662341377956 0.012022008088662566 0.027134633860909023 0.034272049959552915 0.04275827496110713 0.071958659692244104 0.0044518168771257964 0.0086983400384585061 -0.0047191603807335818 0.0070922886367355076 0.016303294479089268 -0.018022263956792427 0.013663962899822078
leaf_weight=2042 251 173 452 105 70 539 168 45 165 166 379 467 508 832 94 96 120 77 235 312 228 263 55 415 255 587 329 118 165 146
leaf_count=2042 251 173 452 105 70 539 168 45 165 166 379 467 508 832 94 96 120 77 235 312 228 263 55 415 255 587 329 118 165 146
internal_value=-1.78372e-05 0.0178245 -0.00957842 0.0330906 0.00938853 -0.00408163 0.015952 0.0455039 0.0225524 0.00232678 0.000576789 0.00302462 -0.00959825 -0.0156902 0.0568108 0.0269155 0.0198789 0.01551 0.00511059 0.0238331 0.0297146 0.0395432 0.0619825 0.00718873 0.0060081 -0.00723804 0.00661828 0.00952383 -0.0122393 0.0185241
internal_weight=9857 3439 6418 1224 2215 3379 1148 562 662 1067 1832 1293 1547 3039 194 489 823 391 816 432 393 368 149 650 325 1095 914 447 997 314
internal_count=9857 3439 6418 1224 2215 3379 1148 562 662 1067 1832 1293 1547 3039 194 489 823 391 816 432 393 368 149 650 325 1095 914 447 997 314
is_linear=0
shrinkage=0.01


Tree=14
num_leaves=31
num_cat=0
split_feature=24 24 24 24 24 24 24 3 3 3 3 5 3 24 24 3 23 10 3 20 23 24 3 14 19 14 10 11 12 10
split_gain=15319.3 3195.1 1950.52 536.717 363.193 321.48 260.532 209.209 201.923 183.458 105.118 85.9418 72.0046 69.8618 68.1709 53.872 51.0376 49.6785 47.4559 46.9462 46.7284 44.3264 42.4242 41.1923 41.1399 37.7868 48.1977 37.5104 37.4455 36.3146
threshold=3.5833333333333335 6.166666666666667 1.8333333333333337 4.8333333333333348 7.166666666666667 2.5833333333333335 1.1666666666666667 32.500000000000007 44.500000000000007 41.500000000000007 35.500000000000007 0.48666429587482224 37.500000000000007 3.8333333333333335 3.166666666666667 42.500000000000007 102.83333333333336 8.487043189368773 33.500000000000007 -149.49999999999997 115.83333333333336 4.166666666666667 39.500000000000007 0.065942028985507203 -104.49999999999999 0.038098693759071059 7.7655677655677664 3.0645833333333337 0.099019607843137264 7.1975609756097567
decision_type=2 2 2 2 2 2 2 2 2 2 2 2 2 2 2 2 2 2 2 2 2 2 2 2 2 2 2 2 2 2
left_child=2 3 6 9 12 22 -1 25 11 13 -7 -6 -3 -2 -12 27 17 28 -15 -16 24 -11 -4 -14 29 26 -5 -9 -13 -10
right_child=1 4 5 7 8 10 -8 15 20 21 14 16 23 18 19 -17 -18 -19 -20 -21 -22 -23 -24 -25 -26 -27 -28 -29 -30 -31
leaf_value=-0.016353015010983782 0.0039537391157641096 0.026154201258042895 -0.0073030888347132309 0.028173909810958086 0.025131857643524803 -0.0025271324461823247 -0.010859990228197614 0.032120606613159179 0.070700811364433985 0.012623880898603321 0.00063322613203349197 0.049583947123313432 0.040059524981102143 0.0068410169501268089 0.012190351768291181 0.026132237964605919 0.051175055468260358 0.028324372255139882 0.01190999375920194 0.0035259344512252773 0.073396414399147028 0.018866819563991159 -0.003947606072349309 0.030550915925617678 0.04515293891045629 0.0089702732254835701 0.010499289981606935 0.019461133618761686 0.036151344925165176 0.052316229570479628
leaf_weight=1740 342 135 1049 27 27 811 1714 25 22 279 638 49 101 363 97 261 67 27 376 176 20 192 588 83 23 165 36 367 36 21
leaf_count=1740 342 135 1049 27 27 811 1714 25 22 279 638 49 101 363 97 261 67 27 376 176 20 192 588 83 23 165 36 367 36 21
internal_value=-1.76588e-05 0.018633 -0.00835064 0.0134988 0.0390772 -0.00292486 -0.0136272 0.0197327 0.0471357 0.00996013 9.14764e-05 0.0417627 0.0317008 0.00769068 0.00242264 0.0226122 0.0442712 0.0401412 0.00942009 0.0066045 0.0600059 0.0151688 -0.00609782 0.0357703 0.0559481 0.0114858 0.0180741 0.0202685 0.0438948 0.0617223
internal_weight=9857 3044 6813 2433 611 3359 3454 881 292 1552 1722 206 319 1081 911 653 179 112 739 273 86 471 1637 184 66 228 63 392 85 43
internal_count=9857 3044 6813 2433 611 3359 3454 881 292 1552 1722 206 319 1081 911 653 179 112 739 273 86 471 1637 184 66 228 63 392 85 43
is_linear=0
shrinkage=0.01


Tree=15
num_leaves=31
num_cat=0
split_feature=6 24 6 6 24 24 24 24 6 24 24 23 4 6 6 4 23 6 23 24 23 23 23 24 23 24 23 24 6 6
split_gain=16028 4411.9 1799.22 1476.94 798.582 584.949 407.291 237.427 217.455 208.795 179.263 179.047 163.224 147.459 144.933 143.202 121.092 98.4361 97.8662 90.6571 88.0645 74.2657 72.87 71.0249 70.6877 70.5088 79.6492 68.9903 55.267 47.0326
threshold=35.500000000000007 4.416666666666667 17.500000000000004 85.500000000000014 3.166666666666667 2.8333333333333335 7.166666666666667 1.5833333333333337 58.500000000000007 1.5833333333333337 1.5833333333333337 51.166666666666679 36.500000000000007 64.500000000000014 9.5000000000000018 44.500000000000007 16.833333333333339 125.50000000000001 25.166666666666668 3.8333333333333335 43.833333333333336 40.833333333333336 42.833333333333336 4.8333333333333348 80.166666666666671 2.166666666666667 28.416666666666668 6.166666666666667 85.500000000000014 88.500000000000014
decision_type=2 2 2 2 2 2 2 2 2 2 2 2 2 2 2 2 2 2 2 2 2 2 2 2 2 2 2 2 2 2
left_child=2 4 7 12 9 10 17 -1 20 -2 -4 28 -3 21 -9 -8 -12 23 -7 -20 -6 -14 -21 -5 -25 -11 -27 -23 -10 -13
right_child=1 3 5 6 8 18 15 14 11 25 16 29 13 -15 -16 -17 -18 -19 19 22 -22 27 -24 24 -26 26 -28 -29 -30 -31
leaf_value=-0.015858466328732539 -0.0089246566804328503 0.017772035569084431 -0.011507287551697122 0.023416005400094121 0.013521065628470701 0.0097172566237260071 0.05083006829756205 -0.013675140165420612 0.023530985057531369 -0.00038692659497032274 0.0016886228170901649 0.0098896687609929569 0.033854629087448122 0.033139573148680185 -0.0083546831509600725 0.070389424827363753 -0.0062925982506428484 0.047455993635313852 -0.0018886744004455935 0.010248890773367013 0.00504240968848387 0.017774348428736538 0.0017013981317623847 0.041940190572005057 0.029993026383221148 0.011340519947524386 0.0033110499662071676 0.028575998071903065 0.035902023432047472 0.019142498097485968
leaf_weight=2005 154 339 483 44 296 202 122 1025 168 287 267 141 50 212 1023 54 660 84 347 163 209 219 257 130 80 174 426 81 46 90
leaf_count=2005 154 339 483 44 296 202 122 1025 168 287 267 141 50 212 1023 54 660 84 347 163 209 219 257 130 80 174 426 81 46 90
internal_value=-7.19438e-05 0.0174684 -0.00936023 0.0309688 0.00787362 -0.00245688 0.0444953 -0.0134123 0.0145032 0.00182355 -0.00656757 0.0195999 0.0232523 0.0265579 -0.0110175 0.0568312 -0.0039938 0.0380718 0.00352461 0.00189369 0.0100121 0.0225713 0.00501864 0.0349684 0.0373889 0.00368964 0.0056396 0.0206908 0.0261902 0.0134947
internal_weight=9838 3406 6432 1415 1991 2379 514 4053 950 1041 1410 445 901 562 2048 176 927 338 969 767 505 350 420 254 210 887 600 300 214 231
internal_count=9838 3406 6432 1415 1991 2379 514 4053 950 1041 1410 445 901 562 2048 176 927 338 969 767 505 350 420 254 210 887 600 300 214 231
is_linear=0
shrinkage=0.01


Tree=16
num_leaves=31
num_cat=0
split_feature=6 24 21 21 24 21 24 24 21 6 21 6 21 21 21 21 6 3 3 24 24 3 3 22 23 24 21 21 21 3
split_gain=15709.1 4324.1 2033.02 1607.55 799.757 787.706 487.198 457.425 338.322 240.07 313.776 220.986 214.345 207.232 125.162 124.175 102.618 97.184 93.5197 92.7078 82.4734 80.4743 78.4514 74.1937 73.0129 70.1876 68.3217 61.8266 58.185 55.036
threshold=35.500000000000007 4.416666666666667 4.1500000000000012 17.450000000000003 2.166666666666667 8.4500000000000011 2.5833333333333335 6.5833333333333348 10.640000000000002 17.500000000000004 6.3500000000000014 11.500000000000002 2.7500000000000004 27.650000000000006 6.5500000000000016 15.350000000000003 78.500000000000014 33.500000000000007 31.500000000000004 1.1666666666666667 4.8333333333333348 46.500000000000007 44.500000000000007 8.7166666666666703 71.833333333333357 1.1666666666666667 10.850000000000003 8.5500000000000025 13.65 30.500000000000004
decision_type=2 2 2 2 2 2 2 2 2 2 2 2 2 2 2 2 2 2 2 2 2 2 2 2 2 2 2 2 2 2
left_child=2 5 12 8 11 14 19 16 27 -6 -11 -4 -1 22 -2 23 -5 -17 -10 -7 29 -15 -9 26 -18 -13 -8 -3 -22 -12
right_child=1 3 4 7 9 6 15 13 18 10 20 25 -14 21 -16 17 24 -19 -20 -21 28 -23 -24 -25 -26 -27 -28 -29 -30 -31
leaf_value=-0.016879159877921414 -0.011482847486730926 0.0019981284085355822 -0.014383070719616043 0.028186150642318858 -0.0048826417141114662 -0.013692260744671027 0.01162957577761717 0.041563789191907341 0.014839696874221167 -0.0029494714302814007 0.00036839855808971662 -0.011739606208661024 -0.011476913837370087 0.057053498011646851 -7.1265081520221972e-05 0.012216836975204003 0.044776386395096783 0.0224334406683631 0.026936842768142621 0.0031930375183444647 0.010893627428873018 0.076377397030591973 0.056782208336724177 0.009333337081572678 0.033855135487185585 -0.0048816814051036179 0.02127474091666982 0.013680755609477109 0.0272263342450405 0.0073908906215952056
leaf_weight=2042 129 61 526 144 528 36 164 137 75 506 144 187 1147 66 377 139 112 282 432 336 88 32 45 395 135 739 133 176 29 496
leaf_count=2042 129 61 526 144 528 36 164 137 75 506 144 187 1147 66 377 139 112 282 432 336 88 32 45 395 135 739 133 176 29 496
internal_value=-7.12243e-05 0.0172937 -0.00926663 0.0306591 -0.00369155 0.00779488 0.0114665 0.0418826 0.0205368 0.000779825 0.00314703 -0.00920686 -0.0149361 0.0516395 -0.00298054 0.0147779 0.0348957 0.0190603 0.0251473 0.00155898 0.00722211 0.0633633 0.0453266 0.0121726 0.0388073 -0.0062666 0.0159488 0.0106738 0.0149419 0.00581083
internal_weight=9838 3406 6432 1415 3243 1991 1485 671 744 1791 1263 1452 3189 280 506 1113 391 421 507 372 757 98 182 692 247 926 297 237 117 640
internal_count=9838 3406 6432 1415 3243 1991 1485 671 744 1791 1263 1452 3189 280 506 1113 391 421 507 372 757 98 182 692 247 926 297 237 117 640
is_linear=0
shrinkage=0.01


Tree=17
num_leaves=31
num_cat=0
split_feature=6 24 21 21 24 21 24 24 21 6 21 6 21 21 21 21 4 24 6 24 4 4 22 6 24 21 21 21 4 4
split_gain=15396.4 4238.05 1992.56 1575.6 783.842 772.031 477.503 425.429 354.931 235.292 307.532 216.588 210.08 192.401 122.671 121.704 95.2501 90.8629 82.4725 80.8322 80.4743 78.8729 72.7172 69.6043 68.7909 66.9621 60.5962 57.0271 56.8411 53.9408
threshold=35.500000000000007 4.416666666666667 4.1500000000000012 17.730000000000004 2.166666666666667 8.4500000000000011 2.5833333333333335 6.5833333333333348 10.640000000000002 17.500000000000004 6.3500000000000014 11.500000000000002 2.7500000000000004 27.650000000000006 6.5500000000000016 15.350000000000003 33.500000000000007 1.1666666666666667 88.500000000000014 4.8333333333333348 31.500000000000004 46.500000000000007 8.7166666666666703 87.500000000000014 1.1666666666666667 10.850000000000003 8.5500000000000025 13.65 39.500000000000007 30.500000000000004
decision_type=2 2 2 2 2 2 2 2 2 2 2 2 2 2 2 2 2 2 2 2 2 2 2 2 2 2 2 2 2 2
left_child=2 5 12 8 11 14 17 18 26 -6 -11 -4 -1 23 -2 22 -17 -7 -5 29 -10 -15 25 -9 -13 -8 -3 -21 -25 -12
right_child=1 3 4 7 9 6 15 13 20 10 19 24 -14 21 -16 16 -18 -19 -20 27 -22 -23 -24 28 -26 -27 -28 -29 -30 -31
leaf_value=-0.016710368634934056 -0.011368018951151491 0.0019781471569030014 -0.014239239974563568 0.029741617746469454 -0.0048338152837338081 -0.013555338146785896 0.011513280038517424 0.036360325959779449 0.016199595317783127 -0.0029199767201906991 0.00036471459316089749 -0.011622210227869412 -0.011362144662409944 0.056482962839531171 -7.0552414177240069e-05 0.012094668602343086 0.022209106186497296 0.0031611071377881761 0.03922520160101927 0.010784691192887046 0.026906774958411414 0.075613622218370438 0.0092400037187941458 0.043323319642270201 -0.0048328646207392136 0.02106199343289648 0.013543948018076747 0.026954070935989251 0.057706096124649053 0.0073169817005644643
leaf_weight=2042 129 61 526 164 528 36 164 59 83 506 144 187 1147 66 377 139 282 336 208 88 455 32 395 61 739 133 176 29 50 496
leaf_count=2042 129 61 526 164 528 36 164 59 83 506 144 187 1147 66 377 139 282 336 208 88 455 32 395 61 739 133 176 29 50 496
internal_value=-7.05122e-05 0.0171207 -0.00917396 0.0303525 -0.00365463 0.00771694 0.0113518 0.0419645 0.0207633 0.000772027 0.00311556 -0.00911479 -0.0147868 0.0515701 -0.00295074 0.0146301 0.0188697 0.00154339 0.0350443 0.00714988 0.0252549 0.0627297 0.0120509 0.045137 -0.00620393 0.0157893 0.0105671 0.0147925 0.049802 0.00575272
internal_weight=9838 3406 6432 1415 3243 1991 1485 640 775 1791 1263 1452 3189 268 506 1113 421 372 372 757 538 98 692 170 926 297 237 117 111 640
internal_count=9838 3406 6432 1415 3243 1991 1485 640 775 1791 1263 1452 3189 268 506 1113 421 372 372 757 538 98 692 170 926 297 237 117 111 640
is_linear=0
shrinkage=0.01


Tree=18
num_leaves=31
num_cat=0
split_feature=6 24 21 21 24 24 24 21 21 21 6 21 6 21 21 24 6 23 6 3 24 3 3 21 23 24 21 21 3 21
split_gain=15090.1 4153.72 1952.91 1545.11 768.244 760.796 439.805 324.795 315.1 245.802 230.61 301.412 212.278 205.899 198.802 135.699 98.9503 94.0319 134.357 90.027 79.2236 77.3033 76.0793 71.912 71.6701 67.4219 59.3904 55.8923 52.8673 52.7858
threshold=35.500000000000007 4.416666666666667 4.1500000000000012 17.450000000000003 2.166666666666667 3.166666666666667 6.5833333333333348 10.640000000000002 9.6500000000000004 7.6000000000000014 17.500000000000004 6.3500000000000014 11.500000000000002 2.7500000000000004 27.650000000000006 1.5833333333333337 78.500000000000014 51.166666666666679 59.500000000000007 31.500000000000004 4.8333333333333348 46.500000000000007 44.500000000000007 12.65 71.833333333333357 1.1666666666666667 8.5500000000000025 13.65 30.500000000000004 7.5300000000000002
decision_type=2 2 2 2 2 2 2 2 2 2 2 2 2 2 2 2 2 2 2 2 2 2 2 2 2 2 2 2 2 2
left_child=2 5 13 7 12 9 16 26 29 -2 -6 -12 -4 -1 22 -11 -5 18 -10 -9 28 -16 -8 -20 -18 -14 -3 -22 -13 -7
right_child=1 3 4 6 10 8 14 19 17 15 11 20 25 -15 21 -17 24 -19 23 -21 27 -23 -24 -25 -26 -27 -28 -29 -30 -31
leaf_value=-0.016543264726758818 -0.0064562645681777832 0.001958365672435917 -0.014096847715656566 0.027612800126274428 -0.0047854771434658414 -0.0035289668501354756 0.04073085163849114 0.014529304015636443 0.015223069283718298 -0.0073000042064882377 -0.0028907769357508577 0.000361067441602548 -0.011505987957358998 -0.011248523198009681 0.055918133123354474 0.0060960951560265287 0.043956352099776268 0.012822091611566153 0.016318653164044867 0.026398406489579768 0.010676844223317774 0.07485748685896397 0.055717422803243002 0.029881324052010605 0.033135992189248405 -0.0047845359804948064 0.013408508539538493 0.026684530254068046 0.0072438118988347637 0.0070603096309337721
leaf_weight=2042 271 61 526 144 528 64 137 75 237 85 506 144 187 1147 66 685 112 269 53 432 88 32 45 149 135 739 176 29 496 178
leaf_count=2042 271 61 526 144 528 64 137 75 237 85 506 144 187 1147 66 685 112 269 53 432 88 32 45 149 135 739 176 29 496 178
internal_value=-6.9807e-05 0.0169495 -0.00908222 0.030049 -0.00361809 0.00763977 0.0410524 0.0201252 0.0141106 0.00173456 0.000764307 0.00308441 -0.00902365 -0.0146389 0.0506195 0.0046173 0.0342013 0.0174777 0.0203305 0.0246426 0.00707839 0.0621024 0.0444363 0.0263228 0.0380424 -0.00614189 0.0104614 0.0146446 0.00569519 0.00425984
internal_weight=9838 3406 6432 1415 3243 1991 671 744 950 1041 1791 1263 1452 3189 280 770 391 708 439 507 757 98 182 202 247 926 237 117 640 242
internal_count=9838 3406 6432 1415 3243 1991 671 744 950 1041 1791 1263 1452 3189 280 770 391 708 439 507 757 98 182 202 247 926 237 117 640 242
is_linear=0
shrinkage=0.01


Tree=19
num_leaves=31
num_cat=0
split_feature=6 24 6 6 24 24 24 24 6 24 23 24 3 6 3 6 23 6 23 23 24 23 24 23 23 24 24 23 6 23
split_gain=14789.8 4071.06 1656.19 1368.79 745.657 545.445 386.441 223.069 203.081 194.201 181.413 167.917 151.021 138.35 134.605 125.923 117.618 99.3296 94.3999 87.5246 84.9921 70.9599 70.4145 77.228 69.694 65.6412 65.6113 77.3972 47.7251 46.3721
threshold=35.500000000000007 4.416666666666667 17.500000000000004 83.500000000000014 3.166666666666667 2.8333333333333335 7.166666666666667 1.4166666666666667 59.500000000000007 1.5833333333333337 51.166666666666679 1.5833333333333337 36.500000000000007 9.5000000000000018 39.500000000000007 64.500000000000014 16.833333333333339 125.50000000000001 25.166666666666668 43.833333333333336 3.8333333333333335 40.833333333333336 4.8333333333333348 71.166666666666671 42.833333333333336 6.166666666666667 2.166666666666667 28.416666666666668 85.500000000000014 65.416666666666671
decision_type=2 2 2 2 2 2 2 2 2 2 2 2 2 2 2 2 2 2 2 2 2 2 2 2 2 2 2 2 2 2
left_child=2 4 7 12 9 11 17 -1 19 -2 28 -4 -3 -9 -8 21 -13 22 -7 -6 -20 -14 -5 -24 -22 29 -11 -28 -10 -23
right_child=1 3 5 6 8 18 14 13 10 26 -12 16 15 -15 -16 -17 -18 -19 20 -21 24 25 23 -25 -26 -27 27 -29 -30 -31
leaf_value=-0.01530698700650468 -0.0086485520745597354 0.016686283815708407 -0.011118418725658647 0.022320573969433703 0.013196091410694737 0.0094898451577945814 0.044727340845099411 -0.013164256106960584 0.023269771600637257 -0.0004155336029970376 0.012912391867960385 0.0017537308235265566 0.032709192764759067 -0.0080257934861801706 0.061994076786619251 0.03174086954155117 -0.0061121812970518618 0.045749280424345111 -0.0018562014710751258 0.0048423279240448897 0.0099468186630923133 0.019499824776716485 0.042717181418253029 0.030836547946488414 0.001587671801484786 0.027533105529016919 0.011017677106990897 0.0031025344970802221 0.034843710920085078 0.0085370132863521585
leaf_weight=1957 154 331 483 48 303 202 83 1055 158 287 229 267 50 1041 99 193 660 84 347 214 163 169 92 135 257 81 174 426 46 50
leaf_count=1957 154 331 483 48 303 202 83 1055 158 287 229 267 50 1041 99 193 660 84 347 214 163 169 92 135 257 81 174 426 46 50
internal_value=-6.91089e-05 0.01678 -0.0089914 0.0297485 0.00756337 -0.00236813 0.0422496 -0.0128791 0.0139695 0.00171721 0.0190216 -0.00633758 0.0220104 -0.0106122 0.0541197 0.0252559 -0.00384659 0.0362319 0.00340785 0.00973825 0.00180608 0.0216799 0.0333247 0.0356516 0.00483182 0.0198417 0.00351691 0.00539793 0.0258796 0.0169969
internal_weight=9838 3406 6432 1415 1991 2379 541 4053 950 1041 433 1410 874 2096 182 543 927 359 969 517 767 350 275 227 420 300 887 600 204 219
internal_count=9838 3406 6432 1415 1991 2379 541 4053 950 1041 433 1410 874 2096 182 543 927 359 969 517 767 350 275 227 420 300 887 600 204 219
is_linear=0
shrinkage=0.01


Tree=20
num_leaves=31
num_cat=0
split_feature=6 21 21 21 6 6 7 21 21 21 7 21 21 6 4 21 21 6 6 7 21 4 7 21 6 21 6 6 4 21
split_gain=14743.4 3540.17 1878.95 926.332 905.138 670.669 598.254 417.972 355.186 296.712 243.383 301.808 254.931 203.358 180.135 178.485 141.153 127.394 111.74 112.176 165.103 111.474 80.5474 75.4104 74.6389 69.9154 112.805 68.6118 66.5706 66.0137
threshold=35.500000000000007 15.250000000000002 4.1500000000000012 8.5500000000000025 85.500000000000014 12.500000000000002 1.0000000180025095e-35 29.450000000000003 10.750000000000002 5.5500000000000016 1.0000000180025095e-35 22.350000000000005 18.450000000000003 20.500000000000004 33.500000000000007 2.7500000000000004 6.5500000000000016 55.500000000000007 69.500000000000014 1.0000000180025095e-35 19.650000000000006 47.500000000000007 1.5000000000000002 13.850000000000003 45.500000000000007 12.850000000000003 67.500000000000014 25.500000000000004 33.500000000000007 6.5500000000000016
decision_type=2 2 2 2 2 2 2 2 2 2 2 2 2 2 2 2 2 2 2 2 2 2 2 2 2 2 2 2 2 2
left_child=2 3 15 16 14 -4 8 10 17 27 12 -12 -6 -11 -3 -1 -2 -5 -16 -20 -21 -9 -13 -8 -18 26 -10 -7 -15 -30
right_child=1 4 5 6 7 9 23 21 25 13 11 22 -14 28 18 -17 24 -19 19 20 -22 -23 -24 -25 -26 -27 -28 -29 29 -31
leaf_value=-0.016250292049847039 -0.010907828011002173 0.013465320742936526 -0.011037115392710945 0.013578999956456114 0.030624513682973295 -0.0038586865912257425 -0.0065113317846290531 0.048969012050345394 0.021738305910378695 -0.0037550106414334246 0.011583908827498901 0.036981707805767657 0.050242126804234379 0.00082423852253201845 0.02107793748724756 -0.011264983413604377 0.0037325446803706218 0.0035995462934906575 0.04331339416595606 0.0097047168096261356 0.034136907244906013 0.071843372097721805 0.019125798861185709 0.0041975136726562466 -0.0045609522172517878 0.024537271259233672 0.0099096777449761125 -0.010346853219187309 0.00077018405247540416 0.0077483794325329727
leaf_weight=2008 136 207 873 343 131 495 124 101 250 480 86 160 134 407 323 1118 294 204 52 42 81 27 30 140 172 282 119 243 184 515
leaf_count=2008 136 207 873 343 131 495 124 101 250 480 86 160 134 407 323 1118 294 204 52 42 81 27 30 140 172 282 119 243 184 515
internal_value=0.000107875 0.016775 -0.00895451 0.0084956 0.0292121 -0.00356414 0.0127945 0.037544 0.0157974 -0.000756947 0.0336993 0.027127 0.0405444 0.00168045 0.0213056 -0.0144673 -0.00194449 0.00985723 0.0245646 0.0309999 0.0257942 0.0537941 0.0341624 -0.000832399 0.000671426 0.0207885 0.0179237 -0.00599503 0.00403942 0.00591149
internal_weight=9761 3438 6323 2064 1374 3197 1462 669 1198 2324 541 276 265 1586 705 3126 602 547 498 175 123 128 190 264 466 651 369 738 1106 699
internal_count=9761 3438 6323 2064 1374 3197 1462 669 1198 2324 541 276 265 1586 705 3126 602 547 498 175 123 128 190 264 466 651 369 738 1106 699
is_linear=0
shrinkage=0.01


Tree=21
num_leaves=31
num_cat=0
split_feature=24 21 21 24 24 21 21 21 21 21 24 22 22 22 24 4 21 24 21 25 24 21 21 24 11 22 22 21 22 17
split_gain=13294.4 3442.8 3052.13 1164.87 1093.56 664.058 378.577 283.458 278.078 271.607 250.703 162.867 150.64 127.512 124.984 124.55 101.978 95.2906 88.9957 80.9881 77.2743 76.3682 71.5668 63.5376 61.3823 60.2788 58.7721 59.1865 58.2886 57.56
threshold=3.8333333333333335 12.230000000000002 4.8500000000000014 2.166666666666667 6.166666666666667 6.7500000000000009 22.350000000000005 9.2500000000000018 18.330000000000002 2.9200000000000004 1.1666666666666667 14.200000000000005 10.841666666666669 15.750000000000002 3.166666666666667 45.500000000000007 9.5500000000000025 4.416666666666667 4.5500000000000016 1.0000000180025095e-35 4.8333333333333348 13.950000000000001 16.720000000000006 3.166666666666667 4.7018518518518526 8.9833333333333325 4.8166666666666691 11.050000000000002 15.16666666666667 49.250000000000007
decision_type=2 2 2 2 2 2 2 2 2 2 2 2 2 2 2 2 2 2 2 2 2 2 2 2 2 2 2 2 2 2
left_child=2 5 9 10 8 18 22 25 11 -1 -4 19 14 20 -9 29 -7 -15 -2 -3 -10 -16 -6 -14 -17 -5 -12 -28 -24 -8
right_child=1 4 3 7 6 16 15 12 13 -11 26 -13 23 17 21 24 -18 -19 -20 -21 -22 -23 28 -25 -26 -27 27 -29 -30 -31
leaf_value=-0.015919927790668618 -0.010763898706243884 0.028324934461731122 -0.013694097527385879 0.0015430162590302861 0.029115471985605029 0.0077533203227711581 0.043664615963761866 0.0070521668375295122 0.029921121686430917 -0.010138929706128608 -0.0014542231111823562 0.012283553600870072 -9.7018141787632008e-05 0.01199209143097202 0.012031213042699853 0.076506147682666781 0.015273276239768752 0.027728699938077285 -0.00066863310820190227 0.018277831355322013 0.042483604474999437 0.023609659079284896 0.052771464127760667 0.0067859562507185806 0.056180046949631128 -0.0040911246802886282 -0.0086627499193756927 -0.0031998968917855437 0.0362918972048333 0.059076733935263852
leaf_weight=2097 155 163 426 670 135 350 111 448 112 1327 372 225 277 48 177 24 372 194 200 158 87 84 26 260 39 265 451 354 123 31
leaf_count=2097 155 163 426 670 135 350 111 448 112 1327 372 225 277 48 177 24 372 194 200 158 87 84 26 260 39 265 451 354 123 31
internal_value=0.000106796 0.0197164 -0.00683872 -0.000648802 0.029636 0.00612181 0.0418648 0.00410787 0.0235774 -0.0136795 -0.0071206 0.0188071 0.0072308 0.0294835 0.0102569 0.0522211 0.0116279 0.0246074 -0.00507643 0.0233796 0.0354133 0.0157576 0.0343893 0.00323552 0.0639233 -5.38258e-05 -0.00474141 -0.00626045 0.0391675 0.0470292
internal_weight=9761 2553 7208 3784 1476 1077 489 2181 987 3424 1603 546 1246 441 709 205 722 242 355 321 199 261 284 537 63 935 1177 805 149 142
internal_count=9761 2553 7208 3784 1476 1077 489 2181 987 3424 1603 546 1246 441 709 205 722 242 355 321 199 261 284 537 63 935 1177 805 149 142
is_linear=0
shrinkage=0.01


Tree=22
num_leaves=31
num_cat=0
split_feature=6 24 21 21 24 21 24 24 21 6 21 7 6 21 3 21 24 6 23 6 21 22 24 21 21 7 21 6 3 6
split_gain=14188.1 3806.58 1801.41 1407.34 728.098 721.617 429.855 387.147 337.61 204.522 262.121 188.462 178.721 171.508 163.942 132.883 109.8 107.313 118.206 91.6351 91.2547 84.4279 78.3385 72.2258 72.1734 65.2721 64.3668 64.2224 63.9283 57.998
threshold=35.500000000000007 4.416666666666667 4.1500000000000012 17.730000000000004 2.166666666666667 7.8500000000000014 3.166666666666667 6.166666666666667 10.640000000000002 15.500000000000002 5.5500000000000016 1.0000000180025095e-35 12.500000000000002 2.7500000000000004 44.500000000000007 10.750000000000002 1.5833333333333337 48.500000000000007 51.166666666666679 133.50000000000003 12.950000000000001 19.083333333333336 8.1666666666666696 6.5500000000000016 26.150000000000006 1.0000000180025095e-35 8.5500000000000025 85.500000000000014 33.500000000000007 96.500000000000014
decision_type=2 2 2 2 2 2 2 2 2 2 2 2 2 2 2 2 2 2 2 2 2 2 2 2 2 2 2 2 2 2
left_child=2 5 13 8 12 23 16 21 26 -6 -11 20 -4 -1 22 -8 -7 -17 27 -16 -10 24 -9 -2 25 -5 -3 -19 -12 -22
right_child=1 3 4 7 9 6 15 14 11 10 28 -13 -14 -15 19 17 -18 18 -20 -21 29 -23 -24 -25 -26 -27 -28 -29 -30 -31
leaf_value=-0.015930001727079014 -0.01102894551858306 0.00076480513591258253 -0.013197979361029479 0.040827466807057781 -0.005192660403815259 -0.0064635430579384166 0.009082563374723707 0.039199326315503213 0.021541552418068554 -0.0049920648230168431 0.001827808408469985 0.012904971041599243 -0.00595541816100339 -0.011043090162822088 0.053486188885412719 0.0095845083563815894 0.006276645316340812 0.022059050109879724 0.014325044726909594 0.077085550399053668 0.032886553037220538 0.024064481954325687 0.052325679250061513 -0.0017556560381763121 0.045936186126634186 0.028209164891361205 0.01282708862183257 0.034993344804515013 0.0071016054885190347 0.020314478264613585
leaf_weight=2008 125 61 566 62 435 75 245 157 178 333 355 119 856 1118 76 127 690 232 215 21 221 91 64 256 51 121 161 46 652 44
leaf_count=2008 125 61 566 62 435 75 245 157 178 333 355 119 856 1118 76 127 690 232 215 21 221 91 64 256 51 121 161 46 652 44
internal_value=0.000105728 0.016456 -0.00878437 0.0289473 -0.00350639 0.00759214 0.0104883 0.0399131 0.0199537 0.000765044 0.00269908 0.024078 -0.00883818 -0.0141822 0.0477575 0.0153176 0.00502761 0.0177815 0.0198931 0.0585953 0.0270794 0.0322376 0.0430006 -0.00479807 0.0354161 0.0324842 0.00951268 0.0241993 0.00524242 0.0307991
internal_weight=9761 3438 6323 1427 3197 2011 1630 643 784 1775 1340 562 1422 3126 318 865 765 620 493 97 443 325 221 381 234 183 222 278 1007 265
internal_count=9761 3438 6323 1427 3197 2011 1630 643 784 1775 1340 562 1422 3126 318 865 765 620 493 97 443 325 221 381 234 183 222 278 1007 265
is_linear=0
shrinkage=0.01


Tree=23
num_leaves=31
num_cat=0
split_feature=6 24 6 6 24 24 24 6 24 3 24 3 24 6 24 24 6 3 11 6 11 3 6 10 3 6 10 3 3 6
split_gain=13905.8 3730.83 1492.52 1226.68 666.821 525.163 362.832 219.355 218.39 170.09 169.375 136.846 135.438 97.8692 96.3413 93.0778 91.807 81.5676 72.8773 70.2935 56.0481 52.8875 43.4368 42.8907 42.5019 40.6891 40.4073 40.195 39.203 37.5885
threshold=35.500000000000007 4.416666666666667 17.500000000000004 83.500000000000014 3.166666666666667 2.166666666666667 6.8333333333333348 59.500000000000007 1.8333333333333337 32.500000000000007 1.5833333333333337 44.500000000000007 6.166666666666667 11.500000000000002 1.1666666666666667 3.5833333333333335 132.50000000000003 31.500000000000004 5.6609195402298864 58.500000000000007 4.4932432432432448 41.500000000000007 25.500000000000004 7.5903532608695663 41.500000000000007 94.500000000000014 8.5889792231255679 46.500000000000007 30.500000000000004 9.5000000000000018
decision_type=2 2 2 2 2 2 2 2 2 2 2 2 2 2 2 2 2 2 2 2 2 2 2 2 2 2 2 2 2 2
left_child=2 4 8 9 10 14 16 -6 29 -3 -2 28 19 -10 -4 22 18 -9 26 -11 -13 -12 -7 -21 -17 -19 -5 -14 -8 -1
right_child=1 3 5 6 7 15 11 17 13 12 21 20 27 -15 -16 24 -18 25 -20 23 -22 -23 -24 -25 -26 -27 -28 -29 -30 -31
leaf_value=-0.01517855087123708 -0.0080480644996795397 0.013023644901197595 -0.013507688398854143 0.040209127595027296 0.0092164554949317658 -0.0030563597538762017 0.033473736378161804 0.011168946788424537 -0.011495385795215043 0.01704359520716496 0.0020745118773887253 0.076472742443992978 0.027613210872207819 -0.0063983208497464207 -0.0061571050723497238 0.0030325183497009324 0.044241950125761438 0.019325178719189273 0.02517638853869655 0.029449827287059565 0.056464152847017557 0.007374970723364566 0.0016970028662598952 0.020587703922520514 0.0090502154287223895 0.027602045711798546 0.030341299427794174 0.0373981848359108 0.047735282603432155 -0.012564319821335641
leaf_weight=1586 144 194 237 90 525 371 23 105 960 251 644 21 152 620 720 426 71 249 110 104 42 266 399 115 162 78 77 58 119 842
leaf_count=1586 144 194 237 90 525 371 23 105 960 251 644 21 152 620 720 426 71 249 110 104 42 266 399 115 162 78 77 58 119 842
internal_value=0.000104671 0.0162914 -0.00869652 0.0286578 0.00751622 -0.00230378 0.0403137 0.0135594 -0.0123889 0.0212828 0.00202923 0.0508674 0.0236391 -0.00949527 -0.00797747 0.00169454 0.0340968 0.0188372 0.0314964 0.020656 0.0631337 0.00362388 -0.000593254 0.0247962 0.00469046 0.0212995 0.0356593 0.0303157 0.0454253 -0.014272
internal_weight=9761 3438 6323 1427 2011 2315 553 957 4008 874 1054 205 680 1580 957 1358 348 432 277 470 63 910 770 219 588 327 167 210 142 2428
internal_count=9761 3438 6323 1427 2011 2315 553 957 4008 874 1054 205 680 1580 957 1358 348 432 277 470 63 910 770 219 588 327 167 210 142 2428
is_linear=0
shrinkage=0.01


Tree=24
num_leaves=31
num_cat=0
split_feature=6 24 21 21 21 24 24 24 21 6 21 7 6 21 3 21 24 6 23 6 21 22 24 21 21 24 7 21 6 6
split_gain=13629 3656.59 1743.36 1360.51 701.702 699.8 411.878 372.603 327.574 194.916 256.307 182.699 172.471 165.467 157.662 128.74 105.616 103.574 116.357 88.9782 87.9157 82.3705 75.7467 70.1459 69.9934 68.908 63.2906 62.9092 62.1629 57.1073
threshold=35.500000000000007 4.416666666666667 4.1500000000000012 17.730000000000004 7.8500000000000014 2.166666666666667 3.166666666666667 6.166666666666667 10.640000000000002 15.500000000000002 6.2500000000000009 1.0000000180025095e-35 11.500000000000002 2.7500000000000004 44.500000000000007 10.750000000000002 1.5833333333333337 48.500000000000007 51.166666666666679 133.50000000000003 12.950000000000001 19.083333333333336 8.1666666666666696 6.5500000000000016 26.150000000000006 3.166666666666667 1.0000000180025095e-35 8.5500000000000025 85.500000000000014 96.500000000000014
decision_type=2 2 2 2 2 2 2 2 2 2 2 2 2 2 2 2 2 2 2 2 2 2 2 2 2 2 2 2 2 2
left_child=2 4 13 8 23 12 16 21 27 -7 -11 20 -4 -1 22 -8 -6 -17 28 -16 -10 24 -9 -2 26 -12 -5 -3 -19 -22
right_child=1 3 5 7 6 9 15 14 11 10 25 -13 -14 -15 19 17 -18 18 -20 -21 29 -23 -24 -25 -26 -27 -28 -29 -30 -31
leaf_value=-0.015636456336722192 -0.010917484735846519 0.00059560650929075772 -0.013266238577736233 0.040091033097236384 -0.0063184269850452748 -0.0050458166958689266 0.0088871578382594251 0.038445968627929691 0.02111063862617096 -0.0029298079392151388 0.0027303022230279806 0.012590191594692839 -0.0060201947501107899 -0.010836387817649593 0.052442389318817541 0.0093964987723376813 0.0061766946480746147 0.02169059742755931 0.013999545373195825 0.07569711026691256 0.03226860335644554 0.023550217061579885 0.051353347077965739 -0.0017786954225061892 0.045122659744000905 0.0085558134828846132 0.027665739318063438 0.012520530412656179 0.034415815109791963 0.019793439961292528
leaf_weight=2008 125 61 515 62 75 435 245 157 178 509 353 119 907 1118 76 127 690 232 215 21 221 91 64 256 51 478 121 161 46 44
leaf_count=2008 125 61 515 62 75 435 245 157 178 509 353 119 907 1118 76 127 690 232 215 21 221 91 64 256 51 478 121 161 46 44
internal_value=0.000103624 0.0161285 -0.00860956 0.0283712 0.00744106 -0.00341732 0.0102969 0.0391531 0.0195285 0.000770295 0.00265836 0.0235911 -0.00864447 -0.0139197 0.0468487 0.0150242 0.00495168 0.0174494 0.0195238 0.0574769 0.0265462 0.0316232 0.0421839 -0.00477699 0.0347626 0.0060812 0.0318754 0.00924386 0.0237962 0.0301973
internal_weight=9761 3438 6323 1427 2011 3197 1630 643 784 1775 1340 562 1422 3126 318 865 765 620 493 97 443 325 221 381 234 831 183 222 278 265
internal_count=9761 3438 6323 1427 2011 3197 1630 643 784 1775 1340 562 1422 3126 318 865 765 620 493 97 443 325 221 381 234 831 183 222 278 265
is_linear=0
shrinkage=0.01


Tree=25
num_leaves=31
num_cat=0
split_feature=6 21 21 21 6 6 7 21 21 7 21 21 21 3 6 3 21 6 21 21 21 6 11 6 6 6 10 6 6 6
split_gain=13214.5 3173.03 1710.63 863.832 742.12 696.8 560.191 392.805 380.382 317.619 247.308 218.09 207.561 170.328 150.135 149.3 147.279 131.353 122.073 107.601 80.2519 115.762 74.4967 74.1101 71.8014 70.5171 69.6571 72.7473 69.3457 60.7731
threshold=35.500000000000007 16.050000000000004 4.3200000000000012 8.5500000000000025 13.500000000000002 85.500000000000014 1.0000000180025095e-35 28.050000000000004 10.950000000000001 1.0000000180025095e-35 21.550000000000004 5.5500000000000016 2.9200000000000004 36.500000000000007 20.500000000000004 38.500000000000007 18.730000000000008 59.500000000000007 6.5500000000000016 13.850000000000003 13.050000000000002 70.500000000000014 5.5669642857142865 25.500000000000004 92.500000000000014 99.500000000000014 8.1617647058823533 69.500000000000014 61.500000000000007 45.500000000000007
decision_type=2 2 2 2 2 2 2 2 2 2 2 2 2 2 2 2 2 2 2 2 2 2 2 2 2 2 2 2 2 2
left_child=2 3 12 18 -4 13 8 9 17 16 -11 23 -1 -3 -13 22 25 -5 -2 -8 21 -10 -9 -6 -22 -7 27 -15 -21 -20
right_child=1 5 4 6 11 7 19 15 20 10 -12 14 -14 26 -16 -17 -18 -19 29 28 24 -23 -24 -25 -26 -27 -28 -29 -30 -31
leaf_value=-0.015315104030136369 -0.010259758437221701 0.014473379164846848 -0.010858521047648296 0.012361574270160356 -0.0023876221933823495 0.040323274042092114 -0.0064322758096320033 0.050907879734039305 0.021111635186374187 0.0081340288585744092 0.029764581503698952 -0.0032510347399923156 -0.010089430330248624 0.024292155328122053 0.0037531640202424534 0.056952175725366649 0.048184631860584297 0.0019732624202063588 0.003318532392199904 0.007870576304035733 0.026508740196824074 0.00887791144062898 0.028902680147439241 -0.009424180373611292 0.01338154428601265 0.024203414197625787 0.018829243558256523 0.035998990478706951 -0.0080011963121818779 -0.0041146676376128217
leaf_weight=2223 132 256 908 464 395 51 131 25 250 74 185 417 1155 154 1150 97 109 165 302 166 250 112 40 241 50 58 115 81 33 173
leaf_count=2223 132 256 908 464 395 51 131 25 250 74 185 417 1155 154 1150 97 109 165 302 166 250 112 40 241 50 58 115 81 33 173
internal_value=-0.000175167 0.0155679 -0.00860105 0.0084227 -0.00325086 0.0283545 0.012233 0.03564 0.0152052 0.0310708 0.0235844 -0.000115243 -0.0135284 0.0206724 0.00188925 0.0490936 0.0399652 0.0096365 -0.00175277 0.0006056 0.0204962 0.0173266 0.0373662 -0.00505399 0.0243209 0.0317457 0.0252065 0.0283273 0.00523857 0.000611283
internal_weight=9962 3473 6489 2228 3111 1245 1621 639 1291 477 259 2203 3378 606 1567 162 218 629 607 330 662 362 65 636 300 109 350 235 199 475
internal_count=9962 3473 6489 2228 3111 1245 1621 639 1291 477 259 2203 3378 606 1567 162 218 629 607 330 662 362 65 636 300 109 350 235 199 475
is_linear=0
shrinkage=0.01


Tree=26
num_leaves=31
num_cat=0
split_feature=6 24 21 21 21 6 24 24 21 21 21 21 7 3 21 7 7 21 3 24 24 21 21 24 6 24 6 21 23 23
split_gain=12951.5 3405.74 1676.59 1015.27 925.299 727.352 568.412 304.43 245.442 203.431 197.407 183.862 168.77 138.042 136.456 146.612 132.871 123.473 110.632 104.44 96.7975 92.5232 81.9136 72.6337 71.798 69.0712 68.5591 65.2318 62.8228 62.4014
threshold=35.500000000000007 5.166666666666667 4.3200000000000012 17.450000000000003 8.6500000000000039 13.500000000000002 3.166666666666667 2.166666666666667 28.050000000000004 2.9200000000000004 15.15 6.0500000000000016 1.0000000180025095e-35 32.500000000000007 10.450000000000001 1.0000000180025095e-35 1.0000000180025095e-35 6.5500000000000016 45.500000000000007 1.5833333333333337 4.416666666666667 10.950000000000001 22.150000000000006 7.5833333333333348 61.500000000000007 2.166666666666667 71.500000000000014 12.950000000000001 71.166666666666671 46.416666666666679
decision_type=2 2 2 2 2 2 2 2 2 2 2 2 2 2 2 2 2 2 2 2 2 2 2 2 2 2 2 2 2 2
left_child=2 4 9 14 17 25 19 -7 12 -1 16 -9 -5 -12 -3 27 21 -2 23 -6 -13 -8 -14 -10 -15 -4 -23 -16 -29 -26
right_child=1 3 5 8 6 7 10 11 18 -11 13 20 22 24 15 -17 -18 -19 -20 -21 -22 26 -24 -25 29 -27 -28 28 -30 -31
leaf_value=-0.015161952668758217 -0.010289739420594171 0.010605551941251313 -0.012760109272212244 0.044670419578520672 -0.0064728100120049464 -0.0050807681233726925 0.010764111593897854 -0.0024485572770750249 0.038828449187607597 -0.0099885360292800065 0.012711605910743986 0.0036676113186944336 0.024319351087139899 0.0177824331932709 0.021025144922451711 0.011113560421344561 0.0017643040931887097 0.00072533991392745344 0.064653059840202337 0.0065250828628262078 0.011855033380554969 0.022746379339694974 0.036324056886852939 0.057070033294813971 0.034451966712504258 -0.0069657044926350956 0.01267150313203985 0.03661049914360047 0.024654529972390815 0.02400187128636333
leaf_weight=2223 129 108 593 151 69 791 280 469 58 1155 140 765 101 119 127 78 90 482 46 594 178 175 130 35 81 315 110 85 91 194
leaf_count=2223 129 108 593 151 69 791 280 469 58 1155 140 765 101 119 127 78 90 482 46 594 178 175 130 35 81 315 110 85 91 194
internal_value=-0.000173415 0.0154122 -0.00851504 0.0308763 0.00907082 -0.00321835 0.0125914 -0.000114091 0.0405896 -0.0133931 0.0167283 0.00266823 0.0364493 0.021241 0.0205274 0.0233399 0.0130492 -0.00160027 0.0519679 0.00517236 0.00521306 0.0148468 0.0310752 0.0456936 0.0242718 -0.0107499 0.0188578 0.0264873 0.0304287 0.0270799
internal_weight=9962 3473 6489 1010 2463 3111 1852 2203 521 3378 1189 1412 382 534 489 381 655 611 139 663 943 565 231 93 394 908 285 303 176 275
internal_count=9962 3473 6489 1010 2463 3111 1852 2203 521 3378 1189 1412 382 534 489 381 655 611 139 663 943 565 231 93 394 908 285 303 176 275
is_linear=0
shrinkage=0.01


Tree=27
num_leaves=31
num_cat=0
split_feature=6 24 21 21 21 6 24 24 21 21 21 21 7 4 21 7 7 21 4 24 21 24 21 24 6 24 6 21 23 23
split_gain=12693.8 3337.97 1643.22 995.062 907.18 712.877 559.483 298.372 240.558 201.352 199.383 180.203 165.411 135.295 133.741 143.695 126.986 113.818 108.43 108.173 96.6842 94.8712 80.2835 71.1883 70.3693 67.6967 67.1948 63.9337 61.5726 61.1596
threshold=35.500000000000007 5.166666666666667 4.3200000000000012 17.450000000000003 8.5500000000000025 13.500000000000002 3.166666666666667 2.166666666666667 28.050000000000004 15.15 2.9200000000000004 6.0500000000000016 1.0000000180025095e-35 32.500000000000007 10.450000000000001 1.0000000180025095e-35 1.0000000180025095e-35 6.5500000000000016 45.500000000000007 1.5833333333333337 10.950000000000001 4.416666666666667 22.150000000000006 7.5833333333333348 61.500000000000007 2.166666666666667 71.500000000000014 12.950000000000001 71.166666666666671 46.416666666666679
decision_type=2 2 2 2 2 2 2 2 2 2 2 2 2 2 2 2 2 2 2 2 2 2 2 2 2 2 2 2 2 2
left_child=2 4 10 14 17 25 19 -7 12 16 -1 -9 -5 -11 -3 27 20 -2 23 -6 -8 -13 -14 -10 -15 -4 -22 -16 -29 -26
right_child=1 3 5 8 6 7 9 11 18 13 -12 21 22 24 15 -17 -18 -19 -20 -21 26 -23 -24 -25 29 -27 -28 28 -30 -31
leaf_value=-0.015010333501214763 -0.010186842042346335 0.01049949643926488 -0.012632508372124693 0.044223715525786612 -0.0066102029635033135 -0.0050299604119339722 0.010509114773893678 -0.0024240717032469679 0.038440164725842149 0.01258448979577848 -0.009888650634523594 0.0036309352092919688 0.024076157556385688 0.017604608915182722 0.020814893750224526 0.011002424775789945 0.0017466610670089722 0.00045230609961105039 0.06400652981322745 0.006440675854125986 0.022518915532316483 0.011736483071836529 0.035960816312008176 0.056499332700456886 0.03410744709733092 -0.0068960474582891616 0.012544788122177124 0.036244394091998831 0.024407984468635624 0.023761852498828749
leaf_weight=2223 129 108 593 151 71 791 296 469 58 140 1155 765 101 119 127 78 90 456 46 602 175 178 130 35 81 315 110 85 91 194
leaf_count=2223 129 108 593 151 71 791 296 469 58 140 1155 765 101 119 127 78 90 456 46 602 175 178 130 35 81 315 110 85 91 194
internal_value=-0.000171681 0.0152581 -0.00842989 0.0305675 0.00898012 -0.00318617 0.0123673 -0.00011295 0.0401837 0.0164464 -0.0132591 0.00264155 0.0360848 0.0210286 0.0203221 0.0231065 0.0127998 -0.00189376 0.0514482 0.00506384 0.0145119 0.00516093 0.0307645 0.0452366 0.0240291 -0.0106424 0.0186693 0.0262224 0.0301244 0.0268091
internal_weight=9962 3473 6489 1010 2463 3111 1878 2203 521 1205 3378 1412 382 534 489 381 671 585 139 673 581 943 231 93 394 908 285 303 176 275
internal_count=9962 3473 6489 1010 2463 3111 1878 2203 521 1205 3378 1412 382 534 489 381 671 585 139 673 581 943 231 93 394 908 285 303 176 275
is_linear=0
shrinkage=0.01


Tree=28
num_leaves=31
num_cat=0
split_feature=6 24 21 21 21 6 24 24 21 21 21 21 7 3 21 7 7 21 3 24 21 6 21 24 24 6 24 6 21 24
split_gain=12441.2 3271.54 1610.52 975.26 889.127 698.691 548.349 292.563 235.771 197.345 195.415 162.267 162.12 132.603 131.079 140.835 124.459 111.553 106.272 106.02 94.7602 90.2208 78.6858 74.7873 69.7716 68.9689 66.4115 65.8576 62.6614 62.2706
threshold=35.500000000000007 5.166666666666667 4.3200000000000012 17.450000000000003 8.5500000000000025 13.500000000000002 3.166666666666667 2.416666666666667 28.050000000000004 15.15 2.9200000000000004 6.3500000000000014 1.0000000180025095e-35 32.500000000000007 10.450000000000001 1.0000000180025095e-35 1.0000000180025095e-35 6.5500000000000016 45.500000000000007 1.5833333333333337 10.950000000000001 23.500000000000004 22.150000000000006 1.1666666666666667 7.5833333333333348 61.500000000000007 1.4166666666666667 71.500000000000014 12.950000000000001 4.8333333333333348
decision_type=2 2 2 2 2 2 2 2 2 2 2 2 2 2 2 2 2 2 2 2 2 2 2 2 2 2 2 2 2 2
left_child=2 4 10 14 17 26 19 23 12 16 -1 -9 -5 -11 -3 28 20 -2 24 -6 -8 -13 -14 -7 -10 -15 -4 -22 -16 -23
right_child=1 3 5 8 6 7 9 11 18 13 -12 21 22 25 15 -17 -18 -19 -20 -21 27 29 -24 -25 -26 -27 -28 -29 -30 -31
leaf_value=-0.014860230033133836 -0.010084973618157149 0.010394501458439563 -0.013760246189435324 0.043781478392169969 -0.0065441008945795855 -0.010277051145647779 0.01040402357239981 -0.0015103422121427368 0.038055762974866507 0.012458644911646844 -0.0097897641351083649 0.0010565040885576462 0.023835395978450188 0.017428562793912007 0.020606744965230388 0.010892400600207157 0.0017291944391197628 0.00044778305692090179 0.063366463858148328 0.0063762690774799378 0.02229372636931283 0.0067439755683764814 0.035601208160702995 -0.0028667859835934833 0.055934339506285527 0.026541009414873341 -0.0082675549536628916 0.012419340136376293 0.029823187975720925 0.015463182050915599
leaf_weight=2223 129 108 375 151 71 162 296 445 58 140 1155 238 101 119 127 78 90 456 46 602 175 400 130 855 35 275 533 110 176 103
leaf_count=2223 129 108 375 151 71 162 296 445 58 140 1155 238 101 119 127 78 90 456 46 602 175 400 130 855 35 275 533 110 176 103
internal_value=-0.000169964 0.0151055 -0.00834559 0.0302619 0.00889031 -0.0031543 0.0122437 -0.000111821 0.0397818 0.0162819 -0.0131265 0.00326277 0.0357239 0.0208183 0.0201189 0.0228754 0.0126718 -0.00187482 0.0509338 0.0050132 0.0143668 0.00612921 0.0304568 -0.00404718 0.0447843 0.0237888 -0.010536 0.0184826 0.0259602 0.00852942
internal_weight=9962 3473 6489 1010 2463 3111 1878 2203 521 1205 3378 1186 382 534 489 381 671 585 139 673 581 741 231 1017 93 394 908 285 303 503
internal_count=9962 3473 6489 1010 2463 3111 1878 2203 521 1205 3378 1186 382 534 489 381 671 585 139 673 581 741 231 1017 93 394 908 285 303 503
is_linear=0
shrinkage=0.01


Tree=29
num_leaves=31
num_cat=0
split_feature=6 21 21 21 6 6 7 21 21 7 21 21 21 3 6 21 3 6 21 21 21 6 6 11 6 6 6 5 21 6
split_gain=12193.6 2938.88 1578.48 796.666 684.787 645.008 528.299 363.731 352.186 300.409 233.196 205.019 191.526 160.235 143.475 140.117 139.256 127.532 112.641 103.885 75.8927 109.141 72.3945 70.6702 69.4392 67.6653 67.1044 64.9868 62.7145 59.4793
threshold=35.500000000000007 16.050000000000004 4.3200000000000012 8.5500000000000025 13.500000000000002 85.500000000000014 1.0000000180025095e-35 28.050000000000004 10.950000000000001 1.0000000180025095e-35 21.550000000000004 5.5500000000000016 2.9200000000000004 36.500000000000007 20.500000000000004 18.730000000000008 38.500000000000007 59.500000000000007 6.5500000000000016 13.850000000000003 13.050000000000002 70.500000000000014 25.500000000000004 5.5669642857142865 92.500000000000014 99.500000000000014 61.500000000000007 0.61591148577449961 12.750000000000002 45.500000000000007
decision_type=2 2 2 2 2 2 2 2 2 2 2 2 2 2 2 2 2 2 2 2 2 2 2 2 2 2 2 2 2 2
left_child=2 3 12 18 -4 13 8 9 17 15 -11 22 -1 -3 -13 25 23 -5 -2 -8 21 -10 -6 -9 -22 -7 -21 -16 -29 -20
right_child=1 5 4 6 11 7 19 16 20 10 -12 14 -14 -15 27 -17 -18 -19 29 26 24 -23 -24 -25 -26 -27 -28 28 -30 -31
leaf_value=-0.014711627586704088 -0.0098656500960615547 0.01385659007341019 -0.010430651967586038 0.011950293079275509 -0.0022638375874655912 0.038908157395381553 -0.006469727827961208 0.049079101562499998 0.02030749194800854 0.0075890891118025466 0.028593392193506192 -0.0031921855626265996 -0.009691866579380903 0.024266843127565725 0.0017068913448832085 0.04654005559759402 0.054805512809261832 0.0017141879228028383 0.0032552438346932751 0.007586942439427577 0.025585531094074247 0.0084287682588079157 -0.0092184729744289925 0.027646494816872293 0.012676072631776334 0.023117609219304443 -0.0080262273572611082 0.0047311021471483951 0.013995075647483814 -0.0040984094023941396
leaf_weight=2223 132 256 908 464 395 51 131 25 250 74 185 417 1155 350 688 109 97 165 302 166 250 112 241 40 50 58 33 371 91 173
leaf_count=2223 132 256 908 464 395 51 131 25 250 74 185 417 1155 350 688 109 97 165 302 166 250 112 241 40 50 58 33 371 91 173
internal_value=-0.000168265 0.0149544 -0.00826213 0.00807796 -0.00312276 0.0272603 0.0117371 0.0342697 0.0146234 0.0298729 0.0225922 -0.000110702 -0.0129953 0.0198691 0.0018328 0.038523 0.0472159 0.00926515 -0.00169392 0.000445553 0.0197146 0.0166323 -0.00489916 0.0358898 0.023434 0.0305058 0.00499782 0.0036549 0.00655582 0.000576966
internal_weight=9962 3473 6489 2228 3111 1245 1621 639 1291 477 259 2203 3378 606 1567 218 162 629 607 330 662 362 636 65 300 109 199 1150 462 475
internal_count=9962 3473 6489 2228 3111 1245 1621 639 1291 477 259 2203 3378 606 1567 218 162 629 607 330 662 362 636 65 300 109 199 1150 462 475
is_linear=0
shrinkage=0.01


Tree=30
num_leaves=31
num_cat=0
split_feature=6 21 21 21 6 7 6 21 21 21 7 21 21 3 6 21 21 10 21 6 5 21 6 3 3 6 6 6 6 21
split_gain=11891.7 2963.65 1588.56 829.584 757.883 577.732 560.209 375.971 308.591 284.999 273.987 220.063 160.55 156.738 153.241 131.595 129.892 127.869 121.421 111.717 94.4296 91.7454 82.5992 76.4388 73.3213 70.0927 66.3436 61.1175 59.3779 57.8558
threshold=35.500000000000007 16.350000000000005 4.1500000000000012 8.6500000000000039 87.500000000000014 1.0000000180025095e-35 13.500000000000002 28.050000000000004 12.230000000000002 5.5500000000000016 1.0000000180025095e-35 21.750000000000004 2.7500000000000004 47.500000000000007 20.500000000000004 18.730000000000008 13.850000000000003 8.0987804878048788 7.410000000000001 59.500000000000007 0.58951465201465214 9.8500000000000032 63.500000000000007 38.500000000000007 32.500000000000007 69.500000000000014 8.5000000000000018 25.500000000000004 103.50000000000001 10.950000000000001
decision_type=2 2 2 2 2 2 2 2 2 2 2 2 2 2 2 2 2 2 2 2 2 2 2 2 2 2 2 2 2 2
left_child=2 3 12 18 17 8 26 10 19 27 15 -12 -1 24 -11 28 -7 20 -2 21 -3 -5 -18 -10 -9 -22 -4 -8 -6 -21
right_child=1 4 6 5 7 16 9 13 23 14 11 -13 -14 -15 -16 -17 22 -19 -20 29 25 -23 -24 -25 -26 -27 -28 -29 -30 -31
leaf_value=-0.014757854470351913 -0.0057213772110383697 0.018171463185043514 -0.011862223916820118 0.0099496901771770081 0.038339432759718461 -0.0071224805930008494 -0.0034716472085402445 0.028820540331877195 0.017386872160477917 -0.0030848155392600839 0.0088152752432173916 0.029975293116248917 -0.010077246196073045 0.067268821677646126 0.0039203722557545661 0.047009979442718931 0.0080638506502550555 0.014007107646912972 0.0031538443541996347 0.0020799187860275443 0.023815621984891653 0.01827992136718283 -0.0084774029855098996 0.025672055996985358 0.047959047925883333 0.036504408419132231 -0.0063505266411177938 -0.0094936556848444677 0.023118923952182135 0.011241864496192267
leaf_weight=2039 333 174 560 260 55 132 486 26 207 433 70 165 1144 37 1120 109 187 234 287 148 121 269 36 241 87 68 358 258 48 129
leaf_count=2039 333 174 560 260 55 132 486 26 207 433 70 165 1144 37 1120 109 187 234 287 148 121 269 36 241 87 68 358 258 48 129
internal_value=-1.9039e-05 0.015025 -0.00806775 0.00821481 0.0277384 0.0120018 -0.00310974 0.0357055 0.01519 -0.000470828 0.0311084 0.0236723 -0.0130756 0.0494048 0.00196722 0.0393512 0.000739679 0.0197713 -0.00161301 0.0114916 0.0234871 0.0141857 0.00539351 0.0218439 0.0435555 0.0283809 -0.00971278 -0.00555992 0.0312464 0.00634667
internal_weight=9821 3423 6398 2229 1194 1609 3215 597 1254 2297 447 235 3183 150 1553 212 355 597 620 806 363 529 223 448 113 189 918 744 103 277
internal_count=9821 3423 6398 2229 1194 1609 3215 597 1254 2297 447 235 3183 150 1553 212 355 597 620 806 363 529 223 448 113 189 918 744 103 277
is_linear=0
shrinkage=0.01


Tree=31
num_leaves=31
num_cat=0
split_feature=6 24 6 24 6 24 6 3 24 24 24 24 23 23 23 23 3 24 23 6 24 24 6 24 23 6 24 23 24 23
split_gain=11655.1 3289.6 1275.15 936.747 864.534 508.421 286.56 218.39 185.313 169.603 163.237 158.354 125.036 96.8618 94.1006 90.9203 79.3086 78.2203 78.132 73.9009 66.0526 63.0362 62.6749 57.9845 51.2817 48.0919 48.3276 58.3973 43.5765 43.2705
threshold=35.500000000000007 5.166666666666667 16.500000000000004 3.166666666666667 83.500000000000014 2.8333333333333335 70.500000000000014 39.500000000000007 1.8333333333333337 2.166666666666667 1.5833333333333337 7.166666666666667 41.833333333333336 28.166666666666668 49.833333333333336 19.833333333333339 31.500000000000004 1.1666666666666667 28.416666666666668 8.5000000000000018 4.5833333333333348 3.8333333333333335 51.500000000000007 3.8333333333333335 42.833333333333336 130.50000000000003 8.1666666666666696 81.833333333333357 3.416666666666667 47.416666666666679
decision_type=2 2 2 2 2 2 2 2 2 2 2 2 2 2 2 2 2 2 2 2 2 2 2 2 2 2 2 2 2 2
left_child=2 3 8 9 16 10 12 25 -1 17 -4 -9 22 28 -8 -12 -3 -2 -11 -10 -16 -14 -5 -15 -25 26 27 -6 -7 -18
right_child=1 4 5 6 7 13 14 11 19 18 15 -13 21 23 20 -17 29 -19 -20 -21 -22 -23 -24 24 -26 -27 -28 -29 -30 -31
leaf_value=-0.01335737200045004 -0.012596059994151195 0.01314570800231939 -0.010457094946408016 0.01240822703787621 0.035949553468010646 0.0047619488873643541 0.027968852152116596 0.040045966972811868 -0.011380083434120241 0.010513295178598428 -0.00047447752274399859 0.056784063529968266 0.0024358805376840267 -0.0021713445085479182 0.013642474845225034 -0.0065783644320854782 0.031576040628655204 -0.0012401693388016267 0.0026993520253850039 -0.0068406416335406398 0.022930472804084962 0.010003557981442391 0.021105064491275697 0.0083942535583669629 0.0009948958491065329 0.042301162176805997 0.041578222224206637 0.022494247476809108 0.012798939626831729 0.022352081090392269
leaf_weight=2378 72 88 561 235 55 172 128 130 638 182 463 100 152 320 172 516 58 385 431 819 138 399 128 141 279 46 33 78 111 413
leaf_count=2378 72 88 561 235 55 172 128 130 638 182 463 100 152 320 172 516 58 385 431 819 138 399 128 141 279 46 33 78 111 413
internal_value=-1.88486e-05 0.0148747 -0.00798707 0.00857244 0.0301236 -0.00252613 0.014105 0.0405749 -0.0116367 0.00158174 -0.0061562 0.0473234 0.010918 0.00293849 0.0207555 -0.00369164 0.0218598 -0.00302928 0.00501932 -0.0088284 0.0177771 0.00791592 0.0154749 0.00103559 0.00347897 0.0332534 0.0307461 0.0280585 0.00791427 0.0234879
internal_weight=9821 3423 6398 2422 1001 2563 1352 442 3835 1070 1540 230 914 1023 438 979 559 457 613 1457 310 551 363 740 420 212 166 133 283 471
internal_count=9821 3423 6398 2422 1001 2563 1352 442 3835 1070 1540 230 914 1023 438 979 559 457 613 1457 310 551 363 740 420 212 166 133 283 471
is_linear=0
shrinkage=0.01


Tree=32
num_leaves=31
num_cat=0
split_feature=6 24 6 24 6 24 6 3 24 24 24 24 23 23 23 23 3 24 23 6 24 24 6 24 23 6 24 23 24 24
split_gain=11423.2 3224.14 1249.78 918.106 847.329 498.303 280.858 214.044 181.625 166.228 159.989 155.202 122.548 94.9342 92.228 89.4179 77.7304 76.6637 76.5771 72.5874 64.7382 61.7818 61.4277 56.8306 50.2612 47.1349 47.3658 57.2352 42.7093 42.4974
threshold=35.500000000000007 5.166666666666667 16.500000000000004 3.166666666666667 83.500000000000014 2.8333333333333335 70.500000000000014 39.500000000000007 1.8333333333333337 2.166666666666667 1.5833333333333337 7.166666666666667 41.833333333333336 28.166666666666668 49.833333333333336 16.833333333333339 31.500000000000004 1.1666666666666667 28.416666666666668 9.5000000000000018 4.5833333333333348 3.8333333333333335 51.500000000000007 3.8333333333333335 42.833333333333336 130.50000000000003 8.1666666666666696 81.833333333333357 3.416666666666667 6.5833333333333348
decision_type=2 2 2 2 2 2 2 2 2 2 2 2 2 2 2 2 2 2 2 2 2 2 2 2 2 2 2 2 2 2
left_child=2 3 8 9 16 10 12 25 -1 17 -4 -9 22 28 -8 -12 -3 -2 -11 -10 -16 -14 -5 -15 -25 26 27 -6 -7 -18
right_child=1 4 5 6 7 13 14 11 19 18 15 -13 21 23 20 -17 29 -19 -20 -21 -22 -23 -24 24 -26 -27 -28 -29 -30 -31
leaf_value=-0.013223798485978799 -0.012470099337192045 0.013014250854876909 -0.010352524150820339 0.012284144767738403 0.03559005799076774 0.0047143294295664264 0.02768916364060715 0.039645507427362295 -0.010928156741194097 0.010408162203627629 0.00091390600620187671 0.056216223287582398 0.0024115217391303496 -0.002149631064865389 0.013506050165309463 -0.0056539235559562922 0.021016381060206656 -0.0012277676834250111 0.0026723585296379027 -0.0064632051381255115 0.022701168220922135 0.0099035223861012548 0.020894013941287995 0.0083103110131490573 0.00098494687756877329 0.041878150507159859 0.041162440307212604 0.022269304786832672 0.012670950151493285 0.027287072657962288
leaf_weight=2378 72 88 561 235 55 172 128 130 743 182 298 100 152 320 172 681 303 385 431 714 138 399 128 141 279 46 33 78 111 168
leaf_count=2378 72 88 561 235 55 172 128 130 743 182 298 100 152 320 172 681 303 385 431 714 138 399 128 141 279 46 33 78 111 168
internal_value=-1.86602e-05 0.014726 -0.0079072 0.00848671 0.0298224 -0.00250087 0.013964 0.0401691 -0.0115203 0.00156592 -0.00609464 0.0468502 0.0108088 0.0029091 0.020548 -0.00365473 0.0216412 -0.00299899 0.00496912 -0.00874012 0.0175994 0.00783676 0.0153201 0.00102523 0.00344418 0.0329208 0.0304387 0.0277779 0.00783512 0.0232531
internal_weight=9821 3423 6398 2422 1001 2563 1352 442 3835 1070 1540 230 914 1023 438 979 559 457 613 1457 310 551 363 740 420 212 166 133 283 471
internal_count=9821 3423 6398 2422 1001 2563 1352 442 3835 1070 1540 230 914 1023 438 979 559 457 613 1457 310 551 363 740 420 212 166 133 283 471
is_linear=0
shrinkage=0.01


Tree=33
num_leaves=31
num_cat=0
split_feature=24 24 24 24 24 24 24 3 3 3 3 3 3 3 7 7 14 23 24 24 25 23 5 12 3 10 7 3 11 12
split_gain=10666.8 2037.61 1424.91 386.392 279.612 231.566 184.115 161.306 141.926 139.238 133.925 106.254 83.6373 69.5804 60.2576 46.8695 42.3679 41.0368 40.5654 40.4214 37.0426 36.3715 32.4857 30.2066 29.2141 28.7432 26.4954 24.9065 24.9028 23.2741
